{
  "layers": [
    {
      "w": [
        0.03804586858894671,
        0.001964004205051274,
        15.267969116699465,
        0.0433906064888856,
        0.026428504204804287,
        -0.042598437385383776,
        4.179630843530814,
        6.4937048625206835,
        2.320458097132762,
        6.4127728895006015,
        2.3735199324327194,
        14.617658542829897,
        14.975848750503195,
        14.962566320753675,
        15.081640094523616,
        4.101183726635697,
        4.35453439878741,
        10.304485221299517,
        1.1437542899268431,
        1.2440073113299375,
        4.275975215499717,
        0.5111599373752278,
        2.88597035253874,
        0.7169406948182881,
        7.456104090985999,
        8.577105616093032,
        5.743483509587315,
        3.892959276681307,
        0.8726199344241082,
        1.498398400030681,
        0.3667132217333895,
        10.012681298910971,
        4.752901456119621,
        3.598555745370849,
        -0.020197306601312144,
        -0.015249436183433078,
        -0.042045286599061475,
        0.04031995957888084,
        -0.04331762762145762,
        -0.026905773283186163,
        -0.023909843524274322,
        5.626982571537406,
        0.00013810495288557714,
        -0.007068515416179201,
        -0.0014110405306296432,
        -0.8377909749393159,
        2.254042098806865,
        1.9114794420275372,
        -0.04312655376696818,
        -0.037134462482174904,
        0.9609984826131551,
        -0.01306578913633847,
        -1.2202697108152134,
        2.3743413750381275,
        1.891784646711541,
        0.011762495803758464,
        -0.010742777160121099,
        1.0480569607679546,
        0.05622861360787432,
        2.5853559025234447,
        2.663384915784879,
        2.547157565583953,
        0.04040882161362848,
        -0.02281657583273074,
        0.8544058509948084,
        0.10659607418049315,
        1.3073955431116917,
        1.8000936331581063,
        1.89736897423494,
        -0.02869029657465326,
        0.004665457453583394,
        0.7590099657084801,
        0.11106799246486608,
        -1.0852680890839728,
        0.48772747053091664,
        0.29911644505424784,
        -0.01876542288142696,
        0.034149199830106836,
        0.2190392554763164,
        -0.030541032801258694,
        1.2514362341026697,
        -0.01839078308407705,
        -0.039751935498021834,
        -0.0389101745976641,
        -0.0296259893357663,
        0.5930743393554626,
        0.09535405413924539,
        0.20414094078277742,
        0.033567749065217006,
        0.0057643889841070125,
        -0.020863454618597347,
        -0.022377350426973502,
        0.4832190211960593,
        0.13102172044550714,
        1.0807299713333596,
        0.02900469891826398,
        0.024595521370079483,
        0.0005781763674377992,
        0.01719367850840955,
        0.5627447669392377,
        0.03609279502079868,
        0.1986118434872213,
        0.0016338260564689926,
        0.009820813896551142,
        0.03243528034240895,
        -0.008014468193582223,
        0.4436913894174503,
        0.08386959982521949,
        -0.03541370764818416,
        -0.027932086503692884,
        -0.012721448515003593,
        0.012467458492483159,
        -0.03224716994234548,
        0.15909493750883594,
        -0.0402915611100453,
        2.5634738660736036,
        3.6283112393027914,
        2.4153875733780827,
        0.7557847881601165,
        2.7367034125008316,
        4.1174893434890185,
        -0.009843537040378778,
        -1.1100530174773084,
        2.4297603976619353,
        1.7962399788945107,
        0.40948211545510327,
        2.4384075229614197,
        2.102521744821345,
        -0.0352917457088655,
        0.0915991719947925,
        2.313500046096607,
        1.4581262850157481,
        0.1560192351755102,
        1.7649663278071759,
        1.7368662062184685,
        0.031478505126115955,
        -0.16939819999696978,
        1.3942994496963959,
        0.994019510669421,
        0.19504050696527114,
        1.5281272219504314,
        0.9805235071800376,
        -0.02984231918015348,
        -0.9804136990874253,
        0.7644565434350976,
        0.5032552517018751,
        0.03231123166698474,
        1.1959829077584767,
        0.5749231015689849,
        -0.04192749040181798,
        1.9014882458553726,
        3.3777151307516227,
        2.237604459291826,
        1.1134860165505984,
        4.107038801049501,
        4.478622382850882,
        0.022977360968881165,
        -0.18600854527200605,
        1.6377425249025301,
        1.183814453323987,
        0.21793704947359507,
        2.097119640293799,
        2.126439387499338,
        -0.03977909730668326,
        -0.522401043941726,
        1.043118976128468,
        0.6798925508417578,
        0.25477482926671285,
        1.1761042072218777,
        1.2412152921076547,
        -0.020506559777103403,
        -0.326915750621664,
        0.7717748848225314,
        0.5833150104217032,
        0.2521850987004383,
        0.6156730068440379,
        0.9701949476692612,
        0.03112137039139651,
        0.2559117683197299,
        0.33918497835021877,
        0.24524232687234743,
        0.036384144143548666,
        0.617480889074855,
        0.38327629433379556,
        -0.04367757647788873,
        -0.06606331577681337,
        0.7335559874433938,
        0.679497044078267,
        0.12207188265203485,
        1.0281315356422884,
        0.6996516356789271,
        0.012015167725909843,
        0.3450139323781349,
        0.3030791671830277,
        0.44696551146729185,
        -0.00962664409194894,
        0.27764577119532874,
        0.30709205949680735,
        -0.007080065507969515,
        -0.027047216812040233,
        0.06094119311734279,
        -0.01285392141385427,
        -0.012842813613455186,
        0.001268214171645471,
        -0.011826681833326759,
        0.00712737712757219,
        -0.040432573164070076,
        -0.038740844469558784,
        -0.03718844105360644,
        -0.0044344287579095205,
        -0.026609708179201594,
        0.041366861764664135,
        0.035105695338897985,
        -0.003677154766305773,
        -0.0365735802304877,
        -0.016621080812134634,
        0.034483006919140656,
        -0.0023404716147847372,
        -0.041261772796242054,
        0.03014941887348404,
        0.6284573717253301,
        1.1483842415544754,
        1.2392837241956423,
        0.016375166745395856,
        1.815135802007132,
        0.736014180655878,
        -0.029884933482386352,
        -0.019413959115774246,
        0.2654030585836927,
        0.20756532892199842,
        0.07306706612796958,
        0.2587662487083848,
        0.20655747209996667,
        0.0118930990885421,
        0.6159103789507152,
        0.38355515078530494,
        0.40508562760680816,
        0.0521988316794256,
        0.3008573476646181,
        0.25826861565197506,
        0.024067419134785595,
        -0.3706558423030225,
        0.07257235075689182,
        0.03462422837537752,
        -0.043551758637880536,
        0.0710360382323932,
        0.000039102284192072415,
        0.034958297682889224,
        0.029783717509771063,
        0.010476277051331091,
        -0.0027725094206784767,
        0.037481607858074965,
        -0.03414507700912848,
        0.038567878353333404,
        -0.02521399070716877,
        0.6480467114849795,
        1.5030065024996495,
        1.1986438788016873,
        -0.029696692739250793,
        7.564648655586368,
        0.009290131275610115,
        0.0059166289483417915,
        2.344725051831382,
        1.8768905320297076,
        1.4716072031179661,
        -0.00924581480813563,
        7.474351534619871,
        0.017228791636802566,
        0.02887347700258741,
        -1.7409847514230485,
        1.4601281747562622,
        1.3706936816677724,
        0.02979504070097628,
        6.137748588352565,
        -0.015520992208277067,
        0.001933349682086635,
        0.030641358652660367,
        2.1954427369586003,
        2.0050548526600886,
        -0.003504062575561858,
        4.106981522385782,
        0.0010384588624661301,
        -0.027539926923915423,
        2.0623374613879717,
        1.8934441412388856,
        1.611222196930997,
        0.011952803996156293,
        2.9714345404153226,
        -0.042368044829422885,
        0.022652321612405525,
        0.2975826490379232,
        -0.02000019777686472,
        0.03874142267882909,
        0.03748310108436959,
        7.502767049586611,
        -0.026027284680339144,
        0.02239484772739919,
        0.5122053018087219,
        0.017825986773268746,
        -0.02637347683828447,
        -0.03792404653911571,
        7.204984090953029,
        0.030375573080842055,
        -0.0002418776113612233,
        -0.8587747333345952,
        0.0057872315849020585,
        -0.004944565130339822,
        -0.032934794239341626,
        5.91317120693135,
        -0.0017994365500544434,
        -0.003935216073672515,
        2.1507565471911216,
        0.03298526535735206,
        -0.03497232247522113,
        -0.017930903100039763,
        5.339384019594698,
        -0.030299518808047907,
        -0.04060308698128824,
        0.20368869843228155,
        -0.03913573762431999,
        -0.036784300941816915,
        0.0010977610873691064,
        3.961003025392635,
        -0.03646287136888497,
        -0.03876281360187431,
        0.028814473216292512,
        1.8710230478344285,
        1.185271181726165,
        0.01836398511633622,
        -0.042184706340551506,
        0.03293349800731197,
        0.0216976917962617,
        2.313971212919002,
        2.329242389473202,
        1.7928275478163582,
        0.012667886779351541,
        0.017659924984611674,
        -0.012041291784665101,
        -0.04377907730925259,
        -3.0054190349392,
        1.6183396311420626,
        1.3714548598302836,
        -0.035791252161273,
        -0.01893627497386069,
        -0.039485944728275234,
        -0.03108617620431673,
        0.6740475983631845,
        1.2151832846211357,
        1.1108245624170636,
        -0.03682478020647978,
        0.0019712456409474405,
        -0.01042743775502885,
        0.03417578355312007,
        -1.7083124098589895,
        0.8587845540199733,
        0.647187371747762,
        -0.011251306338073004,
        -0.01686731287857952,
        0.005278088988375624,
        -0.0352436763298284,
        0.34173361384689643,
        1.6084911427444535,
        1.48842161056777,
        0.037703872141193154,
        0.028264816185632678,
        -0.03514739473162491,
        -0.01440252671473585,
        0.8985612491946156,
        1.6588540107525283,
        1.0944655072717249,
        -0.0403165045233692,
        -0.03397154185175373,
        0.004195781170462128,
        0.027510695591669247,
        -0.3686112055674257,
        1.7204723096150452,
        1.4951097081783273,
        -0.00561890881620161,
        -0.0015875489370412092,
        -0.026722809131554955,
        0.00837268980931596,
        -0.5811357590463594,
        1.2053965832636404,
        0.7631833938501785,
        0.0018512923152962703,
        -0.02595781916446841,
        0.035730533168947635,
        -0.02340534281812031,
        0.3236214998356402,
        1.2483669957663501,
        0.9283448558008323,
        -0.007810336089205661,
        0.026693165860904207,
        -0.031679756078795814,
        -0.043420017458802945,
        0.014422085434181551,
        10.117937094424436,
        14.199680191250014,
        0.024214844133170457,
        -0.02449436765868448,
        1.9605002943389942,
        0.023136896627745006,
        -0.0002428514780124615,
        -0.0007341137936314179,
        -0.002659663491425587,
        0.03694286412172203,
        4.490283154866265,
        -0.015190818506800464,
        -0.039175859588094795,
        0.011749977918999373,
        0.03344513373771816,
        -0.03092415432768298,
        0.01652909707083497,
        7.980754106397542,
        7.902498902869939,
        0.004828391400919953,
        0.029123280506542212,
        -0.03035492278504903,
        -0.01913561086469321,
        -0.03519499115167551,
        -0.01613658868033167,
        0.007328501918341245,
        -0.005889615116040228,
        0.04128107403355237,
        -0.030900869843072037,
        -0.0030216253215011547,
        -0.03509107088799702,
        -0.0008089564211646364,
        0.0227778342863935,
        -0.034600209580671566,
        0.035325472026756906,
        -0.01509242254908466,
        -0.04333785914924719,
        -0.008466788676049965,
        -0.03796951192057661,
        -0.023748804585266094,
        0.004422702504358987,
        0.03191846547548666,
        -0.024337713898420838,
        0.03974668516968578,
        -0.01608700016546206,
        0.017604988452101625,
        0.04089823412238997,
        -0.039514647226375724,
        0.002987319464630593,
        0.010188974033503145,
        -0.024167580941376526,
        0.0018548795996448438,
        -0.010261188507327894,
        -0.006396406516606789,
        0.020642375396763137,
        -0.016695441268248366,
        -0.037453321496038354,
        0.02156106149535177,
        -0.03754202837785624,
        -0.03513775802675405,
        -0.020449147980097997,
        0.014470891679164011,
        -0.02761256937489762,
        0.011579068578977676,
        0.0268385614474697,
        -0.014369360857242993,
        -0.03448700694118513,
        -0.028270753150564598,
        0.02669472407674694,
        0.014231831484769517,
        0.028244896629147177,
        -0.02834988975824973,
        -0.04436960827850325,
        0.020003209339682533,
        -0.01639600581972255,
        -0.053214266236772265,
        -0.03307374885856549,
        -0.020079859467017375,
        -0.01384635114715906,
        0.014390513201756503,
        -0.002857195381664393,
        -0.03288944805668574,
        0.04340138975805374,
        -0.004467397058663295,
        0.026013534376453866,
        0.015981808612722446,
        -0.003474469648237403,
        0.03646638480527261,
        0.0033810505226104866,
        0.02803714733719125,
        0.037476259213667845,
        0.021581159900686816,
        -0.01821054894151013,
        -0.017282553731538086,
        0.012160884863352739,
        0.01731561559026336,
        -0.025028058377046993,
        0.01070759284746499,
        0.016207303859247773,
        -0.019414036918595858,
        0.029623195559440145,
        -0.03710201836312816,
        0.042647207870644806,
        0.03623487501891033,
        -0.009505355344031486,
        0.039896642414567564,
        -0.040624216301896166,
        -0.006900351095776226,
        0.00984237408885598,
        0.01594764467964709,
        -0.016043427335667746,
        -0.029351922696471505,
        0.003099738978649314,
        -0.017402059703404704,
        0.019601248346548077,
        -0.004405154052269281,
        0.01096504480204253,
        -0.028327923859554575,
        -0.024406126159520168,
        0.013462936982339427,
        -0.02248405037728317,
        0.0020693950414121644,
        0.011086015623256033,
        0.028824717742354417,
        -0.0034863597076174,
        -0.0012519774955192838,
        -0.015147137271287926,
        0.024165948356109065,
        -0.02767104571610231,
        0.026090779052526165,
        0.04355845026891253,
        -0.027114892805725533,
        -0.02495656352638387,
        0.016019515987306984,
        -0.03784946984817028,
        -0.010838101042731264,
        -0.030435140135297516,
        -0.026403698270470986,
        0.012329555180727243,
        -0.008017376467074675,
        0.04105287595744968,
        0.026942120299544417,
        -0.03433219543252328,
        -0.03840325214102919,
        0.01421032901512829,
        0.026929453023454918,
        0.031436625939244484,
        -0.0011094922574185504,
        -0.006267473933498126,
        -0.011410570922493467,
        0.002319478442851833,
        0.018897188713521803,
        0.02414275493904929,
        0.0039019817899173174,
        -0.023806851019787707,
        0.03868245817670124,
        -0.0066342586407244376,
        -0.0043269680341899526,
        0.03502055986145721,
        -0.019011457483571043,
        -0.0068943770050769486,
        0.037101648864886,
        0.027459588666473536,
        0.008021694134713375,
        -0.034813886092038566,
        -0.007702872241576331,
        0.018089041151750362,
        0.02106722421035996,
        -0.01311209532189452,
        -0.015852706868065714,
        0.024128272006640816,
        -0.018146235428485622,
        -0.025129500670058775,
        0.03586306370731548,
        0.011775751728494141,
        -0.03963031838171208,
        0.004988990873831849,
        -0.023585822519639102,
        0.030563950756191248,
        0.004269494401742831,
        0.02154392248477004,
        -0.007685443452158603,
        -0.02507847663944033,
        -0.03738519241919857,
        0.011277795581598032,
        -0.02053097365573522,
        -0.003125453185686535,
        0.009963783452116008,
        0.033336968932897934,
        -0.04336425124103267,
        0.03651584504769894,
        0.023152903085217943,
        0.03149094322625672,
        0.022613495465004255,
        -0.03335515744471727,
        -0.03100501758011804,
        -0.0038092212511521436,
        0.028186421381891154,
        0.02750254034524249,
        0.01841678187135329,
        -0.041933652168665195,
        -0.010556086357393092,
        0.04060060165418418,
        -0.03497346677107448,
        0.007738783468799459,
        0.015340946308216918,
        0.0008491586079870684,
        -0.04190408197016385,
        -0.007531768948048376,
        -0.017366194608744417,
        0.037752802785838604,
        0.037545787982782165,
        -0.02136974657313584,
        -0.0067725176869421685,
        -0.0391649420781299,
        -0.03248301431980417,
        0.01402321365651187,
        0.0007983349054562219,
        0.01815487803272752,
        -0.017125472943484557,
        -0.028016009236416704,
        0.02002976527152436,
        -0.03754627799031044,
        0.02914264282621848,
        0.016748773148554566,
        0.005999965771183,
        0.0382636228096121,
        -0.020278193953101566,
        0.0054010935641115275,
        0.013808626026691473,
        -0.013527338783882684,
        -0.04367228282521103,
        -0.007975325794978363,
        0.04188121158282738,
        -0.0074642695665425585,
        -0.03581258453714871,
        0.009377205563154262,
        -0.040833759176454175,
        -0.005942258717448015,
        -0.0067679672440994045,
        -0.03864589987358876,
        -0.03122927142410178,
        -0.01051712284221788,
        0.0018720358746716038,
        -0.029180508261979335,
        0.028475874692773847,
        0.006261877471024102,
        -0.019735299881608662,
        0.027229666269418595,
        -0.0389036057436284,
        0.015379166915311538,
        0.01465758810929364,
        -0.01683752835988008,
        0.016699188159063454,
        -0.02134601474310629,
        -0.04137919595762801,
        -0.04373425822599673,
        0.040427825979376976,
        0.03585669996214027,
        -0.0026283408891294734,
        0.01653899203577176,
        -0.016974901196766194,
        0.016156808396833117,
        0.02666574406631833,
        0.0037611188315712935,
        0.0435162818604339,
        0.0460211791442938,
        0.021776731128860204,
        0.005889505827648693,
        -0.04203475152169336,
        -0.038358416438867525,
        0.028662356876130633,
        0.022490715093218105,
        0.011618893999250635,
        -0.0010776889114622627,
        0.01726151400052272,
        -0.027322585785492955,
        0.03463943014627647,
        -0.004305885890880663,
        0.0033882362462887474,
        -0.03512882065005806,
        0.016646461538066475,
        -0.033028873890674534,
        0.03844534225663983,
        0.025998935602028816,
        0.011780920121221635,
        -0.02974869230020506,
        0.0395747987947791,
        -0.01231495545155693,
        0.03968805369583783,
        -0.028989297434054685,
        0.024529284892812257,
        0.008499667897304405,
        0.016778463636796328,
        -0.0062785131485701105,
        0.04107481504691017,
        0.02134105871888422,
        -0.0339851108874155,
        0.014801238663918423,
        0.033624865404807816,
        0.040001125494299884,
        -0.04070626258841072,
        -0.024123606508499467,
        0.021948570590659203,
        -0.001994985740535514,
        0.013096082143564166,
        0.03712479388083816,
        0.015923215024672182,
        -0.01473986503667381,
        -0.008578070127308497,
        -0.04092148752306056,
        0.00957698185056933,
        -0.005294202110388286,
        -0.013349522707100277,
        0.013414067655301678,
        0.028951682671668533,
        0.02362769817087402,
        0.027953686566616138,
        -0.006022636632738548,
        -0.031032705120326333,
        0.0055230674987130236,
        -0.02043096353518448,
        -0.009271949570533285,
        0.034651716914159233,
        0.040582363953730854,
        0.025321638072192818,
        0.002178611210563534,
        -0.019453035299962226,
        -0.041908881986730984,
        0.001478593722475997,
        -0.02222543139173968,
        0.015299385241659245,
        0.01611213180971378,
        -0.019325615500937275,
        -0.03682099357563272,
        0.021724262540592267,
        0.0020854094304004205,
        0.004982537284837632,
        -0.02838039057159461,
        -0.023877285366770327,
        0.017557401187478974,
        0.02783243929068315,
        0.036954880444483966,
        -0.00281282366575853,
        -0.04084491761266734,
        -0.017587867585573923,
        -0.03271174156374842,
        -0.023410279039248583,
        0.0341919064308667,
        0.003866267922090285,
        0.033124809903858354,
        0.025150859525850385,
        -0.03406539159935967,
        0.0025224875097356247,
        0.037376232143360576,
        -0.03274970081369728,
        -0.010005749058085746,
        -0.02997727169541743,
        0.013116229379471895,
        -0.03072738085085346,
        -0.032644397472736925,
        -0.015773150459437026,
        0.01420616964613443,
        0.018942758056016383,
        -0.04707060047882784,
        -0.035083061607943125,
        0.006006361446344267,
        -0.034377068461862614,
        -0.015611080365371321,
        0.0030948083716778245,
        -0.04288543580658432,
        -0.007720602532897791,
        -0.004571558960102646,
        -0.03240705423118161,
        0.0021109346828887786,
        -0.01796010968861588,
        -0.04289646719096862,
        0.013296756661556903,
        -0.04029240172706381,
        -0.028994168259639127,
        -0.023680407471935793,
        -0.02445070805710041,
        -0.03446671112104813,
        -0.01924699955789872,
        -0.042573481594902596,
        -0.028318097206158882,
        -0.037904864409066846,
        -0.012628343859525772,
        0.02174953995583014,
        -0.04058378879200387,
        -0.03351227068854429,
        -0.03239223324868451,
        -0.003335981354921197,
        -0.013135022100983452,
        -0.02049942054487743,
        -0.019456409610075904,
        0.001991678501165355,
        -0.04131371809977632,
        -0.030219198243430504,
        0.040267235256285984,
        0.014861549578838337,
        -0.04083704312650979,
        -0.035527214975950794,
        -0.0074879965562328335,
        -0.04267270649612326,
        0.0009628285753654909,
        0.008537901575105268,
        0.012574170878978967,
        -0.026238914833786074,
        0.01086499461282811,
        0.0258820022753579,
        -0.028038027783453538,
        0.019466331971229427,
        0.022530230099435212,
        0.018544493175860717,
        0.03926833230664832,
        0.039220630469468325,
        -0.008362699723466815,
        -0.030364001371996727,
        -0.04111589655693268,
        0.023762703384970888,
        0.03212236001617646,
        0.03876726611658915,
        -0.013609913729276578,
        -0.01190302881897002,
        0.02711990266308192,
        -0.005452103939720197,
        0.02932811569934704,
        -0.017319964130887464,
        -0.0387528278419702,
        0.020196957347452717,
        0.0236111314060889,
        0.02114498372863886,
        0.04149020739125071,
        -0.018381592640021007,
        0.02989015960032247,
        -0.009808781437946532,
        -0.005350149210507583,
        -0.01753527998064469,
        -0.02933726667890947,
        0.00649107578623738,
        -0.005946163318707522,
        0.015672453318669892,
        0.04122878105735426,
        0.02813664321069538,
        0.02185951038922805,
        -0.005805820882425301,
        0.0041515016483245305,
        0.02490380714017831,
        0.013076961628365543,
        -0.018554190303824946,
        -0.028231476269302714,
        -0.02131479234955437,
        -0.0276977591724933,
        -0.020224870791222125,
        0.04035617297817526,
        -0.006326964324043352,
        0.02735240789542509,
        0.03570805505466696,
        -0.00847819965873493,
        -0.04317391087814439,
        -0.014034250658731063,
        -0.010440868654359163,
        -0.0076405813057126735,
        -0.016625035408064138,
        0.006988171671782221,
        0.027146868897408586,
        0.0060973838237834135,
        -0.013451399253255074,
        0.027869057884130664,
        -0.032599758465674256,
        0.01582247887290745,
        0.021290666195025787,
        0.02014641259351249,
        -0.004187774222805103,
        0.03170950275169177,
        -0.020577037453083157,
        -0.0016685003256539394,
        -0.011580330876878658,
        0.02888546478083144,
        0.0004421178746429287,
        0.028669554776999076,
        -0.005445424184559348,
        -0.03815158580234222,
        -0.019099237785197603,
        -0.03178781625019392,
        0.02345041194168831,
        0.030965042551282653,
        -0.020752115497932506,
        0.023347061463000047,
        0.03953677051953658,
        0.009458600425420623,
        -0.02628576363153255,
        -0.0031040590904546517,
        0.016503876841908554,
        -0.026466012252252747,
        0.006629361160307349,
        -0.007024595888898809,
        -0.018669538725723033,
        -0.029988034576321012,
        0.01640275242379201,
        0.034924648165581204,
        0.016445736703226847,
        -0.021283825557765503,
        0.020285802440259685,
        0.016626323018418203,
        -0.008958082966875539,
        -0.03568104846923582,
        0.028669903172685852,
        -0.03283572699668705,
        -0.021617788645032263,
        0.023041176261844393,
        -0.02569155164245552,
        -0.023868527363537322,
        0.03669135434762017,
        0.039388797855763935,
        -0.03911630439919986,
        -0.007605618200261379,
        0.028352886385588763,
        0.0011262385951384944,
        0.043136639481997335,
        -0.006967696230735977,
        0.007538393958766082,
        -0.027089882897472415,
        15.383922389024344,
        -0.009269779119703522,
        0.011184794942246484,
        0.0014165184329262674,
        4.160299877884366,
        6.507843236851593,
        2.374204165389756,
        6.42815321911669,
        2.439838856600935,
        14.766032691687457,
        15.139767189422876,
        15.070531935425912,
        15.242866969336113,
        4.175895980570881,
        4.4038539943327795,
        10.39236284357418,
        1.130387748696832,
        1.2823343738745052,
        4.2805304684675,
        0.4924892411692727,
        2.95081895331074,
        0.6933508598749678,
        7.545509326990578,
        8.622783141376235,
        5.773782361663449,
        3.935935059357705,
        0.840453672973879,
        1.5021653451012238,
        0.38882084164079234,
        10.060171045421512,
        4.7872465188753095,
        3.630230929169716,
        0.0027498525816868655,
        0.035283541119863045,
        -0.0290110907431779,
        0.004957974171848902,
        -0.01681874497804932,
        -0.02060173572899924,
        -0.0050209268685652685,
        5.617793620000225,
        -0.02629319142794596,
        -0.029351709989743697,
        0.01468736174113352,
        -0.8325023258450658,
        2.2486361988308503,
        1.8655573476308258,
        0.0001526639307793601,
        0.038369720029400936,
        0.9420408474089597,
        -0.006817949446623197,
        -1.2162386601049548,
        2.3681387754595025,
        1.958188537163861,
        0.025418201457986008,
        0.016453307129096102,
        1.0741166076618063,
        0.039954878173473624,
        2.5888905739401546,
        2.697688987136424,
        2.6177082826721962,
        0.011324325587856192,
        -0.013425468347176917,
        0.8998669252895835,
        0.12522223308422895,
        1.3300527137888485,
        1.8068326029160942,
        1.863580536898979,
        0.02232422097801784,
        0.019603068940298906,
        0.7650649567154754,
        0.09502203833252311,
        -1.1095827496319828,
        0.4248829906571145,
        0.313937227994797,
        -0.002085524747490238,
        0.03873010025950188,
        0.17195872660425088,
        0.037628765609763797,
        1.2469720549170802,
        -0.012976650630086878,
        -0.0004981274158475747,
        0.013850500267860144,
        -0.03425076605947994,
        0.6262466903668216,
        0.11671402595975951,
        0.17408595781893646,
        0.006663507293896157,
        0.041162327603683935,
        -0.03981467771321828,
        0.008894320260652051,
        0.5068030095594245,
        0.07929167441142063,
        1.0363463332948204,
        0.04299896428647266,
        0.04129186343804463,
        -0.023022389229513676,
        -0.021265919765488826,
        0.6424897438118586,
        -0.0005010265795184376,
        0.2647619125934284,
        -0.032400371959889124,
        -0.010604545229839007,
        -0.026529280835159062,
        0.026426495122749468,
        0.4687440110124604,
        0.07021723283395262,
        -0.0004899895825573911,
        0.006022338152594359,
        0.03381067138489429,
        0.007827092231998217,
        -0.016145537040844475,
        0.17918357647324262,
        -0.039431271284746695,
        2.4905726112221864,
        3.615760242830298,
        2.438738366722348,
        0.8031589269634983,
        2.846029957469363,
        4.130231036663911,
        -0.030240250394820024,
        -1.1261547677618398,
        2.4758524196466385,
        1.8369102275335634,
        0.3881108764330493,
        2.4805977948377707,
        2.156203671439853,
        -0.004626192886168132,
        0.1430723616249285,
        2.2763899582398954,
        1.4774569314823622,
        0.17109788702164813,
        1.709441171396252,
        1.7403981985239863,
        -0.04342713242557489,
        -0.13939879317641454,
        1.4564583055104348,
        0.991129894122831,
        0.1509112827287096,
        1.578415934045257,
        1.0476429167779018,
        0.03506863126322932,
        -1.0103490419259444,
        0.7301135257121265,
        0.5127240608206893,
        0.03373538937077536,
        1.230798538530199,
        0.5214507894667483,
        0.02393094333725389,
        1.8870257190435387,
        3.377974156372424,
        2.3128301872963553,
        1.1379906233971504,
        4.11859083832501,
        4.458860552113435,
        0.010899899707964407,
        -0.12705396431906713,
        1.6585789565920044,
        1.1566946409748529,
        0.1958653083271978,
        2.1142508698231812,
        2.1837783375932656,
        0.0265883685094564,
        -0.5112202665817871,
        1.0414141522025844,
        0.687677616067989,
        0.22130720914785693,
        1.2382801652376902,
        1.239551276111875,
        -0.004046300589329722,
        -0.35899353444009363,
        0.7167633952049619,
        0.5951307753694443,
        0.2510307913614911,
        0.6180455718957095,
        0.98935072587224,
        -0.039029975566999824,
        0.2516821410080887,
        0.3054525196657401,
        0.2540583391017992,
        0.021038548527934003,
        0.6387685760308927,
        0.3614940509616444,
        0.005160540207912927,
        -0.0367845869955942,
        0.7694579972730544,
        0.7384786278408265,
        0.09560765937299244,
        1.025495866352382,
        0.649169873147728,
        0.02320832438588988,
        0.4014855978619553,
        0.3433134629388332,
        0.4489519249583799,
        -0.028026293715989158,
        0.2738761634957379,
        0.30499667663338137,
        -0.031643622860496406,
        -0.07134895496964809,
        0.030354572600713323,
        0.012817450205846443,
        0.03450849328583815,
        0.012336830059402391,
        0.0005087226358985273,
        -0.002888821735198242,
        -0.026567071257877415,
        -0.024365488072415942,
        -0.041950327097048865,
        -0.0188077806083997,
        -0.012752241308407613,
        -0.01628913483941678,
        0.015944029485107706,
        0.036372579470225375,
        0.025664158835168194,
        -0.03736029205299212,
        0.0013284273193342208,
        0.002398598766092528,
        0.04109169217282582,
        0.02426447456520239,
        0.7001622565473008,
        1.1675350974794494,
        1.2216075847353307,
        0.03392935817942999,
        1.7993336680125116,
        0.7764980752471929,
        0.025733032485117626,
        0.006646741477523551,
        0.300370666790111,
        0.2426319695945361,
        0.007035422174954597,
        0.24854511250265982,
        0.23444079309727675,
        -0.04376424915396653,
        0.6195593164826807,
        0.3510990770886564,
        0.44278596781595875,
        0.09549986670400551,
        0.34461111177608067,
        0.29964184631598295,
        -0.011178891087756975,
        -0.35996092054367734,
        0.04804755199106152,
        0.045371729376415405,
        -0.012816587068538112,
        0.08756600833906901,
        0.03127176281889547,
        -0.02300279860632243,
        0.03447950192283483,
        0.03441739160136745,
        0.03430845470998371,
        -0.03782823727118989,
        0.006939344521211361,
        0.007325062722311535,
        0.031631027288417934,
        0.6437489397941845,
        1.5023641036791167,
        1.2019590503576771,
        0.009596077797503107,
        7.618966581197297,
        0.02445175718792106,
        -0.0013954067037563115,
        2.4139906023078894,
        1.8234567975976146,
        1.4704637002630099,
        -0.019976399687015606,
        7.563061331174429,
        -0.012137441975161253,
        0.025559788546183904,
        -1.7342131853208542,
        1.4587538965883386,
        1.3293076328785205,
        -0.0225816530339347,
        6.197388005241589,
        -0.029467542127764992,
        0.022182236292230966,
        0.05783346837768469,
        2.2202083014031344,
        2.0213578466003908,
        -0.004464583939988348,
        4.204691240091138,
        0.029447110122964318,
        -0.04023281545523508,
        2.0787209226340924,
        1.8764485733910568,
        1.64969154725615,
        -0.02658675115163941,
        2.9938145458112486,
        0.010508960706138765,
        0.036823678988843846,
        0.293247575348271,
        -0.016799251863322356,
        -0.009144552899030422,
        0.016103525739069948,
        7.555015554010802,
        0.04042397347178086,
        0.0018078674375512113,
        0.554031821307388,
        0.013686023403706943,
        0.03896681226627575,
        -0.02776723445121351,
        7.274557991619278,
        0.03618668255291541,
        -0.029171245656353227,
        -0.8354482212583323,
        -0.020942400794832877,
        0.008431977969287829,
        -0.04108705768444276,
        6.039569610871554,
        -0.023522640614604212,
        0.041550235532869656,
        2.1252842577749282,
        0.04012437157651203,
        -0.030610038242603495,
        0.04233450053047109,
        5.479666017330111,
        -0.04302909012512675,
        0.041760615188313414,
        0.11233679566171405,
        -0.026027024025258017,
        0.020376221628260485,
        -0.016296582676204686,
        3.9850171135459465,
        -0.02464868842260375,
        0.00896868737687246,
        0.010244848559872908,
        1.8959116993511977,
        1.167732334648993,
        0.00033403958546438146,
        -0.0060812569675829245,
        -0.01539870981708341,
        0.02939816876855251,
        2.3538354190650663,
        2.3871351369590545,
        1.7405854490392452,
        0.022620328621464455,
        -0.028086224164490775,
        -0.04378492493438803,
        -0.024689114278169416,
        -3.0256386397394874,
        1.6025491244427252,
        1.3571755666025964,
        -0.0010819212623596499,
        0.03727270809792302,
        -0.007772871666114965,
        0.03249062745759381,
        0.6752061787158382,
        1.1688799860646555,
        1.0777818155150607,
        0.016859002580350953,
        0.02019312709701696,
        0.02925343097109759,
        -0.004761525207621801,
        -1.6658767430388053,
        0.8906545108438254,
        0.6285000019042816,
        -0.028560375255278218,
        -0.001723588506749035,
        -0.01712622012926602,
        0.004305901624775281,
        0.45969250349380386,
        1.652400515939799,
        1.4765668878029283,
        0.03683452709895988,
        0.014065232018840147,
        0.03135329197458478,
        0.0015360931912163447,
        0.9826873782190738,
        1.674615297711592,
        1.1102340161439315,
        0.02655979052616357,
        0.020090052461991813,
        0.020235616322738726,
        -0.012449440564935632,
        -0.34194036552200346,
        1.7502050344946438,
        1.5155526039445029,
        0.043327863717788434,
        -0.030649663043819407,
        0.027261486067000722,
        -0.02908641784142742,
        -0.5624389280933489,
        1.2290055327646718,
        0.7826725692177104,
        -0.0013370729639070574,
        -0.008255513171847844,
        0.040090864741331486,
        -0.03942590567490184,
        0.2703121144830038,
        1.2061898675134357,
        0.934352253380712,
        0.02215816381594122,
        -0.02279468235358081,
        -0.021497448603703517,
        -0.00831201754523509,
        -0.03463023950459148,
        10.268600759902622,
        14.136405363541154,
        -0.02095361358006078,
        0.0017883914296395807,
        1.9629923760551675,
        0.05085284550526204,
        0.005435835977096819,
        0.03840157489660267,
        -0.00496818038488136,
        -0.03971950917995615,
        4.551436197420443,
        -0.028677315816627687,
        0.01935009992079651,
        -0.034783950390710625,
        -0.006302293344985229,
        0.028594294946495877,
        -0.04344419626923727,
        7.996284836073273,
        8.044770182640065,
        0.04521954260242643,
        0.028841623724734745,
        0.0261199260311825,
        -0.04248544413699044,
        -0.014616459026686807,
        0.030278729442107064,
        0.035681484631023205,
        0.0026356269481144206,
        -0.028846641752301127,
        0.023880711752778155,
        -0.020162191561167074,
        0.026205867404691836,
        0.02243648282597387,
        -0.0028828245383757667,
        -0.027524545077875735,
        0.03450248566840185,
        -0.02370348823854495,
        -0.0072193213005943375,
        0.022188378607573504,
        0.00037109231015497473,
        0.005059368776049125,
        0.019868255024221806,
        -0.0034294052975228397,
        0.008313998324448275,
        0.03353795360374157,
        0.04056743976722753,
        0.03712231257948511,
        -0.010832607876553582,
        -0.02587778220042924,
        -0.013024149003072631,
        0.027641180756693536,
        -0.01297227716124878,
        -0.026938677263570805,
        0.03542668516508798,
        0.04218793618669501,
        0.00467460165907724,
        0.03193050787513294,
        0.03989558827416843,
        0.002521890423180917,
        -0.004394069058571556,
        -0.011130600062253733,
        -0.014877489789575081,
        0.03425598740834303,
        -0.042459864686917786,
        0.022662650015323266,
        0.040226662175664105,
        15.25552914983851,
        -0.02867785701604672,
        0.007172712384261116,
        0.01778832910362533,
        4.117719974563371,
        6.425788791319755,
        2.3421612615742897,
        6.396879207699535,
        2.4156141435448464,
        14.660509579576713,
        14.965728143364439,
        14.90657200377176,
        15.059848407878132,
        4.1344059888065186,
        4.344532163741382,
        10.29933207185608,
        1.1785382548527215,
        1.268991586411939,
        4.255169995290729,
        0.5151621001148592,
        2.8686530132919907,
        0.6672123043214017,
        7.501847697748094,
        8.615089705887511,
        5.796907143622639,
        3.9262983728308156,
        0.8773784350973589,
        1.4460722349447521,
        0.37080413347413915,
        9.977948685652393,
        4.747430885128838,
        3.600636952085336,
        0.0006526025473998609,
        0.009104353383696102,
        0.022737139591402153,
        -0.028845286782587267,
        -0.030344311095345338,
        0.03784206436865553,
        0.03225301456294096,
        5.572807061100969,
        0.009679947947561406,
        0.01460816618502807,
        -0.01525404979355379,
        -0.7928514955356079,
        2.255691980656092,
        1.856058354639441,
        -0.003960873820905422,
        -0.0345358866971572,
        0.9815025572985965,
        -0.000005246901470953185,
        -1.2347680272013994,
        2.35764625955043,
        1.893182696127779,
        0.023670736320042116,
        0.00959495600419945,
        1.027072142944092,
        0.009507208735321633,
        2.5399478593009603,
        2.6225539150218107,
        2.587410781613343,
        0.021535365783764835,
        -0.0036540133251265236,
        0.9052748003528733,
        0.1412637061922568,
        1.2588274185972939,
        1.8551120555292782,
        1.9119443083615637,
        -0.014781859977622392,
        0.008631963870615045,
        0.7532908116759409,
        0.06469293412537358,
        -1.1147149529495084,
        0.4951252475463609,
        0.36972677230385315,
        0.013788739773139486,
        0.04270034460855281,
        0.19269736649434438,
        0.03505336970460211,
        1.2234481142517084,
        0.027177311100780484,
        0.01947899999123867,
        -0.032515618357220964,
        0.029190418050950642,
        0.5860284032471548,
        0.12040571694732516,
        0.22793253022215645,
        -0.036055658796649334,
        0.026493265051083556,
        0.03495087431327425,
        -0.00193922329098671,
        0.5665938584142785,
        0.10816038694231467,
        1.095255837568231,
        -0.028360342339756685,
        0.018465012002166423,
        -0.015713731244332806,
        0.00018776893976132694,
        0.5988869951651623,
        0.041137071833433236,
        0.2225659119005693,
        -0.01906701531136334,
        -0.009406098482243021,
        0.006868066230810713,
        0.03204105091003863,
        0.3936042291424042,
        0.06618762585081252,
        -0.01895384205018894,
        0.029602193021854052,
        0.04106397399540797,
        0.033065636789850444,
        0.018160992797339747,
        0.08885869593033431,
        -0.03672884846445618,
        2.476764220916992,
        3.629738210288866,
        2.423778970312283,
        0.8040854176446149,
        2.773671123427083,
        4.080239574508373,
        -0.04048361807873141,
        -1.1474147465003692,
        2.417892142687765,
        1.7920294847107774,
        0.4258328457750186,
        2.408968419602753,
        2.047772867439648,
        0.0073801588072343475,
        0.0812033996380189,
        2.235945779882233,
        1.4631767658411494,
        0.18479054539787076,
        1.723831558648133,
        1.723138681572515,
        0.0003763535262850722,
        -0.11590380067650223,
        1.4468293791534323,
        0.9702011682017987,
        0.18573702839197423,
        1.5204016113013261,
        0.968339523504842,
        0.02066067855878079,
        -0.9852962329737146,
        0.766131077630702,
        0.49295792763062896,
        0.10734877017522045,
        1.208595601238675,
        0.5788993447548975,
        -0.035127962281206106,
        1.8627646411134713,
        3.3091832301835047,
        2.2749221550747696,
        1.1473612518893412,
        4.050917361714402,
        4.446832309206197,
        0.02793928720807835,
        -0.1026249874279735,
        1.704160210371736,
        1.1530435423299799,
        0.22863928592914123,
        2.0294607253730073,
        2.135308909776865,
        -0.03893405214988026,
        -0.5489834644568617,
        1.020464954477496,
        0.6987726908528585,
        0.21937775009084512,
        1.1834703830241537,
        1.2685845318826328,
        -0.030783598489718886,
        -0.33559810096090553,
        0.7407293586754828,
        0.6174399419809642,
        0.23583299498907334,
        0.6562850431361998,
        0.9948177585495673,
        0.040532852989914776,
        0.2717410977156023,
        0.3154704542933205,
        0.25586437847744237,
        -0.019069831225181046,
        0.6982957153002817,
        0.3612551149716542,
        -0.04180492026947689,
        -0.08798482130596393,
        0.7198051713474378,
        0.7498510475067393,
        0.09541208413785957,
        0.9850019004078592,
        0.6731653538438982,
        -0.022609113768405603,
        0.3721891873103515,
        0.34696817350568737,
        0.44849556302006177,
        0.004556794904086808,
        0.27680395394549445,
        0.26432865382568543,
        -0.026181704313580512,
        -0.10221539039545294,
        0.033553208220760515,
        -0.01555628050908843,
        0.004278697029618197,
        0.0503896461178038,
        0.05388259180549427,
        0.010622345970594292,
        -0.03891429442972697,
        -0.019372054462268605,
        0.001221530385088569,
        0.024492143965590546,
        0.029462762316565354,
        0.022708379508585425,
        -0.015073296412843697,
        -0.033544508221865534,
        -0.03451742880803269,
        0.008401266912410629,
        -0.01279519357860794,
        0.03255870536493968,
        -0.03738018053159094,
        0.03830105833708703,
        0.6616062590118906,
        1.1134200031040908,
        1.1944430415615066,
        0.014273803071071673,
        1.8030892399470375,
        0.7834736742251327,
        0.006601784492446251,
        -0.009963534124256521,
        0.2415999740301445,
        0.2562411069642544,
        0.01665674481593893,
        0.22507356163762599,
        0.2563653124617512,
        -0.013800195243326664,
        0.6524806342946992,
        0.3522042273782014,
        0.40126718076532747,
        0.0841809156659735,
        0.31174664825049453,
        0.2251423722502065,
        0.037923148429334086,
        -0.32451307456294787,
        0.04918705784695536,
        0.09652475003557093,
        0.020378903508282784,
        0.09365764723438076,
        0.032828764727689426,
        -0.024464595383940392,
        -0.03808558040578032,
        0.04313786352467193,
        -0.01567341961987323,
        -0.042237884304986206,
        -0.020019251582739702,
        0.024681756768837906,
        0.032835077637342655,
        0.6163154188204547,
        1.5210961587574816,
        1.2782127043655949,
        0.042398867971656214,
        7.536370633844091,
        0.00002541834664323507,
        -0.009398541856513731,
        2.34996695537281,
        1.8915370143607935,
        1.504445292286623,
        0.030334657245587857,
        7.48569406668755,
        -0.02686126544780046,
        0.005085058812937537,
        -1.6755597012208532,
        1.4150880916050057,
        1.374637259771039,
        0.040301441942834186,
        6.0857420105141475,
        0.008543446186340564,
        -0.0026868645234850034,
        0.0715432111849056,
        2.1412131835876105,
        1.9618584625667446,
        0.03965947727185685,
        4.174428663378918,
        -0.010118559507678765,
        -0.009136999902006138,
        2.0605753119860752,
        1.87648526017199,
        1.6445351743994006,
        -0.039125774603275515,
        2.98320273772054,
        0.03723913139999111,
        0.034237915805184406,
        0.3282118591502276,
        -0.02861271252438128,
        -0.0420247108555916,
        0.00969067781099058,
        7.497232661061212,
        0.029146731878252553,
        0.0405566388915443,
        0.5815956841749087,
        -0.0038974275905322036,
        0.013415831784392322,
        -0.001723363699030562,
        7.236396040810959,
        0.01871278720312121,
        0.01756943704750808,
        -0.8770679681420994,
        -0.010112228093488398,
        -0.011717124697030073,
        0.003440980850299187,
        5.887401664001371,
        0.015548928686145219,
        -0.018247548803153466,
        2.138955521267897,
        -0.015675560011235372,
        0.018328810951007257,
        0.012900270326451909,
        5.4165985417760885,
        -0.008234910609192176,
        0.024972847547445876,
        0.17006807463282345,
        -0.043201917311175835,
        -0.03130177051503835,
        -0.0007709826979559704,
        3.9396468066240127,
        0.018575970681612094,
        0.017811875689860018,
        0.00719220435087968,
        1.9132897517483907,
        1.1730398099730566,
        -0.012323482259328349,
        -0.036780418235858404,
        0.03821169574960425,
        0.003343082512689821,
        2.35019014974871,
        2.358210384397941,
        1.7796157085578346,
        -0.009576469555300024,
        0.003926091370374347,
        0.02552669931947879,
        -0.02420349848032837,
        -3.0267161954722672,
        1.5617524074367048,
        1.325997804450967,
        0.027558834703500068,
        0.023812758909755847,
        -0.0016252690738199345,
        -0.030168425712720395,
        0.6968565283823157,
        1.171295036199521,
        1.0906132449514472,
        0.018517401363878035,
        -0.013387517117217028,
        0.02969188719429291,
        0.02886750171697174,
        -1.7231874553216915,
        0.8944006275253481,
        0.6599094587699488,
        0.02199039072515207,
        -0.0017313075289562404,
        0.02761861601371521,
        -0.007955092722557847,
        0.3447026487512701,
        1.6574265057658562,
        1.4974010379576972,
        0.01943978229814913,
        -0.00703091147957233,
        -0.028534750391821715,
        0.004096066006969929,
        0.8747926741036596,
        1.6514038715573638,
        1.0701359976836122,
        -0.018575712916945555,
        0.01344198188434463,
        -0.03950752592935239,
        -0.005358622585623797,
        -0.3390421520868449,
        1.7310205981092217,
        1.4840726673567584,
        -0.02141841072939984,
        0.0380821308264251,
        0.009953957329453757,
        0.037843151159256176,
        -0.5538135161149332,
        1.221767234852885,
        0.8171251802597845,
        -0.035723659640635015,
        -0.020424326896633413,
        -0.03671554462593036,
        0.03026974152053519,
        0.30330663026211646,
        1.1707398676485596,
        0.9398955433927054,
        0.016785862097747444,
        0.028116223513581777,
        0.04388695848683963,
        -0.03128951763744642,
        -0.03307503483411477,
        10.182875532551801,
        14.148668799236518,
        -0.017694897650234732,
        -0.015321152344787552,
        1.9036433465472857,
        0.0403595658326191,
        -0.03530023351905616,
        0.03516401862827292,
        -0.015975568877901025,
        -0.009789799963425634,
        4.485955296185034,
        0.040962434952463454,
        0.010115378387737713,
        -0.03858473908827834,
        -0.04362084552673031,
        -0.005466314598071701,
        -0.03757103575321848,
        8.022854809990585,
        7.969905948800044,
        -0.03254670720266997,
        -0.0048753226137391035,
        -0.02881600574220012,
        -0.037257854174461834,
        -0.03040033723336362,
        0.030180876152457806,
        0.012516966928244269,
        -0.01779891492921596,
        -0.00985488411908504,
        -0.010139553053795295,
        0.011677702963491712,
        0.017003234665524065,
        -0.035843215744692444,
        0.005040693040485506,
        -0.04160537443243917,
        -0.011076608480363128,
        0.004952486470994951,
        0.017480648625896517,
        -0.009277999780608616,
        0.0102783623253697,
        0.03560691162975966,
        -0.031205731911739525,
        -0.039347186425444276,
        -0.027379388496824374,
        -0.029212156170699582,
        -0.03882904207452579,
        -0.035373747527748016,
        -0.021446615276312676,
        0.03361619375930439,
        -0.028293940424900868,
        0.041144664170866055,
        0.01731388604064958,
        0.02051660285771822,
        -0.02970741645999108,
        -0.007512045509154221,
        0.022344384932993296,
        0.029259740646723036,
        -0.0007917610275689872,
        0.010192556360160704,
        0.038699089326013465,
        -0.01716941199484037,
        0.006962160977687149,
        0.002021279836887893,
        0.031844461897336834,
        -0.036890979165302894,
        -0.021196522900373646,
        15.330258215426184,
        -0.006323166680645829,
        -0.040085428544530566,
        -0.021356591834605768,
        4.1495802912245106,
        6.499238573776141,
        2.2988023145619945,
        6.438418255516647,
        2.4374482398022317,
        14.696819711022968,
        15.053234685808869,
        14.972574260454579,
        15.078386279860027,
        4.122671143577349,
        4.376302155260894,
        10.311171431965796,
        1.1914666890055872,
        1.2733009004666034,
        4.284565187706548,
        0.4667475432201326,
        2.8816951136570768,
        0.7413409971252333,
        7.526125004836154,
        8.56942133847373,
        5.835556566391904,
        3.971915235681406,
        0.833161925370975,
        1.4687562363982831,
        0.4213312874983927,
        10.033752492682918,
        4.771327511553679,
        3.597009462926455,
        -0.035380472491155675,
        -0.043327537762085366,
        -0.038645357603178984,
        -0.03688819727275398,
        0.026989447856983446,
        0.04153379977866181,
        -0.009678148217059736,
        5.581548206032902,
        0.03786106393526214,
        -0.007173346540949503,
        0.006601766960394561,
        -0.7759426170901329,
        2.2290384472677083,
        1.925569294986594,
        -0.006770919575383421,
        -0.02662557635583886,
        0.982888932326622,
        0.0029105799593834693,
        -1.1824470741317397,
        2.3986216063860804,
        1.9214304470758168,
        -0.03749506524232859,
        -0.010533260589934722,
        1.0065856383886949,
        0.0478114786284969,
        2.584751905220848,
        2.6093184940827454,
        2.5890390060856907,
        0.03561494480027496,
        -0.027938003650611488,
        0.8861623810572019,
        0.10594436875405726,
        1.3295051760804508,
        1.8336782497655462,
        1.851080874507854,
        0.03911387925718238,
        0.0102088987801446,
        0.736471640127119,
        0.12987853694544027,
        -1.0717850695827154,
        0.47536149336563077,
        0.36766304386233445,
        -0.01827518257690616,
        0.017149064844465853,
        0.2515190069644888,
        0.0032951023243984203,
        1.256676756392679,
        -0.03721923507444414,
        0.029131645099557412,
        -0.022960105816001327,
        -0.018162366066357263,
        0.6088807242295632,
        0.09681414332694441,
        0.1821275854096243,
        0.0036176205959634364,
        0.04308582453693768,
        0.02724904296696418,
        0.03721512075364611,
        0.5523803990505701,
        0.07617160748997559,
        1.0647767491719102,
        -0.007862051102310301,
        -0.03800922502721174,
        -0.029081256986009184,
        0.020230831471099768,
        0.6216377519274279,
        0.08215691888948569,
        0.24531508279258446,
        0.005853696339178728,
        -0.006926907359977518,
        -0.013123376911891147,
        -0.03167872394130849,
        0.4588789161707176,
        0.029622875107514192,
        -0.06559481489880763,
        0.026938161931991188,
        0.022363892468089102,
        -0.0020470400008981504,
        0.011836689598436232,
        0.1543146378514935,
        -0.019908661884742922,
        2.49160005466445,
        3.5657985766324445,
        2.4652184613361663,
        0.8237542988192559,
        2.7344430766824837,
        4.08827380075208,
        0.019450587767293782,
        -1.1732398009068399,
        2.42145739287113,
        1.8010195260515125,
        0.3827038190003696,
        2.446980024059395,
        2.0861448654027397,
        0.036447334858763565,
        0.14306224504972834,
        2.276004946998503,
        1.4736371809299031,
        0.15966952933001716,
        1.775267034845292,
        1.7262190864327291,
        0.023183378284453788,
        -0.14642807580992745,
        1.4529555825093148,
        0.9781859041229416,
        0.2133646261025914,
        1.4900567180102489,
        0.9931614558929738,
        -0.020463958110423366,
        -1.0493404227236227,
        0.803125829999063,
        0.49376733987800725,
        0.08875662643987944,
        1.2058728136529226,
        0.5693687212754732,
        0.027454729871294235,
        1.8266232920248402,
        3.383275089578177,
        2.2624561299683768,
        1.1437615758932211,
        4.105136217500362,
        4.417660806400149,
        -0.01865593211906055,
        -0.11346983256114973,
        1.6678425007267748,
        1.1410856193751884,
        0.22822188897857607,
        2.0281854406991773,
        2.1818242913443493,
        0.013513960695946342,
        -0.5008158478198932,
        1.0600605070468418,
        0.6839226374390445,
        0.23658553943700975,
        1.20882920492368,
        1.241035841044776,
        0.04281458232056529,
        -0.3420103385006292,
        0.7312056379987026,
        0.6206421448544656,
        0.23415849898162466,
        0.6732374931045159,
        0.9457614659814362,
        0.0363202175365305,
        0.26764909824452165,
        0.2998869620039436,
        0.18994312046675166,
        -0.010255188742856572,
        0.6563517203851442,
        0.3565730319875325,
        -0.0084342834655191,
        -0.02024445410283617,
        0.7377494663992772,
        0.7086334593346462,
        0.1355972716217149,
        0.9896657949414758,
        0.638319948358743,
        0.014128704162084746,
        0.34837536256164114,
        0.3715123477436469,
        0.42155914647913656,
        0.007098311018417357,
        0.33937527192094913,
        0.25098933898319237,
        -0.027648068084399624,
        -0.04815019713148503,
        0.055450747082967926,
        0.02086701975615058,
        0.023857762986978094,
        -0.005447629563062917,
        -0.013204925844878581,
        -0.03975063699723764,
        0.01937795457545681,
        -0.017039106187936387,
        0.004798125977310123,
        0.03653874119204947,
        0.008959972699234674,
        -0.042519418810557416,
        0.04200993369116167,
        0.019193038249387177,
        0.03316890195135803,
        0.029085803263869565,
        0.019260347526527125,
        -0.000608432000849103,
        0.006746023132206171,
        0.03826560932093864,
        0.6397263579190924,
        1.1255454982943522,
        1.2541315700890898,
        0.07624734694201081,
        1.7485562675494601,
        0.7274088507966884,
        -0.007091613332977481,
        0.0029257353505168773,
        0.2285636953028024,
        0.2306608400445513,
        0.09139144573308225,
        0.2462738626579579,
        0.22265212059629436,
        -0.010775146984979216,
        0.5687360637969213,
        0.37629310655130305,
        0.43974002084250674,
        0.055251653658370155,
        0.3542732556322252,
        0.24305093266189884,
        -0.0009495510333612297,
        -0.30505001001220394,
        0.1225079973458114,
        0.09083940320879294,
        0.008690568644047707,
        0.09766116518732051,
        0.042600572726551246,
        0.03994639821983429,
        -0.009639028855958163,
        -0.005624379922854327,
        0.010432221465653485,
        -0.032263417617669335,
        -0.011920976821283898,
        -0.04124734881920311,
        0.0304952588051478,
        0.5907101139404155,
        1.557790583273758,
        1.2091241704571385,
        -0.002046459668329054,
        7.5990326774322465,
        -0.0021203652328233183,
        -0.02437302606414952,
        2.4074819075509195,
        1.8281836537591294,
        1.5168384191662863,
        0.041468012426570354,
        7.469420593598259,
        -0.01355036916757591,
        0.024820035393011947,
        -1.738263629871034,
        1.4077316466094314,
        1.3412505923182403,
        0.043315336148200254,
        6.118322512605757,
        0.005521071836473233,
        0.0027690488914583838,
        0.05015379542101264,
        2.208605830337479,
        1.9645285277890656,
        -0.030089302604838393,
        4.155113151945718,
        0.02484537239803742,
        0.036832900201843224,
        2.022797399320809,
        1.8783988652101566,
        1.635546869091638,
        0.004368237282958994,
        2.9876875302896444,
        -0.022195690699320328,
        -0.015032889388818126,
        0.34288360648167904,
        -0.0122395037962956,
        0.012064673251570667,
        0.006043457350847802,
        7.496208779147883,
        -0.012897356994643684,
        0.0032419911242340988,
        0.5207736934258969,
        -0.021047884866612906,
        0.01033486215743722,
        0.03785489300373524,
        7.2622433210404225,
        0.031362241406659754,
        -0.03561591878144268,
        -0.8599171971546027,
        -0.026112806446543818,
        -0.0006966205429455357,
        -0.038373598282833495,
        5.991542090933113,
        0.028441673277923202,
        0.0032840387962339065,
        2.1337829336492016,
        -0.015402195490742177,
        0.04228407086183612,
        0.03868128125176184,
        5.390780499277849,
        -0.0186921174899649,
        0.024590674912492286,
        0.20565663595882583,
        0.013803771332782443,
        -0.0026583830838535407,
        -0.037166206773360036,
        3.9557218119941866,
        0.0197302198667053,
        0.018802184571681004,
        -0.029150107697613503,
        1.849763660276835,
        1.2155711326872414,
        -0.0032892190793973194,
        0.031857210431570936,
        0.033414640381336104,
        -0.024777689010312184,
        2.2811459153136457,
        2.334873497209283,
        1.7595996860362704,
        -0.0037690048319708245,
        0.0007019347070741244,
        -0.01397614942297476,
        -0.013661717161947454,
        -3.0438080830329644,
        1.6049166047195988,
        1.3674415049458828,
        0.025585690404172818,
        0.04256174767822119,
        -0.023205444875455377,
        0.0384548730265817,
        0.6912415966192432,
        1.1923533348717734,
        1.1157946111871333,
        0.03720180177254844,
        -0.021010075759985532,
        -0.03253003980886127,
        -0.01805378712036688,
        -1.7077910043987963,
        0.8926091980456733,
        0.6200830400323317,
        0.043726851175946706,
        -0.04099280262654621,
        -0.032341293397209876,
        -0.017873623846611446,
        0.35685096046552844,
        1.6211230157332537,
        1.5027112552376884,
        0.033119147018614424,
        -0.023951643082673616,
        0.029117226665980257,
        0.03080583520583961,
        0.9693835090579517,
        1.6816193801379569,
        1.1080170485689427,
        0.01822135040246175,
        0.015498706418049572,
        0.020081545368814447,
        -0.018339647152499035,
        -0.35020997549581995,
        1.7458139582388859,
        1.537860570022018,
        0.019019567267822314,
        0.006166493246710742,
        0.029750538926902527,
        0.024536542563183033,
        -0.5252539355902612,
        1.259500405175632,
        0.8356301468047719,
        0.0034332792771522434,
        -0.01879979632120321,
        0.010072036000996066,
        -0.04329694769246364,
        0.23100371262801522,
        1.1803526044498998,
        0.8992439365653153,
        -0.021576572963274362,
        -0.033678476849533644,
        0.0062198788723214085,
        0.013959059075352205,
        -0.040233128746445836,
        10.234200423272899,
        14.157419388615276,
        -0.015486572131783298,
        0.030542122119524572,
        1.9229163395695192,
        0.04329664715416114,
        -0.06676754863151722,
        -0.015950195775887497,
        -0.004985013047392628,
        0.015375655428857571,
        4.514994365620995,
        -0.010653427061914598,
        -0.04281422599722238,
        0.01768248118012072,
        -0.04129685595406468,
        -0.03140642550291067,
        0.014376604484064755,
        8.039571508427091,
        7.9883278703615686,
        0.05640954430059716,
        -0.012942447672502742,
        0.01397429669179795,
        -0.01746826983752427,
        0.018782569787844157,
        -0.03434098257553379,
        0.00926922729377432,
        0.005550693323479064,
        -0.012426965251129811,
        -0.005018039345159899,
        0.029470202070291593,
        0.012654538159692657,
        -0.02932115668943087,
        -0.015515952022116761,
        0.0022519384577519876,
        0.005274066806668551,
        0.034417547092161924,
        -0.043299490102843834,
        0.017333065786400596,
        -0.015783469756408985,
        -0.0031373817904237216,
        -0.016115315386879055,
        0.036565483902567635,
        0.041565731868240925,
        -0.010248501712933173,
        -0.0032227631881482813,
        0.012349512402365167,
        0.03446862826175994,
        0.0088671019864899,
        -0.023525956726262655,
        -0.037719906509759704,
        -0.01638060472781914,
        -0.008747297889680943,
        -0.042042270729232924,
        -0.018631801363565986,
        -0.0178779027616813,
        -0.028855164477342064,
        0.009611061282439836,
        0.007879605859703433,
        -0.0067817525943973484,
        -0.003171757352195742,
        -0.003134553953850894,
        -0.017479223305739488,
        -0.014747871180738968,
        0.018211274125257512,
        -0.004615138712670027,
        15.25607369249678,
        0.03840176628697802,
        -0.010908434847516149,
        -0.023324430609364125,
        4.132933357219011,
        6.402154786608988,
        2.288184521565542,
        6.386602645562205,
        2.379432727601774,
        14.554431264332035,
        14.975752250593061,
        14.83849457355075,
        15.043645532153544,
        4.087908218139698,
        4.302537131726804,
        10.277903626477125,
        1.1796053325111628,
        1.2187848681688878,
        4.207947941924876,
        0.4914880540484242,
        2.881844478675707,
        0.6881309172901813,
        7.491351639542626,
        8.535312665254164,
        5.755034473977003,
        3.9167093334313496,
        0.8446345667344729,
        1.4242215580041597,
        0.39736467194995945,
        9.96661456744653,
        4.713071519987009,
        3.586683377042955,
        -0.005272931408031425,
        -0.006816636413729685,
        0.03239018253043775,
        0.026103144364618705,
        0.01943103103895147,
        -0.014858325070343027,
        -0.02742876934733958,
        5.513067186371092,
        0.006861867514937959,
        -0.03143869161635476,
        -0.02986291210558157,
        -0.8198297056546293,
        2.3043546072043077,
        1.890839315575954,
        -0.025349495217141544,
        0.029930547963903622,
        0.958692506725269,
        -0.01763601810353521,
        -1.2354632792197615,
        2.372329587838408,
        1.9352746253039346,
        0.03995428598758608,
        0.012452263539770619,
        1.009330314811074,
        0.05621761566296408,
        2.5235778865169634,
        2.661185265127503,
        2.5383285034058143,
        -0.02117055535462119,
        0.029817361036943164,
        0.9030482802317772,
        0.16358812050921018,
        1.2775778802116098,
        1.8638958753570067,
        1.865806996383087,
        -0.014170070525326891,
        -0.008565705363601144,
        0.7159859525050667,
        0.12210150213541915,
        -1.149873101512401,
        0.41962137212571876,
        0.29767171551192717,
        -0.03204777346177112,
        -0.042073425269134025,
        0.2047036757316408,
        0.005516026283198673,
        1.3026387018256678,
        -0.008779720901113973,
        0.005159064340531381,
        -0.041149184696423716,
        -0.022244102682195687,
        0.5727311199951594,
        0.10873987228700642,
        0.14627557266857372,
        -0.03425603702634914,
        0.00329390141909827,
        0.009856061011901132,
        0.04024086242220697,
        0.476908279670208,
        0.11632797305298016,
        1.0954230919688113,
        -0.033969004053857374,
        -0.023602872678770766,
        -0.02159936099140772,
        -0.00024496186431457204,
        0.5371293166177615,
        0.04411914350399571,
        0.22349296238249328,
        0.008893336939965352,
        -0.01875663110791201,
        -0.02450518787379186,
        0.026805243655778854,
        0.40664031629359876,
        0.09845476723868725,
        -0.04639496800125259,
        0.016346110644000246,
        0.017731930473153044,
        -0.004688349383266572,
        -0.0221628132006391,
        0.12767664438395682,
        0.03146245693295834,
        2.526550179194926,
        3.6037994255673955,
        2.4147440661018726,
        0.7568299762120525,
        2.751671924432851,
        4.103578314965477,
        -0.026481566361710014,
        -1.0994151123338878,
        2.451260705787659,
        1.8253463728842767,
        0.41931295451042155,
        2.4020169825265096,
        2.0311720739782566,
        0.017109332455452122,
        0.11700907324302796,
        2.226546146558508,
        1.5063396964029914,
        0.14405865454904637,
        1.770383470607367,
        1.7193494556219684,
        -0.02164218917603998,
        -0.23158245032761673,
        1.3870221710372341,
        0.9571540895789541,
        0.15875016780630083,
        1.4250557717855077,
        0.9622723979204135,
        -0.042298706058923975,
        -0.9638198106059382,
        0.7352911003017274,
        0.5113416988602264,
        0.08402687297722253,
        1.198482890812797,
        0.5353754005232054,
        -0.011392963022470726,
        1.8790728956008058,
        3.3445440310212913,
        2.2687713624091264,
        1.1294896147682185,
        4.07917533267442,
        4.441292269381987,
        -0.009547894526666992,
        -0.1510428495844031,
        1.7057682096313274,
        1.209138159132644,
        0.17999387929890306,
        2.0122105160354278,
        2.1801544306986838,
        -0.043469673333840324,
        -0.492733333625038,
        1.0659571501464433,
        0.6622601963679317,
        0.23670320372619635,
        1.1870160365243079,
        1.2940352775668977,
        -0.02825169343325,
        -0.3638404748805129,
        0.7330342204563219,
        0.5600065797634579,
        0.19274089508844816,
        0.6284695756809741,
        0.9899667841023282,
        0.0358713016156534,
        0.2881515797601093,
        0.3579522288333239,
        0.17946856287266427,
        -0.002230209342103936,
        0.6510498091813716,
        0.39249019484165415,
        -0.040777062578521,
        -0.04542478761289531,
        0.7936386241403572,
        0.6921231211883637,
        0.14538162014046485,
        1.0198211473929872,
        0.6087606690534777,
        -0.03140508575755386,
        0.33637832511776483,
        0.3238619748660544,
        0.4207677769236536,
        -0.03399875203189015,
        0.309783786103783,
        0.25766771765301166,
        -0.04382517871062917,
        -0.07142846306913957,
        0.030407859910579375,
        -0.009031675030347063,
        -0.015407543187388907,
        0.014291574366234744,
        0.05229265191419585,
        -0.024505164403905284,
        -0.021705916829915767,
        0.04041625721905027,
        -0.029584694113606046,
        -0.039236527492571935,
        0.012220132071425324,
        0.013472740895805208,
        -0.008140155137097442,
        0.027594444552145464,
        -0.012534982463918973,
        -0.0021876012774226547,
        -0.003995492906370756,
        -0.02949686272416538,
        0.03557337973813255,
        -0.022364232780290594,
        0.6402996231024533,
        1.149324675405694,
        1.1787148711942583,
        0.07206738948489162,
        1.7205648360332368,
        0.7275446947306419,
        0.0075758334521842325,
        -0.04033209904217533,
        0.2957877783255756,
        0.26356478993462784,
        0.0438084453037708,
        0.23094745868958896,
        0.19755525224870374,
        -0.03349444727050358,
        0.6041387219252244,
        0.30344916606704436,
        0.3934690127493739,
        0.054940259515264656,
        0.35055955904754327,
        0.2938959856412516,
        -0.027277873681366586,
        -0.3735016256137469,
        0.05136149483295711,
        0.08032717869693341,
        -0.004391952568162202,
        0.1178183684094521,
        -0.019306421235902482,
        -0.005190715777196416,
        -0.0039958418034177524,
        0.022162040968066718,
        -0.0025257490862623353,
        -0.013742208709170353,
        -0.025910216321483343,
        0.015002598101968535,
        0.03839939948036324,
        0.5733886758096598,
        1.5633213373368278,
        1.212345146724018,
        0.004809973510194066,
        7.477584657181392,
        0.0009410075500795631,
        -0.04171983858655343,
        2.381655215022873,
        1.8764784271464345,
        1.5033639644639987,
        -0.024747688765685075,
        7.366071998850508,
        0.02105332395456434,
        -0.015094986391483692,
        -1.7067684429048777,
        1.3783098119715456,
        1.3016222388929166,
        0.02416596902619297,
        6.0573770490276555,
        0.013239329877106396,
        0.04319435304077391,
        0.007589371928314518,
        2.175619345835948,
        1.9454188872185436,
        0.03427143539334598,
        4.072540111285082,
        -0.024530919646917088,
        0.015588211328172752,
        1.9988701468835341,
        1.8318609690671208,
        1.64329577503785,
        -0.01596508399577287,
        2.9449395846442967,
        0.018431722579678705,
        0.014078977841353904,
        0.30359290622144436,
        -0.037836415140341466,
        0.011716971323288514,
        0.0071776164519144064,
        7.371964585806873,
        0.0013929477373660502,
        0.01990986999381207,
        0.4995757003370902,
        0.019607449432037505,
        0.04257315276186177,
        -0.02676469101069309,
        7.117185091456079,
        -0.04218898847771879,
        -0.0018637847232998528,
        -0.9261319663592407,
        0.04374220634752539,
        0.016808060611606345,
        -0.008918164005688395,
        5.88230094928943,
        -0.020895604634059928,
        -0.029558951262941703,
        2.0904665990012563,
        0.028810356127506778,
        0.04171798871920994,
        0.019993655113820948,
        5.260533947130804,
        -0.037760536009887435,
        0.0038675415991919746,
        0.2368746463572947,
        -0.006211909059220616,
        -0.041759265516399885,
        -0.019381925233761976,
        3.89264353698726,
        -0.031441750420527464,
        0.022758610591435063,
        -0.006903073448301397,
        1.8237979382500795,
        1.176121572431657,
        0.035172625975964496,
        0.026187360358812157,
        0.015800202568215377,
        0.001312604451296247,
        2.3851326935798793,
        2.3095795296794956,
        1.768074476324232,
        0.03205982097987204,
        -0.030803562345678187,
        -0.02967845610693097,
        0.027949999977149077,
        -2.9668649945902814,
        1.5733082341751499,
        1.3587074311756009,
        -0.023859223212906604,
        0.002863095856366563,
        -0.02785548402472679,
        -0.0013096023694488586,
        0.7092247914908976,
        1.220886562515805,
        1.0919171764144613,
        0.037402038884238986,
        0.027974647592956033,
        0.007508687304086881,
        -0.017423011022810055,
        -1.7730650348293848,
        0.8396370080591028,
        0.5864922959489456,
        0.009987439549248637,
        0.03460150031169862,
        -0.002057900822009273,
        -0.04135099470589346,
        0.3928379691132047,
        1.609573943975079,
        1.5128529730198421,
        -0.012860283735788,
        -0.021414185077853917,
        -0.03018531420603883,
        0.027248909605521128,
        0.8896155178487521,
        1.6786554289280986,
        1.0652522874017385,
        -0.0037665713783872775,
        0.007975616351389783,
        -0.005125544934527301,
        -0.0028453416826107517,
        -0.35473868560891064,
        1.7781125381180702,
        1.563488916091999,
        -0.013961223251578635,
        0.005605650077902019,
        -0.0395278309268559,
        0.014593994862583578,
        -0.6589823241169382,
        1.2523947443001509,
        0.7571691721463303,
        0.00926320825955904,
        -0.010211262299843232,
        0.015342219890757985,
        -0.02728997881240569,
        0.38065356091022184,
        1.1870618824711832,
        0.9188083328218025,
        0.04021837744679883,
        0.02390209646800757,
        -0.012518525025024244,
        0.038804218185937635,
        -0.010230054659007583,
        10.113200342115569,
        14.11938387961663,
        0.003405226609283026,
        -0.0010966301468704675,
        1.9724294026834401,
        0.02181360462807843,
        -0.0561862007962763,
        0.04201541598413416,
        0.03910661836663335,
        -0.02480973834418082,
        4.464860622907393,
        0.01970086793633961,
        -0.020477972776616143,
        -0.014990940762172363,
        0.003517660435543791,
        0.03533839770268701,
        -0.016971965920414316,
        7.963137197694142,
        7.9475405174059555,
        -0.07668028118724572,
        -0.02619364805008068,
        -0.029257381377750715,
        0.04081879458617954,
        0.03843147796956434,
        0.008868703036267097,
        0.01393150003944174,
        -0.029349823569863046,
        0.02182078670943432,
        -0.008826819002710882,
        -0.03879570376765842,
        -0.021818609068232173,
        -0.016515676604415466,
        0.017222932214099693,
        0.0323739916354254,
        0.011544859857303125,
        0.03601516904593328,
        -0.030602645249129663,
        0.03882292172896917,
        -0.01627214207840843,
        -0.0027215031824943977,
        0.019347229524277625,
        0.006188195081319091,
        0.03849111758604965,
        -0.018847230621313594,
        0.010324326161013694,
        -0.013947379872278514,
        0.008513081011970436,
        -0.0037862788412889987,
        0.011084149436511282,
        0.0036649059255067433,
        0.025194842781207052,
        -0.03274748719974487,
        -0.043414511122120164,
        0.023870766532801145,
        0.007895399653017244,
        0.03280712085563997,
        -0.018074863313605184,
        -0.037392885382245805,
        0.033335097635875735,
        -0.029066340788303727,
        0.01368889188055964,
        -0.036784188305295236,
        -0.03838312631791273,
        -0.02351387924468894,
        -0.009296126490124191,
        15.232460924550592,
        -0.01481971783608597,
        0.003891879470702377,
        -0.043060160076794134,
        4.122263898117936,
        6.447614591499949,
        2.2571793148926416,
        6.431386549312923,
        2.346101177586795,
        14.566662267152129,
        14.963006240412854,
        14.89217754144883,
        15.05464709283496,
        4.0631005916161795,
        4.327913514142899,
        10.265013017430535,
        1.135753550751326,
        1.2213895991346988,
        4.1881789061393215,
        0.517357924023029,
        2.918475173064679,
        0.7183011552651113,
        7.453514471898866,
        8.57070331324196,
        5.7576207269591,
        3.8910915369349,
        0.8083683091496713,
        1.4369779566200738,
        0.36585705448606215,
        10.042315901148196,
        4.691149344769933,
        3.586468778116216,
        0.000004641622363480125,
        0.0414838430995887,
        -0.03314908273085788,
        -0.01749639464072442,
        0.006140248440746087,
        0.04370977671345681,
        0.038316763416785846,
        5.563519301750085,
        -0.0023047907903570855,
        0.03252860250213472,
        -0.010660559411855765,
        -0.7927359559002669,
        2.287258729253861,
        1.8815402551613394,
        -0.01709292496137684,
        0.03898280426063045,
        0.9534758697841784,
        0.040066780408016284,
        -1.1909412980071425,
        2.3687734236974887,
        1.8812456971278815,
        0.043447761189276714,
        -0.028134748634380057,
        1.0154831477955615,
        0.0006048139606604575,
        2.4953819930913497,
        2.6633563061086196,
        2.6119018840729162,
        -0.040028026512534794,
        0.001279067244384965,
        0.8582775974385494,
        0.10906862444367847,
        1.302994740527737,
        1.7854268034902776,
        1.8617235306094941,
        -0.041159602221590895,
        -0.007958344683079568,
        0.7624224940928713,
        0.07352211464320783,
        -1.091708781496024,
        0.40514859738571674,
        0.3585975326913419,
        0.03565980140240366,
        0.02325804538243974,
        0.20156352595317462,
        0.004582883147991296,
        1.2819164103853047,
        0.008441170690085353,
        0.015192967998782003,
        -0.03511928336716784,
        0.025008986926567795,
        0.5399906202095099,
        0.12565253242270952,
        0.19563671868795887,
        0.001307402720596595,
        0.009839361232196397,
        0.028138838153616383,
        0.03982402626275333,
        0.4946898961050102,
        0.07205517328203913,
        1.0718240015867428,
        -0.0391993061751666,
        -0.04258553507472316,
        -0.02133706558110223,
        -0.002250607566619269,
        0.5439010105387289,
        0.07233490304453807,
        0.18753067896043388,
        0.0279153201547332,
        -0.01811307616836652,
        0.017888928393929925,
        0.021639723483989178,
        0.4287895019699373,
        0.022185054967727935,
        0.018076392524546705,
        -0.02514872368493452,
        0.04228265551643441,
        -0.008741777960162619,
        -0.008155821760456539,
        0.1257704121044443,
        -0.03470246064262102,
        2.552202120851766,
        3.5394971939825286,
        2.422050639508739,
        0.7612071234208975,
        2.731583869854874,
        4.087994365658409,
        -0.0006284755503279998,
        -1.1544672955364008,
        2.38733374908486,
        1.8137679010851537,
        0.3471980253978291,
        2.3686111420337594,
        2.07075325269601,
        0.04138607436319921,
        0.0872148960766231,
        2.2316840468348564,
        1.4725010732503163,
        0.170817362691245,
        1.7173767970121383,
        1.7287706909539946,
        -0.02113050978864752,
        -0.19251183039508668,
        1.4310615237124718,
        1.0121091346051758,
        0.1853327702059515,
        1.4824777394781576,
        0.9797921126733276,
        -0.007491689801061399,
        -0.9816753484594797,
        0.7504027664028032,
        0.4960379397860922,
        0.06755742972378227,
        1.2288201981648288,
        0.5630085534867814,
        0.02432017584701167,
        1.8700921245035125,
        3.357937946721498,
        2.238726058467752,
        1.0866894022493634,
        4.095014354664578,
        4.442251018007603,
        -0.001867624791773517,
        -0.12609446801697552,
        1.6548566797320772,
        1.142137160231938,
        0.18750489315568922,
        2.0909699979102134,
        2.1385031785204274,
        -0.02929990035373646,
        -0.5211409654264288,
        1.0723666960859066,
        0.660498096274431,
        0.2944639420163488,
        1.1977947027208513,
        1.2670780987810624,
        0.0377466462040383,
        -0.3172223541190892,
        0.7432954548755745,
        0.6285972707490717,
        0.20408584806686889,
        0.6382104158011103,
        0.9591133712187637,
        0.038573525401762204,
        0.24606317575921693,
        0.36780787187740743,
        0.2014973935018262,
        0.0027218816440982676,
        0.6346326906223723,
        0.3384360305436107,
        0.026315093198231082,
        -0.02314416017956786,
        0.7269889143278295,
        0.7402345173686091,
        0.12732449449501418,
        0.9750031612113731,
        0.687965548647729,
        -0.04034621776180741,
        0.3725719726831383,
        0.3542762238416922,
        0.4125324822454622,
        -0.030086196145431874,
        0.3314115643932296,
        0.3038047086315338,
        -0.006475486990818167,
        -0.05249953448186127,
        -0.026715108787038963,
        0.044417306972682924,
        0.003065954268004153,
        0.01633947909082726,
        0.013223909578946463,
        -0.02751754915136796,
        0.020202089190370802,
        0.00019730930738624778,
        0.02324199819267697,
        -0.03586895603103058,
        -0.03830524757002011,
        0.009100145461358549,
        -0.03456843924567232,
        0.022559133242510795,
        -0.02786285799004341,
        0.013254663511071645,
        0.004488277636347791,
        -0.02803008557881071,
        0.006358109090242028,
        -0.008144400292494693,
        0.7013165664459148,
        1.1870953391720722,
        1.2440313408422738,
        0.016581647220954746,
        1.8073950605149298,
        0.7331216088765243,
        0.03456106894246015,
        -0.03779543878002314,
        0.2498149364600704,
        0.2417688844474325,
        0.03406145653065376,
        0.27214526344335915,
        0.21963006973501048,
        -0.017108544168730738,
        0.6073086832745155,
        0.2987189406298335,
        0.41405233088322274,
        0.043073270142453206,
        0.3074603752520777,
        0.30626692604489125,
        -0.019253250345915494,
        -0.3139007409151442,
        0.06009095551365751,
        0.1071527834767814,
        -0.036420637910951625,
        0.08995977264198977,
        0.031012921137204125,
        -0.038214269992539525,
        -0.0429767160203048,
        -0.0393252052000284,
        -0.023630404593310863,
        -0.01809182564329722,
        -0.004766631127125784,
        0.008984652859324569,
        0.023646062802859295,
        0.6332993600197523,
        1.5158580703173072,
        1.2107450425162558,
        0.03773406474155807,
        7.48791257615702,
        -0.003921139001147204,
        0.01706246308780722,
        2.3603151525841057,
        1.833067360735576,
        1.4631394218149234,
        -0.03419338281977795,
        7.4036467071675345,
        0.006255236747400814,
        0.011658584844319371,
        -1.7294478328938674,
        1.3879914565584772,
        1.3327444544843492,
        0.016905202160754265,
        6.05233729515715,
        0.03993808644906482,
        -0.01748559045999321,
        0.03840964629995425,
        2.1718148976473075,
        2.02374166539965,
        -0.017227848207963383,
        4.126226143350772,
        0.019483879224371753,
        0.03731303057899812,
        2.0474148447432405,
        1.8595084550781857,
        1.5902818101690777,
        -0.037612029747340424,
        2.9289445463556945,
        0.021168435759126306,
        -0.009727211742827205,
        0.2861384304143251,
        -0.011050297806687067,
        -0.01714002706086733,
        0.03895477683640806,
        7.445233127316755,
        -0.003602592114767584,
        -0.028210025231482565,
        0.5817276609324398,
        0.034954314493009286,
        -0.02066257346247366,
        -0.042784115371052166,
        7.122275551253191,
        -0.021705902975067172,
        -0.01029192682358102,
        -0.8688871800788424,
        -0.042000935025283626,
        -0.022473598664601736,
        -0.042348564957785974,
        5.865875588353115,
        -0.02379799049695056,
        -0.017308952052374208,
        2.153222546186707,
        -0.028762055547433232,
        -0.01540797471435716,
        -0.019088750823773058,
        5.33555498255753,
        -0.0004006847485728592,
        0.023542441899888883,
        0.1943509911252916,
        0.0018108971092594402,
        0.009587945512614444,
        0.04073860685077039,
        3.8941017417536754,
        -0.016968388687713307,
        -0.016468286149856227,
        0.03647091331817821,
        1.8994793882107983,
        1.1904845821757424,
        0.017686773751572134,
        -0.01763839391601326,
        -0.02217555475179964,
        0.026501159979543158,
        2.3742986059073705,
        2.364987701518663,
        1.7685635259721224,
        -0.017554846367317304,
        0.024249753312783118,
        0.0014612369052102608,
        0.008687555090369692,
        -3.0440832386782097,
        1.601931725227282,
        1.3265820771155807,
        0.039522383860210855,
        -0.0014146691518446503,
        -0.03306481331466032,
        0.033682336844105855,
        0.6573506960034113,
        1.1739365335858858,
        1.1204787908739315,
        0.03893810912568744,
        0.03284977019145377,
        -0.0015263484323170123,
        0.03170970039218702,
        -1.7531261649246608,
        0.8970986689234308,
        0.600865163856628,
        0.0248958971681876,
        -0.002508998190852714,
        0.0401101121686245,
        0.007631235604139214,
        0.3272002375975975,
        1.6597083930458245,
        1.47990716863651,
        0.01027798411779841,
        0.009338696140801772,
        0.01411534887223256,
        -0.03059801598120223,
        0.8896208783619939,
        1.653557433946106,
        1.103845219544437,
        -0.009896548948233242,
        0.03595690391778448,
        0.040638838647730935,
        0.02700890253891004,
        -0.33169671717600396,
        1.726056783323118,
        1.5532739081845681,
        -0.04339128872491321,
        0.02292316250750963,
        -0.04317755013369632,
        -0.041941208777013454,
        -0.6329909514963438,
        1.2320414400767776,
        0.8205971155306597,
        0.0042942512886140405,
        0.020767516033286217,
        -0.010968844813166359,
        0.03409319468205176,
        0.3092793277224261,
        1.1823420101110869,
        0.9355420967066002,
        -0.024987976477702293,
        -0.03417040623829734,
        0.03764328515788224,
        0.005413918368712837,
        -0.02955549370138506,
        10.164812906764835,
        14.08083467489405,
        -0.02069011047029387,
        -0.030384978043783085,
        1.9480068220013573,
        0.03187661645087642,
        -0.015646167142866343,
        -0.007644093291948421,
        -0.01656623614913333,
        0.022369028696363074,
        4.453215598528356,
        0.012354243802371158,
        -0.015764222739525536,
        0.039529453277307704,
        -0.010185350766347972,
        -0.04216688187571066,
        -0.013233207453835749,
        7.980596170376953,
        8.011631051270607,
        -0.05375504677471687,
        -0.034566308207958966,
        0.0014806753978142176,
        0.013831662278101195,
        0.005609824665282137,
        -0.01837180162136701,
        0.026602135998784953,
        -0.003107509186084605,
        -0.040660194477003433,
        0.010381117650846221,
        -0.006259416747744167,
        -0.03273554073382654,
        -0.0052228255710490504,
        0.038425163467000395,
        -0.017387519940546027,
        0.019554426104817238,
        -0.013369725372801596,
        -0.008013656325072118,
        -0.03375319835059252,
        0.01919342693235638,
        -0.037863111799509366,
        0.03644235118688994,
        0.015944219500598378,
        -0.03117199479829149,
        0.025853173517125145,
        0.006088678573982318,
        0.0034086420715142194,
        -0.011069743318296334,
        -0.017379860188790994,
        -0.0054380607205010085,
        0.0011381693720641925,
        -0.040441394478809164,
        0.01352440263017207,
        -0.03112046857974414,
        0.0332533783608295,
        0.0005806264900418914,
        -0.03377180612777319,
        0.034611487848771064,
        -0.04144468885468239,
        0.0042171192855013275,
        -0.03321817260418876,
        0.02566347068780249,
        0.017272231138934453,
        0.03277126603714094,
        -0.005612888476589423,
        -0.026447832619454777,
        15.317875282418262,
        0.013461845993625996,
        0.028834395870002548,
        -0.019657022390430514,
        4.189899973265748,
        6.447795224542507,
        2.2863913575079216,
        6.474699877439107,
        2.392597213204593,
        14.669616486249447,
        15.07825988096897,
        14.994324435434805,
        15.136082772469614,
        4.103026790525469,
        4.339036348817617,
        10.315918280365642,
        1.115622084254103,
        1.2643391012381395,
        4.302931772829983,
        0.5179396768332013,
        2.9220958332592293,
        0.7306746730829391,
        7.540833219369911,
        8.570073376741348,
        5.807245868781048,
        3.972768985405559,
        0.8290606680370929,
        1.4576230335086613,
        0.3958786048515197,
        10.065419053343422,
        4.78866555650486,
        3.6302047239096864,
        0.0390521958175176,
        0.029534497548826748,
        -0.01508619493010855,
        0.0027647376378532,
        0.011304802395574137,
        0.01645675113913052,
        -0.009520553850078087,
        5.625135886323536,
        0.000359037762570251,
        -0.027503618843401818,
        -0.005630307622876374,
        -0.7796835269877632,
        2.303976213175512,
        1.8586918986059442,
        -0.029282754421602622,
        -0.019305999058232427,
        0.9927910057456095,
        0.030049546093044662,
        -1.1749250316385704,
        2.348302915795915,
        1.9309242895156895,
        0.03670477769720411,
        0.026639601412499443,
        1.005914075215574,
        -0.005842253787123515,
        2.512045218066245,
        2.638039608826943,
        2.5851638601557596,
        0.028791611266139668,
        0.034876362141943035,
        0.9045829317372687,
        0.1369708079256383,
        1.2726039070387871,
        1.7967069776803353,
        1.9015790527648386,
        -0.003970031018035756,
        -0.0186308161974371,
        0.7248782684218249,
        0.09731441718619849,
        -1.128171501226822,
        0.44555536452120875,
        0.3308425678212113,
        0.029320994118268273,
        0.002830683572485931,
        0.20272666549122925,
        0.025902370086775102,
        1.2940856923899322,
        0.011730890124915051,
        0.008149649766647381,
        0.0021383976593580658,
        0.025620546798953484,
        0.5529262776077201,
        0.10306654193038538,
        0.22062853497687326,
        -0.01862338653969583,
        -0.012886390417216934,
        0.016613120307918804,
        -0.03803377256427379,
        0.5571011841037559,
        0.062045365727052874,
        1.0685386148179843,
        -0.0024213185214014827,
        0.019573140896666414,
        -0.01772585100222191,
        0.03022532918590919,
        0.6244598983328372,
        -0.0009334877670981153,
        0.19817050587006715,
        -0.006858770763210104,
        -0.014999805429720394,
        0.023008065823193872,
        -0.011478275599384016,
        0.47504783396984335,
        0.10432956855192281,
        -0.06287869751285838,
        -0.04389924302122881,
        0.028619456485888983,
        -0.014000218117816113,
        0.008773292608316208,
        0.14953181502044946,
        0.014013959713248434,
        2.477165116089715,
        3.608133779849364,
        2.4441362438375216,
        0.8319086200992697,
        2.7865873903056895,
        4.105683950272072,
        0.003863183393639976,
        -1.1576565908993168,
        2.4227182235740563,
        1.8019100372882975,
        0.42467904715181076,
        2.4806346805829036,
        2.072384552380471,
        0.01534795308902829,
        0.07885012658273541,
        2.300423563640045,
        1.458878120598104,
        0.1673875760874388,
        1.722310834592748,
        1.6916470501469005,
        0.017803678807360234,
        -0.14360730098664853,
        1.4329759493947676,
        0.9662091225193579,
        0.20356787576282576,
        1.5689433153709256,
        1.0083359206687628,
        0.009742566689231551,
        -1.0066998031949788,
        0.7894714437121114,
        0.5374379580924671,
        0.07412795014614477,
        1.252154550160077,
        0.5599160324549555,
        0.020429115893929452,
        1.8533103472901695,
        3.332697669680261,
        2.232485108040422,
        1.0784081740400862,
        4.129381744092173,
        4.438107722803122,
        0.03904300851818646,
        -0.10741786581540035,
        1.6776136021686248,
        1.1835444729631843,
        0.190252624171851,
        2.0875318954734743,
        2.1669059933150367,
        0.04323970826213092,
        -0.5479055731700901,
        1.0180446034129027,
        0.6546368106009959,
        0.2992901898512666,
        1.234983140470423,
        1.2997782553603112,
        -0.0038848339425897613,
        -0.30507641873507774,
        0.7685066314619805,
        0.6187061016831906,
        0.2432873152030804,
        0.6317200750121572,
        0.9577702133383946,
        0.035342141661129846,
        0.24456280931048188,
        0.36622172977379447,
        0.23934333850105732,
        -0.01810578437837964,
        0.6346067942163134,
        0.3958631633479877,
        -0.01559264932599769,
        -0.00924656085893946,
        0.7239658531899671,
        0.7030043192742154,
        0.13843554911879213,
        1.0461256282694704,
        0.6368089854608913,
        0.013323574077786955,
        0.3612137588450276,
        0.33305088517967035,
        0.37783575319777335,
        0.022637669221971336,
        0.34834942947536296,
        0.24940402949151327,
        0.023145456762111383,
        -0.06147466145865628,
        0.05712822597688243,
        -0.01644109710336463,
        0.016476324812452852,
        0.009095608087835523,
        -0.009689021442991717,
