{
  "layers": [
    {
      "w": [
        0.04651918708291815,
        0.0024014139362548872,
        7.650521308615379,
        0.053054268853890627,
        0.032314481887848565,
        -0.052085673206219325,
        1.8364560497053153,
        2.7838657922886876,
        0.9552156394256851,
        2.493141184551412,
        0.9409624739245505,
        7.393058367457664,
        7.505086127954713,
        7.47394263713256,
        7.513001551524464,
        2.1834309568660246,
        2.5631310492332715,
        5.6031687217738275,
        0.3032814694444641,
        0.48688602140327586,
        1.7746041561728276,
        0.3262752832479534,
        1.053457120555283,
        0.2913856146355198,
        4.154243680511327,
        5.196524365039328,
        2.314765193192209,
        1.4282612577823228,
        0.4831286585211375,
        0.463089467651672,
        0.051686572116353274,
        5.44068151808346,
        2.0590214452951328,
        1.339517449807355,
        -0.024695514104531947,
        -0.018645687456646708,
        -0.05140932841851071,
        0.04929974823522834,
        -0.05296503662676833,
        -0.032898045106920196,
        -0.029234882137824856,
        2.3163923895664973,
        0.00016886275379262444,
        -0.008642767355277676,
        -0.0017252979327435003,
        -1.9588162727674507,
        1.158205900162316,
        0.9962029298177476,
        -0.05273140809591043,
        -0.04540479877317804,
        0.19539440595973726,
        -0.01597571331032449,
        -2.2822187372098375,
        1.246648173377315,
        0.9757554470528973,
        0.014382159302733158,
        -0.013135335820588035,
        0.1810300359696755,
        0.05063552637856172,
        1.9213499007945234,
        1.6368531765704766,
        1.7707035112357994,
        0.049408401021255134,
        -0.027898129261340214,
        0.1524540465031166,
        0.13033643076156934,
        2.411472277929554,
        1.3790462371640297,
        1.6821612372586519,
        -0.03508000535460153,
        0.0057045165785410785,
        0.19551736194967245,
        0.13580430443631153,
        -1.2751757797472787,
        0.23027227975926653,
        0.096981775047316,
        -0.02294473092841407,
        0.04175467861680589,
        0.00568452402152375,
        -0.037342925034443114,
        0.2756452630648167,
        -0.02248665388961844,
        -0.04860521767343312,
        -0.04757598547936993,
        -0.03622408927805248,
        0.5368144506993143,
        -0.005047309333313304,
        -0.3511996425337966,
        0.041043731070735875,
        0.007048194705910688,
        -0.02551002210212337,
        -0.027361082544316948,
        0.46920031950562735,
        0.0385640183416749,
        0.046936537138053284,
        0.035464429261432256,
        0.03007326951523599,
        0.0007069438969669208,
        0.021022938280574166,
        0.4997300810764572,
        0.04413113818107845,
        0.23143028954434589,
        0.00199770074388338,
        0.01200803913550063,
        0.03965904657447587,
        -0.009799396336443942,
        0.354161940639825,
        0.03584104945037487,
        0.18462710936071908,
        -0.03415293186548624,
        -0.015554683475069749,
        0.015244126512828344,
        -0.03942904149856781,
        0.19452748580614387,
        -0.04926502505151293,
        1.1510955418222957,
        1.3186641197460012,
        0.7518510691004457,
        0.3072044200419243,
        0.7235996293006723,
        1.4162634460753,
        -0.012035823024212787,
        -0.3303803215441756,
        0.9611050663751063,
        0.7381436341278692,
        0.1668310592424564,
        1.0056439218310234,
        0.8865160066649427,
        -0.04315168458502354,
        0.3442361706594009,
        0.8868237114021827,
        0.6215621796070836,
        0.0394605298248392,
        0.8641251563719697,
        0.7506641121491481,
        0.03848918485403749,
        0.5647525416422899,
        0.5093645764466463,
        0.42877063556907713,
        0.09133991522598249,
        0.4950073599080952,
        0.36175047289910367,
        -0.03648859864203619,
        -0.30117756740500823,
        0.31662411301934024,
        0.21074787222264932,
        0.039507370617178086,
        0.3528580568773872,
        0.24295357990271912,
        -0.05126529744903971,
        0.3755197456457327,
        1.3249433228264391,
        0.8782994250426489,
        0.4239660035409534,
        1.7446905699794235,
        1.5175961984244666,
        0.028094723375396126,
        0.999661516486328,
        0.7954427596511532,
        0.6480049955882231,
        0.05200782616837451,
        1.2991372334939568,
        1.2165659049095625,
        -0.04863842877638574,
        -0.2577942060318012,
        0.4034580016826963,
        0.27349242077918673,
        0.003819043256222276,
        0.6949352486071833,
        0.43292499962944636,
        -0.025073642055717844,
        -0.24957301456808592,
        0.24515807600823475,
        0.10752362314325672,
        0.036939797395203075,
        0.09972542988595517,
        0.15816739971915403,
        0.03805251148701007,
        -0.0338108051195511,
        0.04450750450561853,
        0.05768712938430679,
        0.04448737460963998,
        0.053584015313903145,
        0.040650707543880435,
        -0.05340515085765957,
        -0.15769573272398593,
        0.4424910560306164,
        0.4232633325478597,
        -0.019444346261843132,
        0.8890398866931971,
        0.30195062861423383,
        0.014691104606207586,
        -0.0037023916404348013,
        0.06961987761258322,
        0.1756302969293269,
        -0.011770625145463297,
        0.07728844848276807,
        0.11326834950649564,
        -0.008656889805381911,
        -0.0330709899817375,
        0.07451360341673355,
        -0.015716659841850406,
        -0.01570307818728428,
        0.0015506622532235803,
        -0.014460640410625761,
        0.008714738348866857,
        -0.04943744235634581,
        -0.047368943290552946,
        -0.04547079908690559,
        -0.005422034734541391,
        -0.03253604238568419,
        0.050579809394145976,
        0.04292419833517979,
        -0.004496105802045481,
        -0.0447190006204372,
        -0.020322815498674963,
        0.04216282896269853,
        -0.002861725620901252,
        -0.050451315721542316,
        0.03686409350171455,
        0.07146816618870337,
        0.5268622097629212,
        0.5133807858482108,
        -0.019174572139667997,
        1.050059379441903,
        0.5687401017640576,
        -0.03654070371340103,
        0.04823818132821678,
        0.06828461398711459,
        0.03372729928593121,
        0.02769645048487935,
        0.11950179766431392,
        0.1128700755944275,
        0.014541849667648689,
        -0.05223402000232582,
        0.06405207713881764,
        -0.027399174318244138,
        -0.005734311095873358,
        -0.012633321945423107,
        -0.009210709348403519,
        0.029427551922401637,
        -0.04511307359067863,
        -0.01212747593445855,
        -0.038351147275385696,
        -0.05325131171940876,
        -0.03414724363264896,
        0.00004781088042313553,
        0.042743973270284355,
        0.03641694560403232,
        0.01280948261028656,
        -0.003389983964439329,
        0.0458292580189624,
        -0.04174963758902824,
        0.047157455330936994,
        -0.030829480159496696,
        1.1492768645451763,
        0.6508563110567132,
        0.548150555025507,
        -0.036310539265293776,
        2.852207147653411,
        0.011359166470982696,
        0.007234340525165045,
        1.2960831637956995,
        0.891809263303989,
        0.7511717358375049,
        -0.011304980139647402,
        2.8619712401156376,
        0.02106587156740299,
        0.03530398248833588,
        0.2123758927008969,
        1.262905059288751,
        1.1489442667163339,
        0.036430790619787976,
        2.569655489229883,
        -0.018977722602425532,
        0.002363932245295552,
        1.3687918892653663,
        1.1407520907308875,
        1.1200781386869587,
        -0.004284463689447022,
        1.4625973152902005,
        0.0012697373957447652,
        -0.03367343315683237,
        0.49151932201966314,
        0.6476158363553809,
        0.4385917503378772,
        0.014614851648417707,
        1.1905604265782963,
        -0.0518039691786667,
        0.02769729345214813,
        0.28186198934677903,
        -0.024454506536029978,
        0.04736965027468093,
        0.04583108380651661,
        2.8353578051841306,
        -0.031823905464911074,
        0.027382476725134417,
        0.17727862846802686,
        0.021796069964985326,
        -0.03224719919848565,
        -0.04637023365020439,
        2.701423219210421,
        0.03714061524433333,
        -0.00029574695680232606,
        -0.31060651437729986,
        0.007076124656237876,
        -0.006045785229063719,
        -0.0402698088276126,
        2.3690345205610974,
        -0.0022001948863415643,
        -0.004811640778154411,
        -0.46205366217843846,
        0.04033152053161859,
        -0.04276112156949443,
        -0.021924352546356777,
        2.2443047046418974,
        -0.03704762267836601,
        -0.04964593185750798,
        -0.43525559255692664,
        -0.04785178437752047,
        -0.04497665162319074,
        0.0013422470110330885,
        1.4721577918553963,
        -0.04458363543005971,
        -0.047395805239409075,
        -0.25010258105775374,
        0.7190062015912828,
        0.46536103577061194,
        0.02245388765977513,
        -0.0515797987817321,
        0.04026822390755389,
        0.026530054940868183,
        0.4537802525949211,
        0.5968994524869985,
        0.459135495025141,
        0.015489192831967266,
        0.021593024018069742,
        -0.014723046838614738,
        -0.053529257267590474,
        0.35696522092292343,
        0.48422491107698545,
        0.29908955482757654,
        -0.04376243773564114,
        -0.023153634043159708,
        -0.04827998723872164,
        -0.03800947908865251,
        -0.38124775017714574,
        0.2762824308815571,
        0.2431672089006414,
        -0.04502614615586099,
        0.0024102681357697493,
        -0.012749766156281206,
        0.04178718288678525,
        0.07870710780802752,
        0.0787404662092873,
        0.12262048194511056,
        -0.013757121177149447,
        -0.020623886705341772,
        0.006453589264666449,
        -0.043092909519048817,
        -0.904675109456211,
        0.9592454746230213,
        0.7587970050375183,
        0.04610102349972822,
        0.03455976485146547,
        -0.04297518473458244,
        -0.017610160039930822,
        -0.13059808624917546,
        0.69407735202592,
        0.562943213107042,
        -0.04929552369312514,
        -0.0415374538552668,
        0.005130237170729721,
        0.03363769162000133,
        0.4832585013655545,
        0.6912571739917857,
        0.5803317330005562,
        -0.006870314179098015,
        -0.0019411170974544059,
        -0.03267433241708345,
        0.010237398647273096,
        1.196658132646904,
        0.43805870799874724,
        0.24461280384123082,
        0.0022635996168439867,
        -0.03173896905923967,
        0.04368819582007386,
        -0.0286180224470496,
        -1.0281511123916953,
        0.4835491537606256,
        0.2790832087981976,
        -0.009549801310615447,
        0.032638087197713044,
        -0.038735257057552715,
        -0.05309023003607987,
        0.017634074745068107,
        4.102097815613396,
        7.886413566667163,
        0.0296078104191824,
        -0.029949587533485117,
        0.7359237676593546,
        -0.004467894428739574,
        0.03246074644932944,
        -0.0008976106518964451,
        -0.0032520057531603033,
        0.04517052892193677,
        1.1736178243818551,
        -0.018574014847589086,
        -0.04790084203366477,
        0.014366853519356735,
        0.040893807686918006,
        -0.03781137279563811,
        0.020210345760729602,
        4.527634494327099,
        4.4695738480746305,
        -0.0020241710914986485,
        0.03560942053891602,
        -0.037115365854348804,
        -0.02339736467520699,
        -0.043033381507344676,
        -0.019730420556584104,
        0.008960656292543941,
        -0.007201310354866186,
        0.050474915599864875,
        -0.03778290254812084,
        -0.0036945812735691636,
        -0.04290631682550019,
        -0.0009891217231670435,
        0.0278507594598665,
        -0.04230613420819836,
        0.043192922200296885,
        -0.018453704807761914,
        -0.05298977398357264,
        -0.010352454577082015,
        -0.0464258247738775,
        -0.02903797769565537,
        0.005407696889121349,
        0.0390271301963449,
        -0.02975804490740714,
        0.04859879802748584,
        -0.01966978802312029,
        0.021525852392652957,
        0.05000681217337743,
        -0.048315082163043234,
        0.0036526350483155412,
        0.012458193407765586,
        -0.029550021089020165,
        0.002267985836896789,
        -0.012546491000711722,
        -0.007820970908018008,
        0.025239705611474424,
        -0.020413737012568958,
        -0.045794671909713563,
        0.026362995263563855,
        -0.04590313498819905,
        -0.04296340180798969,
        -0.025003443891640473,
        0.017693750786787067,
        -0.033762254043113324,
        0.014157880407227562,
        0.03281586430580189,
        -0.017569607707004782,
        -0.042167719842595056,
        -0.03456702405706699,
        0.032639992448847924,
        0.017401448723000184,
        0.03453540894610353,
        -0.03466378543470219,
        -0.05425130729971421,
        0.024458188813747162,
        -0.02004761332645416,
        -0.06506578764948573,
        -0.04043971047968297,
        -0.02455190993894867,
        -0.01693011681214734,
        0.01759547095860525,
        -0.0034935306098048146,
        -0.04021436344989599,
        0.05306745369982489,
        -0.005462345512227658,
        0.03180709278635759,
        0.019541168919314133,
        -0.004248280025527782,
        0.04458793135523268,
        0.004134055224167285,
        0.03428139113714624,
        0.045822718160653135,
        0.026387569849781335,
        -0.022266279217998144,
        -0.021131607192208753,
        0.014869274878810047,
        0.021172032364464723,
        -0.03060213823853422,
        0.013092315495818478,
        0.019816884941801328,
        -0.023737799896444593,
        0.03622067329076146,
        -0.04536512891940315,
        0.05214530552405428,
        0.0443048612752812,
        -0.0116223237880574,
        0.04878215273557368,
        -0.04967176695747409,
        -0.008437150614968301,
        0.012034401067993515,
        0.019499396226163226,
        -0.01961651094741886,
        -0.03588898437075543,
        0.00379009187604389,
        -0.021277728725741067,
        0.023966705787253836,
        -0.005386240164487244,
        0.013407105408206938,
        -0.0346369274396362,
        -0.02984169348452942,
        0.016461311238112668,
        -0.027491545985796652,
        0.0025302767067824044,
        0.013555018032424019,
        0.035244363895491765,
        -0.004262818158503556,
        -0.0015308094544222216,
        -0.018520605222781043,
        0.029548024905405385,
        -0.03383375383947297,
        0.03190154087416916,
        0.05325949366523964,
        -0.03315373831494768,
        -0.030514720538352615,
        0.01958727422529757,
        -0.04627904774311952,
        -0.013251889593522581,
        -0.037213448670221465,
        -0.03228415134361822,
        0.015075510308313741,
        -0.009802952320935815,
        0.05019589479187955,
        0.032942487084895125,
        -0.04197842976193391,
        -0.04695616468222927,
        0.017375157368772192,
        0.03292699863876191,
        0.03843797861795439,
        -0.0013565908679214003,
        -0.007663323332153294,
        -0.013951856092479845,
        0.0028360569917220374,
        0.023105842755313688,
        0.029519666007388225,
        0.004771004779531838,
        -0.029108951839423105,
        0.04729755359749955,
        -0.00811179584828799,
        -0.005290641085344276,
        0.04282010206009509,
        -0.023245560692866558,
        -0.00842984601519979,
        0.04536467712901148,
        0.03357520250613428,
        0.009808231590304436,
        -0.04256739930677951,
        -0.00941840384177252,
        0.02211771003523238,
        0.025759173878980385,
        -0.01603233249629307,
        -0.019383314507385535,
        0.029501957534242274,
        -0.022187642234396284,
        -0.030726173072847526,
        0.043850242663454685,
        0.01439836749735745,
        -0.048456514815647465,
        0.006100105173632013,
        -0.028838697366850564,
        0.03737094712127154,
        0.005220367314254174,
        0.026342039168480894,
        -0.009397093430271243,
        -0.030663785315277546,
        -0.04571136958573378,
        0.013789509925808137,
        -0.025103493228252748,
        -0.0038215329773308203,
        0.012182849903375072,
        0.04076155314843968,
        -0.053022043943513404,
        0.04464840704828296,
        0.02830936104444336,
        0.038504393083705096,
        0.027649820207834207,
        -0.0407837924825769,
        -0.03791024536466301,
        -0.004657585241043901,
        0.03446391048732977,
        0.033627720092255724,
        0.022518442950930227,
        -0.05127283152291831,
        -0.012907066505130968,
        0.04964289301516326,
        -0.042762520715180115,
        0.009462312974604245,
        0.018757578097409737,
        0.001038277469094166,
        -0.0512366756498323,
        -0.009209193580124186,
        -0.021233875999804423,
        0.046160851646561876,
        0.04590773190690342,
        -0.026129071976006196,
        -0.0082808470140373,
        -0.047887493049731805,
        -0.03971741154042384,
        0.01714636894321131,
        0.0009761346553284147,
        0.022198209660992906,
        -0.02093954243359991,
        -0.03425554530155381,
        0.024490659103093466,
        -0.045908331045592984,
        0.03563309510345572,
        0.020478946608498014,
        0.007336237561464372,
        0.04678543805062967,
        -0.024794416140156022,
        0.006603988587455839,
        0.016883989808037635,
        -0.01654005617325498,
        -0.05339867823846571,
        -0.009751536407598523,
        0.05120871172453266,
        -0.009126661192963285,
        -0.043788521113970746,
        0.011465633354841789,
        -0.04992797780361846,
        -0.007265678383076171,
        -0.008275283127345753,
        -0.047252853276413556,
        -0.038184443507831504,
        -0.012859425299421494,
        0.002288963041445292,
        -0.03567939367293168,
        0.034817828881629,
        0.007656480463413895,
        -0.02413061237342258,
        0.03329407334809866,
        -0.04756795365459771,
        0.0188043109395761,
        0.017922026982942686,
        -0.02058746878011264,
        0.020418318385560862,
        -0.026100054753324504,
        -0.05059489057513294,
        -0.05347445638128688,
        0.049431637910789715,
        0.0438424616280014,
        -0.003213707192759957,
        0.02022244446532331,
        -0.020755436365982764,
        0.019755143471569963,
        0.032604558206529285,
        0.004598769775958886,
        0.05320793379406925,
        0.05627070485681794,
        0.026626697378967723,
        0.007201176726503361,
        -0.051396447039974945,
        -0.04690134347576879,
        0.035045843115419174,
        0.02749969502218156,
        0.01420657547570803,
        -0.0013177044958848645,
        0.021105881634623153,
        -0.03340768727024693,
        0.04235408971287011,
        -0.005264863669685502,
        0.00414284130361589,
        -0.042952473959211805,
        0.02035384884820043,
        -0.040384841262496626,
        0.047007628823673146,
        0.03178924267164441,
        0.01440468695955191,
        -0.03637411981671652,
        0.048388630281870675,
        -0.015057659026221259,
        0.04852710854838967,
        -0.03544559766284137,
        0.029992281297803,
        0.010392656436085545,
        0.020515249561442062,
        -0.00767682112653226,
        0.050222720006939246,
        0.0260939949569124,
        -0.04155404489476491,
        0.01809767041738111,
        0.04111356797512148,
        0.04890990558005676,
        -0.049772086037925975,
        -0.029496252967914225,
        0.026836807763304747,
        -0.0024392954697501318,
        0.016012752971205014,
        0.045392976846354356,
        0.019469525763684752,
        -0.018022628071033355,
        -0.01048851988041058,
        -0.0500352444141495,
        0.01170990246561963,
        -0.006473290992217873,
        -0.016322638102673957,
        0.016401558065129673,
        0.035399605595019076,
        0.02888989927986404,
        0.03417934254831217,
        -0.007363957523950367,
        -0.03794409928653637,
        0.006753127731689171,
        -0.024981209530163067,
        -0.01133693545953977,
        0.04236911290658302,
        0.049620593537432416,
        0.030961102017486936,
        0.0026638167623433515,
        -0.02378548373350744,
        -0.05124254469362008,
        0.001807896114519856,
        -0.027175329129199788,
        0.018706760831244482,
        0.019700516817178687,
        -0.023629685858764595,
        -0.045021516192205895,
        0.02656254334164016,
        0.0025498577121581007,
        0.006092214284951707,
        -0.034701079182875016,
        -0.029195072847718165,
        0.02146766681435358,
        0.03403109189925072,
        0.045185221438820394,
        -0.0034392767254812166,
        -0.04994162137126451,
        -0.021504918482544755,
        -0.03999707936893311,
        -0.028624058029956993,
        0.04180689654280175,
        0.004727336960645887,
        0.040502143495585174,
        0.030752288828520727,
        -0.041652205183820644,
        0.003084278864744027,
        0.045700413737872134,
        -0.04004349264625777,
        -0.012234161805233635,
        -0.03665360686862449,
        0.016037387263209683,
        -0.03757077526110722,
        -0.03991473685751494,
        -0.019286039833579682,
        0.017370071653251787,
        0.02316156099351877,
        -0.057553846212255455,
        -0.04289652377277061,
        0.007344057638134583,
        -0.04203329660882749,
        -0.019087874584473717,
        0.003784063157640425,
        -0.05243658997441246,
        -0.009440082903641948,
        -0.005589705647760944,
        -0.039624534134689644,
        0.00258106777621719,
        -0.021960063828774874,
        -0.052450078194105985,
        0.016258120360398642,
        -0.04926605288506774,
        -0.03545155328575201,
        -0.02895434763991059,
        -0.029896204360767988,
        -0.042142903874686694,
        -0.02353356110468337,
        -0.052055159430894296,
        -0.034624912260468016,
        -0.04634677940590655,
        -0.015440843180522775,
        0.026593450371812752,
        -0.04962233570604749,
        -0.040975896925289905,
        -0.03960641232322574,
        -0.004078948556316902,
        -0.016060365372534385,
        -0.025064912821983167,
        -0.02378960954714454,
        0.0024352516643989896,
        -0.050514829931699964,
        -0.0369494136609186,
        0.049235281508154725,
        0.018171413371303687,
        -0.04993199313281641,
        -0.04343959597446199,
        -0.009155672497298322,
        -0.052176483030915904,
        0.0011772632426959358,
        0.010439405259977419,
        0.015374605160197246,
        -0.03208266845457911,
        0.013284772717632074,
        0.031646266745443616,
        -0.034282467670444385,
        0.023801741749455166,
        0.02754801054328728,
        0.022674597253284908,
        0.0480139096505711,
        0.04795558398288973,
        -0.010225183637080781,
        -0.03712646636277008,
        -0.05027295091298191,
        0.029054971942012973,
        0.03927643474990907,
        0.04740124938808297,
        -0.016641021651915514,
        -0.014553990880468541,
        0.03315986393384566,
        -0.006666359648864592,
        0.03585987524027188,
        -0.021177349382641382,
        -0.047383595518607345,
        0.024695087067215606,
        0.028869642877290463,
        0.02585425147117277,
        0.05073062572432431,
        -0.022475416612030313,
        0.0365470937569725,
        -0.011993326889108261,
        -0.0065416982520262006,
        -0.021440618921970134,
        -0.03587106426410129,
        0.007936724276998295,
        -0.007270452590715882,
        0.0191629161067788,
        0.05041097628573953,
        0.03440304605856546,
        0.02672791267625129,
        -0.007098854036359752,
        0.005076096012946865,
        0.030450214606677503,
        0.015989374064200486,
        -0.022686454059993852,
        -0.03451899969449514,
        -0.026061878719482068,
        -0.03386641673617012,
        -0.024729217204363038,
        0.049344026837850885,
        -0.007736063020062885,
        0.03344415115877355,
        0.04366071153223206,
        -0.010366406936641944,
        -0.05278931226254445,
        -0.017159864031905663,
        -0.012766188294658134,
        -0.009342239890035327,
        -0.02032765083545941,
        0.00854452999560723,
        0.03319283590547048,
        0.007455351903763507,
        -0.016447203904052802,
        0.03407586593812731,
        -0.0398601561527561,
        0.019346354337620383,
        0.026032379351016287,
        0.024633285327583604,
        -0.005120446969852883,
        0.03877162870821708,
        -0.02515981604295114,
        -0.002040097431749938,
        -0.021955187331047284,
        0.03531864010346026,
        0.0005405833770132927,
        0.035054644084079704,
        -0.006658192223819012,
        -0.046648448918965794,
        -0.02335289082948882,
        -0.03886738365936019,
        0.028673129060952436,
        0.03786136736781282,
        -0.02537388628564821,
        0.028546761062756366,
        0.04834213260640556,
        0.011565155930243291,
        -0.03213995109965472,
        -0.0037953741339275303,
        0.020179508653016792,
        -0.032360343473904866,
        0.008105807634161051,
        -0.008589066367971446,
        -0.022827492102152003,
        -0.036666766785558254,
        0.020055862488545222,
        0.0427028295601007,
        0.02010841993593196,
        -0.026024015213298016,
        0.02480371913810725,
        0.02032922521368134,
        -0.010953166609040344,
        -0.043627690222777016,
        0.035055070072097315,
        -0.04014867799880626,
        -0.026432356300295234,
        0.02817275117873502,
        -0.031413400235868735,
        -0.02918436432124806,
        0.044863004592264194,
        0.04816120447190648,
        -0.04782802311595644,
        -0.009299490038242908,
        0.034667449450611496,
        0.0013770668366991047,
        0.05274374003316718,
        -0.008519494402835599,
        0.009217294068414737,
        -0.03312315836910564,
        7.792298909396112,
        -0.011334281620583076,
        0.013675796813155347,
        0.0017319958363848224,
        1.8128198221528322,
        2.8011529697126707,
        1.020931668444008,
        2.5119469171406306,
        1.0220515002745953,
        7.574477403083926,
        7.705511372777816,
        7.605953623180116,
        7.710135785289282,
        2.274782618612757,
        2.6234347714801864,
        5.7106178536405645,
        0.2869380225685873,
        0.5337490280575143,
        1.7801739242679069,
        0.30344637587940193,
        1.1327483630281834,
        0.2625420112251243,
        4.263560645904484,
        5.252374879771841,
        2.3518120006486147,
        1.4808083160702459,
        0.443798544906745,
        0.4676953612471283,
        0.07871785158435053,
        5.498747859696345,
        2.1010156081033786,
        1.3782471162777188,
        0.003362281147527852,
        0.043141652725458376,
        -0.035472244630353776,
        0.006062180641593315,
        -0.02056450209053896,
        -0.025190014951809836,
        -0.006139153737084004,
        2.305156936900846,
        -0.032149033164640614,
        -0.03588872429142392,
        0.01795843159666473,
        -1.9523497715215539,
        1.1515960347114156,
        0.9400533771932413,
        0.00018666420875989632,
        0.046915164525524286,
        0.17221465448023743,
        -0.008336397027915159,
        -2.277289918153107,
        1.2390641727775182,
        1.0569483628030956,
        0.031079171347369167,
        0.020117676395841316,
        0.2128935111413848,
        0.030737414670560237,
        1.9256717903191642,
        1.6787972186463624,
        1.8569668067994118,
        0.013846402780311583,
        -0.016415497841980396,
        0.20803990374711245,
        0.1531108817812206,
        2.439175500397377,
        1.3872860646813254,
        1.640847667718324,
        0.027296120463879543,
        0.02396893185132988,
        0.20292087959525384,
        0.1161847039411565,
        -1.3049056370180199,
        0.1534315024343023,
        0.11510334251041546,
        -0.002549998711890108,
        0.047355806202710564,
        -0.051881461768549665,
        0.04600918974967071,
        0.2701868520885964,
        -0.01586672247893061,
        -0.0006090669843630845,
        0.016935189996944613,
        -0.04187886498974858,
        0.5773747233362752,
        0.021069810923287368,
        -0.3879482679988779,
        0.008147558563643936,
        0.050329722768386494,
        -0.04868193341038315,
        0.010875203104204376,
        0.49803677422532605,
        -0.024686993621468704,
        -0.007331924534945495,
        0.052575402749387545,
        0.05048810794754143,
        -0.028149780025646574,
        -0.026002121564087766,
        0.5972353197697913,
        -0.0006126118301555653,
        0.31231285457516866,
        -0.03961636363313617,
        -0.012966317809851951,
        -0.03243770280762068,
        0.032312025356628596,
        0.38479411265006885,
        0.01914811963312965,
        0.22732880167529598,
        0.007363592568327532,
        0.04134075540622357,
        0.00957028926818523,
        -0.019741361835419968,
        0.2190901305527507,
        -0.048213137295684286,
        1.061958212624946,
        1.3033178502393263,
        0.7804023931838249,
        0.3651294065811241,
        0.8572746428341375,
        1.4318428829639593,
        -0.0369751544050601,
        -0.35006814473310827,
        1.0174623917105388,
        0.7878716854332363,
        0.14070016242940317,
        1.057230525667042,
        0.9521536088529421,
        -0.00565650727227303,
        0.40717312089778745,
        0.8414487158061752,
        0.6451980168941674,
        0.057897397011844876,
        0.7962338127205713,
        0.7549827258890679,
        -0.05309892960012268,
        0.6014332134213904,
        0.5853670321591098,
        0.4252374631718095,
        0.037382528675973026,
        0.5564960337868147,
        0.44381826337886177,
        0.04287887959929536,
        -0.33777990730534485,
        0.2746324506996347,
        0.22232551045742613,
        0.04124870709115931,
        0.3954275894271058,
        0.17757227615814064,
        0.029260681158422848,
        0.3578362226929585,
        1.3252600368813545,
        0.9702789183301057,
        0.4539281106649599,
        1.7588153988541044,
        1.49343314642246,
        0.01332745163944445,
        1.071746062915675,
        0.8209197404601738,
        0.6148452420824325,
        0.02502041613633447,
        1.3200838145813194,
        1.286674998103803,
        0.032509950089043844,
        -0.24412332156970948,
        0.4013734909041856,
        0.2830113230711707,
        -0.03710225882653037,
        0.7709586154081058,
        0.43089038524717627,
        -0.0049474652857166785,
        -0.2887949454110167,
        0.17789479954375814,
        0.12197091533338984,
        0.035528410533943476,
        0.10262639657691004,
        0.18158942326580782,
        -0.04772246771021269,
        -0.038982426415072706,
        0.0032623808033819092,
        0.06846658422231042,
        0.025724111742539038,
        0.07961275190997379,
        0.014017270272081479,
        0.006309860814968196,
        -0.12189624352217378,
        0.4863889186333361,
        0.49538089566993176,
        -0.05180250233452556,
        0.8858172189678105,
        0.24022590941182576,
        0.028377125402307923,
        0.0653462611819956,
        0.11881488355752362,
        0.1780591109962167,
        -0.03426812027084837,
        0.07267929925552612,
        0.11070629714577129,
        -0.03869107649329376,
        -0.08723931158633227,
        0.037114937679327,
        0.015672066013101643,
        0.04219399148058673,
        0.015084405398757123,
        0.0006220219001532868,
        -0.0035322005708638402,
        -0.03248390965765684,
        -0.029792004757557992,
        -0.051293220178555476,
        -0.022996522281812534,
        -0.015592334231125406,
        -0.019916940764334735,
        0.019494975879950874,
        0.04447323433050204,
        0.03137990668783881,
        -0.04568092357840205,
        0.001624285665858661,
        0.0029327984581519655,
        0.05024335589217548,
        0.029668494205315688,
        0.15914267791641026,
        0.5502782147751077,
        0.49176793617608344,
        0.0022891700666656896,
        1.0307379010562405,
        0.6182402955087652,
        0.031464119411214665,
        0.08010294487218111,
        0.1110399713577487,
        0.07660374496364086,
        -0.05304131454370972,
        0.10700427914288582,
        0.14696338122981858,
        -0.053511126685862935,
        -0.04777241578618195,
        0.024367606254901038,
        0.01869753064143024,
        0.0472104375430798,
        0.04086498454019373,
        0.041376887383267114,
        -0.01366857809213007,
        -0.032036251202014074,
        -0.04211427198542443,
        -0.02521003555198587,
        -0.015671010643690607,
        -0.013935830399442444,
        0.03823639829864445,
        -0.028125826311377534,
        0.042158543357324836,
        0.04208260024520089,
        0.04194940166626266,
        -0.046253086390219814,
        0.008484828392348528,
        0.008956451142038566,
        0.0386756757206041,
        1.1440219222153338,
        0.6500708415163209,
        0.5522040591652485,
        0.011733251332681528,
        2.918622394227265,
        0.02989748714690815,
        -0.00170618224570269,
        1.3807750691331957,
        0.8264751289872935,
        0.7497735597618191,
        -0.024425408296589898,
        2.9704378824886017,
        -0.014840610949138185,
        0.03125229175409619,
        0.2206555761996733,
        1.261224711183452,
        1.0983409970932552,
        -0.027610886045912407,
        2.6425773936225307,
        -0.03603035377968791,
        0.0271225139093181,
        1.4020400417295469,
        1.1710332741638798,
        1.1400120251573849,
        -0.005458905874790555,
        1.582068280373523,
        0.0360053712969889,
        -0.04919319596184381,
        0.5115515969299387,
        0.6268351306016023,
        0.48562873414467644,
        -0.03250797252423457,
        1.217924755388307,
        0.012849445347606991,
        0.04502479968248203,
        0.27656143736921956,
        -0.02054066760115974,
        -0.011181165863124159,
        0.01968999406069609,
        2.8992427430829117,
        0.04942692739876204,
        0.0022105034440715664,
        0.22842046745737457,
        0.016734081958197516,
        0.04764523710641442,
        -0.03395136507900712,
        2.786492148406115,
        0.04424593570925364,
        -0.03566806816243708,
        -0.2820848793216906,
        -0.025606550636705173,
        0.010309891065183999,
        -0.05023768924188911,
        2.523583522015218,
        -0.02876144401531515,
        0.05080402292758913,
        -0.4931989675881916,
        0.0490606001960114,
        -0.03742729890090183,
        0.05176295412035972,
        2.4158293599869105,
        -0.05261223801104344,
        0.05106125691679701,
        -0.5469527731700966,
        -0.03182358675849369,
        0.024914275876026282,
        -0.019926047332951707,
        1.5015201352808683,
        -0.030138277574054316,
        0.010966132761499168,
        -0.27280790690494267,
        0.7494378852166318,
        0.4439160553124911,
        0.00040843462235562184,
        -0.007435633383238873,
        -0.018828206304234117,
        0.03594553005518242,
        0.5025227450756627,
        0.6676856810821563,
        0.39525838939577546,
        0.027658175198679007,
        -0.03434139802344589,
        -0.053536407236240376,
        -0.03018770680271438,
        0.3322424425153705,
        0.46491764953916426,
        0.2816300740033306,
        -0.0013228794473447141,
        0.04557383351731504,
        -0.00950399306463909,
        0.039726720224764034,
        -0.37983113864546936,
        0.219666774885449,
        0.20276540492357772,
        0.02061372559370608,
        0.024690403769312204,
        0.03576855723454517,
        -0.00582197989291646,
        0.1305937592898086,
        0.11770828423524116,
        0.0997711874992655,
        -0.0349211488378171,
        -0.0021074544798990362,
        -0.020940456027544373,
        0.00526488290772678,
        -0.7604452138303773,
        1.012934046395082,
        0.7443020786087858,
        0.045038063810302106,
        0.01719774535096748,
        0.03833608507639153,
        0.001878201475987619,
        -0.027735954832679703,
        0.7133488862005821,
        0.5822235776104877,
        0.032475007410625575,
        0.02456437304881382,
        0.02474235590797162,
        -0.015222095754338145,
        0.515869290493184,
        0.727611770232,
        0.605327532227473,
        0.05297755243723262,
        -0.03747574866980636,
        0.03333297983575581,
        -0.035564348070381745,
        1.2195189953165884,
        0.46692568303184095,
        0.2684424765136863,
        -0.0016348568099080105,
        -0.010094125221739924,
        0.0490196309451533,
        -0.04820657669350975,
        -1.0933332034431111,
        0.4319786208069524,
        0.28642853333052587,
        0.027093080173945405,
        -0.027871359814610648,
        -0.026285214938992007,
        -0.010163213866948776,
        -0.042342852193638494,
        4.28631627351491,
        7.809046597348264,
        -0.025620260657610847,
        0.002186689871421718,
        0.7389708689578691,
        0.029420763100514318,
        0.039404152761424865,
        0.04695411389326937,
        -0.006074659913353305,
        -0.04856556958515279,
        1.248390458908941,
        -0.03506413360995572,
        0.023659623282991975,
        -0.04253079652854954,
        -0.007705897487433763,
        0.03496262289321579,
        -0.053119793787618386,
        4.546624123059891,
        4.643530824892736,
        0.04736262408297744,
        0.035265035063908774,
        0.031937179270749606,
        -0.05194751486587713,
        -0.017871737909272063,
        0.03702220324547091,
        0.043628223523567385,
        0.003222615953516108,
        -0.035271170672630796,
        0.029199262335240367,
        -0.024652578480178634,
        0.032042260925623615,
        0.027433384511226365,
        -0.003524867718932616,
        -0.033654625570091724,
        0.042186645887232775,
        -0.028982568798731023,
        -0.008827159706155798,
        0.02713002419958439,
        0.0004537394792491899,
        0.006186157166165523,
        0.024293178386034456,
        -0.004193179247456188,
        0.010165635791909365,
        0.041007299765629994,
        0.049602345537064545,
        0.04538994292634838,
        -0.013245173026531857,
        -0.03164110680397309,
        -0.015924799368248945,
        0.03379723755832374,
        -0.015861374980696747,
        -0.03293827723923986,
        0.043316676844149304,
        0.05158374795736057,
        0.005715697319627315,
        0.03904185459777992,
        0.04878086382415552,
        0.0030835487991107825,
        -0.005372686395976761,
        -0.01360953201608746,
        -0.018190903677949278,
        0.04188524920211145,
        -0.051916238533714826,
        0.02770992212709825,
        0.04918567226547023,
        7.6353107964843545,
        -0.0350647953416482,
        0.008770170367258974,
        0.021750025433890957,
        1.760756810792414,
        2.700823913122607,
        0.9817523858423503,
        2.473707769451119,
        0.9924316229927387,
        7.44545289724637,
        7.492711527654083,
        7.405477644641514,
        7.486356567837493,
        2.2240522565382954,
        2.5509011840570994,
        5.596867897744488,
        0.3458122837453578,
        0.5174346252274735,
        1.7491653380540575,
        0.3311687806006531,
        1.0322829806531955,
        0.2305820533907827,
        4.210174993942601,
        5.242968014372634,
        2.3800869776200777,
        1.4690254119066486,
        0.488946940275836,
        0.39910957303384725,
        0.05668858404736712,
        5.3982134921459055,
        2.0523325057385216,
        1.3420621688031236,
        0.0007979457722803362,
        0.011132013383660953,
        0.027801001517682764,
        -0.03526951393322772,
        -0.037102390800896015,
        0.04626999296530075,
        0.0394361877935268,
        2.25015127591146,
        0.011835800475228092,
        0.017861598142015333,
        -0.018651328578805054,
        -1.9038681765003698,
        1.160223232536516,
        0.928438832737966,
        -0.004843012845291211,
        -0.04222748576717439,
        0.22046500946099637,
        -0.000006415455874329045,
        -2.299946020548888,
        1.2262348347009513,
        0.9774648605781401,
        0.02894252259448696,
        0.011731879701161584,
        0.1553716214701703,
        -0.006491353744093547,
        1.8658288853445368,
        1.5869285715154362,
        1.8199216512496657,
        0.02633157677690887,
        -0.0044678104556251895,
        0.21465218416336926,
        0.17272500326863816,
        2.3520873892584166,
        1.4463179903981105,
        1.6999826912082927,
        -0.018073975841158527,
        0.010554416473666612,
        0.18852447661776084,
        0.07910090680372824,
        -1.3111808499420585,
        0.2393176396299304,
        0.18331795674418655,
        0.016859674622613636,
        0.052210276516790194,
        -0.0265240522869639,
        0.04286021908956612,
        0.24142381848399425,
        0.033230057990453796,
        0.02381723110518906,
        -0.03975727692850687,
        0.035691510503068735,
        0.528199291362622,
        0.025583690355463286,
        -0.322109351230735,
        -0.04408573122829139,
        0.03239366583174156,
        0.042734896618002775,
        -0.002371113984638312,
        0.5711438364868399,
        0.010611163284267389,
        0.06469750604173306,
        -0.03467656594445717,
        0.022577414570229333,
        -0.019213387172824066,
        0.00022958756787737087,
        0.5439216618917208,
        0.05029884220382579,
        0.2607192460393847,
        -0.023313491984248515,
        -0.011500961109426276,
        0.008397675483265987,
        0.03917701702966064,
        0.29291970683880764,
        0.01422106584065078,
        0.2047528048832898,
        0.03619499321007387,
        0.05020946450978019,
        0.040429791745896906,
        0.022205686264616456,
        0.10864870361057571,
        -0.044908849145176385,
        1.0450745110366997,
        1.3204088960574472,
        0.7621113411969057,
        0.3662622389995586,
        0.7688005387393702,
        1.3707176605203024,
        -0.04949985564911105,
        -0.3760630021248979,
        0.9465935939349334,
        0.7329954071610627,
        0.18682331361604734,
        0.9696483405107273,
        0.8195738296571061,
        0.009023817854302547,
        0.33152512220467706,
        0.7919970836260191,
        0.6277374693583592,
        0.07463959163875553,
        0.81382912967859,
        0.7338792860727626,
        0.0004601724378467152,
        0.6301608517209315,
        0.5735936164579554,
        0.3996476329842903,
        0.07996442883746062,
        0.4855611535144914,
        0.34685295479732925,
        0.02526208512992634,
        -0.3071475062109446,
        0.3186715881437407,
        0.19815719778966046,
        0.13125676211669113,
        0.3682797641319636,
        0.24781538507402745,
        -0.04295142442025583,
        0.3281718815983752,
        1.241148460942212,
        0.9239282655979,
        0.46538570214808084,
        1.676070143304476,
        1.4787260546189498,
        0.03416173626204421,
        1.10161569629214,
        0.8766525427510647,
        0.6103809954449415,
        0.06509359233289846,
        1.2164097827151865,
        1.2274107871915862,
        -0.04760518087849848,
        -0.2902968834294617,
        0.3757586295708881,
        0.29657741786040287,
        -0.03946143395305284,
        0.7039419692562382,
        0.46638973135013323,
        -0.03763951331222162,
        -0.26018903924382825,
        0.20719830028263836,
        0.14924862862410057,
        0.01694586375770746,
        0.1493823041843141,
        0.1882740364797341,
        0.04956005582666813,
        -0.014456074556832151,
        0.015511442065720466,
        0.07067485247089231,
        -0.02331693503934356,
        0.15239737297098613,
        0.013725120074665,
        -0.05111542932593907,
        -0.18449944767836315,
        0.4256777511900385,
        0.5092861037160297,
        -0.05204163476307464,
        0.8363047108462325,
        0.26956550125318784,
        -0.027644462649408792,
        0.029525152245502964,
        0.12328354653983863,
        0.1775011112140209,
        0.005571653441059511,
        0.07625914738945436,
        0.060980967393849325,
        -0.03201271639430897,
        -0.12498011071670134,
        0.041025951787762464,
        -0.019020870074888563,
        0.005231619489159521,
        0.06161208724453153,
        0.06588295816804002,
        0.012988083011176642,
        -0.04758102285256174,
        -0.023686467391431147,
        0.0014935813695133723,
        0.02994686859450708,
        0.03602450944127066,
        0.027765836183766438,
        -0.018430319027834628,
        -0.04101531418396369,
        -0.042204917061840624,
        0.010272340249461567,
        -0.015644852540397682,
        0.03980995998312617,
        -0.04570524148442071,
        0.046831210965554336,
        0.1119997494188001,
        0.4841109726375924,
        0.4585534896989106,
        -0.021743937317035257,
        1.0353298885677793,
        0.6267694527052039,
        0.008072089277374,
        0.05979334104722019,
        0.03918026745581383,
        0.09324381735044765,
        -0.04127719600677369,
        0.07830530324057335,
        0.1737707812405377,
        -0.01687368137763131,
        -0.0075190847646207145,
        0.02571888814123435,
        -0.03206803981068824,
        0.033370606295974756,
        0.0006811700071582096,
        -0.04971460560085604,
        0.04636913551948725,
        0.011306299251495755,
        -0.04072098309339954,
        0.037335439847962254,
        0.024917555046225778,
        -0.0064875028957590885,
        0.040140165140352846,
        -0.029913184579102074,
        -0.046567743246969516,
        0.052745236686346085,
        -0.01916409761604941,
        -0.05164482018268782,
        -0.024477803876661666,
        0.030178710678673584,
        0.040147884018541184,
        1.1104785930221437,
        0.6729747731902799,
        0.6454404111822207,
        0.05184165704263776,
        2.8176312361931055,
        0.0000310793488672947,
        -0.011491721523130789,
        1.3024925086354486,
        0.9097177111049283,
        0.79132330209524,
        0.0370905869110234,
        2.875839904199731,
        -0.03284362478750684,
        0.006217568714291593,
        0.2923719675217427,
        1.2078339534879994,
        1.15376613185874,
        0.04927710647654248,
        2.5060663581694826,
        0.010446184729521114,
        -0.0032852648150808006,
        1.4188031257163676,
        1.0744448980644656,
        1.0672613407904716,
        0.048492167776562775,
        1.5450658272847106,
        -0.012372096635062863,
        -0.011171930713694303,
        0.4893647186228999,
        0.6268799880142344,
        0.4793239688051347,
        -0.04783960245982295,
        1.2049495571823465,
        0.045532778844346054,
        0.04186315281374084,
        0.3193127299465173,
        -0.0349851423094637,
        -0.051384170184638124,
        0.011848920021258869,
        2.8285908350832614,
        0.03563809484149896,
        0.049589139163411136,
        0.2621231674092617,
        -0.00476543629966614,
        0.016403715089118164,
        -0.0021071796045262223,
        2.739831026057188,
        0.022880372587885636,
        0.021482383219712745,
        -0.332973894698051,
        -0.01236435513113227,
        -0.01432668345002325,
        0.004207332829045008,
        2.3375257593456964,
        0.019011880903670262,
        -0.022311519438544297,
        -0.4764829327682009,
        -0.019166714700897147,
        0.022410879742276932,
        0.015773331270738433,
        2.338715922892259,
        -0.010068934195693933,
        0.030534631226433233,
        -0.4763639742650506,
        -0.05282355609889348,
        -0.03827308910588759,
        -0.0009426907491954829,
        1.4460452605050158,
        0.02271308521619012,
        0.021778816156532932,
        -0.27654041538280555,
        0.7706862598913123,
        0.45040557563874756,
        -0.015068084866940742,
        -0.04497190418722538,
        0.04672194614707338,
        0.00408763123590857,
        0.4980656260353018,
        0.6323190032897421,
        0.44298120429736343,
        -0.011709276075413368,
        0.004800483882660919,
        0.031211833118648537,
        -0.029593937939286344,
        0.33092490085882925,
        0.41503496368761617,
        0.24350861156470144,
        0.033696551949185916,
        0.029116175494681564,
        -0.0019872380079417255,
        -0.036887333415615085,
        -0.3533589695532898,
        0.22261968864993958,
        0.21845456352688242,
        0.02264147173619782,
        -0.01636909437080182,
        0.036304663461869446,
        0.03529667642752732,
        0.06051919284089652,
        0.12228871068377477,
        0.13817594613135636,
        0.02688794179526296,
        -0.002116892630517556,
        0.033769647348426496,
        -0.009726797162153552,
        -0.9010448311817283,
        1.019079390677315,
        0.7697762697551199,
        0.023769279112779425,
        -0.008596788524278498,
        -0.034889816978108966,
        0.0050083141205396475,
        -0.159660237603809,
        0.6849679682250688,
        0.5331951997184384,
        -0.022712770043920798,
        0.016435689162441473,
        -0.048306374858917915,
        -0.006552058759930824,
        0.5194129744198956,
        0.7041547059463609,
        0.5668365971063539,
        -0.026188574283968417,
        0.04656352540063516,
        0.012170835373141498,
        0.046271321798552506,
        1.23006540070495,
        0.45807532037202536,
        0.3105681400351929,
        -0.043679791466031175,
        -0.024973094824366972,
        -0.04489258236572626,
        0.03701121359480391,
        -1.0529903722983587,
        0.3886334367707775,
        0.2932063873968556,
        0.020524295757569953,
        0.03437807862463854,
        0.05366116501129617,
        -0.03825810735028167,
        -0.04044128285900764,
        4.181498903409724,
        7.82404126248684,
        -0.021635785559210866,
        -0.0187333757563398,
        0.6664040250596506,
        0.0165904911601101,
        -0.010404378577109482,
        0.04299551099304103,
        -0.01953353951296132,
        -0.011970117988980735,
        1.1683260942905769,
        0.05008531137804345,
        0.012368207037606946,
        -0.047178071174716084,
        -0.0533357851728104,
        -0.006683735208917318,
        -0.04593860268998466,
        4.579111581837702,
        4.551993335304849,
        -0.04772319883528945,
        -0.005961121487551012,
        -0.0352337116175947,
        -0.045555671428498465,
        -0.03717089470139007,
        0.03690255673307126,
        0.0153046611325063,
        -0.021762968862950323,
        -0.012049697247532132,
        -0.012397765721761298,
        0.01427848197465643,
        0.020790080073243,
        -0.04382597429685615,
        0.006163322097107704,
        -0.05087144198988786,
        -0.01354351579429975,
        0.00605547075712627,
        0.021373820441441788,
        -0.011344333131476984,
        0.012567489655336824,
        0.043537042127905455,
        -0.03815566143450742,
        -0.04811032562530286,
        -0.033477140697208356,
        -0.035718089989802713,
        -0.04747678366949275,
        -0.04325194929431357,
        -0.02622306035678253,
        0.041102965039390156,
        -0.034595375444294724,
        0.05030812545529413,
        0.02116991762126056,
        0.02508592186331123,
        -0.03632365130057744,
        -0.009185077470337163,
        0.02732077519850955,
        0.03577627215844476,
        -0.0009680966878266018,
        0.012462573565983888,
        0.047317888723886564,
        -0.020993267293251544,
        0.008512726375670578,
        0.002471445609377861,
        0.038936645041860715,
        -0.0451070884989957,
        -0.02591726909860382,
        7.72668301406106,
        -0.0077314195912167516,
        -0.04901298403537383,
        -0.02611298750309474,
        1.799712841663855,
        2.790631934282649,
        0.9287368274495261,
        2.5244981130105764,
        1.0191284614736151,
        7.489849775551505,
        7.599706935300999,
        7.486179477465892,
        7.509023069269218,
        2.2097039059590355,
        2.589746773182342,
        5.611344040051355,
        0.3616200512994189,
        0.5227036805583871,
        1.785107228883359,
        0.2719716610906322,
        1.048229729389419,
        0.3212201872184262,
        4.239859178643498,
        5.187128697088344,
        2.4273441383876744,
        1.5248017538798233,
        0.4348828286021541,
        0.42684560184704023,
        0.11846880402911103,
        5.466445545598003,
        2.0815512271539243,
        1.3376267897966523,
        -0.04326017199608039,
        -0.05297715388688068,
        -0.04725219023520614,
        -0.04510368704215604,
        0.03300035511578373,
        0.05078392671338222,
        -0.01183359992092315,
        2.2608391895138693,
        0.04629322398686104,
        -0.008770945759035264,
        0.008072067840702326,
        -1.883193467026228,
        1.1276336044875113,
        1.0134307795181756,
        -0.008278892981882526,
        -0.032555444615283306,
        0.22216014855723298,
        0.0035588046395578624,
        -2.2359724987323566,
        1.2763359336094475,
        1.0120037595377065,
        -0.045845712540805585,
        -0.012879157137147415,
        0.13032250119947816,
        0.040343784033596966,
        1.920611385298385,
        1.5707454471547206,
        1.8219125028625303,
        0.043546864391818166,
        -0.034160166839340964,
        0.19128317612655463,
        0.12953958191096535,
        2.4385060187943073,
        1.420110592401903,
        1.6255641650723889,
        0.04782505786271304,
        0.012482555659199623,
        0.16795945295348239,
        0.1588042061412148,
        -1.2586899133474767,
        0.2151522358083663,
        0.1807946086640961,
        -0.022345307619460523,
        0.02096838856318227,
        0.04539794605452813,
        0.004028965224638958,
        0.28205291903017926,
        -0.045508451343760414,
        0.03561964803750643,
        -0.028073625271588014,
        -0.022207365378820475,
        0.5561411266915851,
        -0.003262038958383977,
        -0.3781156635081225,
        0.004423312583998547,
        0.05268160792727716,
        0.03331776549264959,
        0.04550342070926543,
        0.5537648515994277,
        -0.028501940742220833,
        0.027430321251068153,
        -0.009613033941616797,
        -0.046474382514986375,
        -0.03555803782415454,
        0.024736505406542517,
        0.5717393133044444,
        0.1004543521208104,
        0.28853495838756826,
        0.007157391990991712,
        -0.008469621310694897,
        -0.016046126645700435,
        -0.03873399504938609,
        0.3727319306167988,
        -0.030487138848936616,
        0.14772427006086303,
        0.032937647136496606,
        0.027344627319865127,
        -0.002502942902863967,
        0.014472877037483812,
        0.1886825501450646,
        -0.024342584389201925,
        1.063214481320596,
        1.2422290597074832,
        0.8127799553475807,
        0.39031164034089066,
        0.7208358867787085,
        1.3805412152861145,
        0.02378249110291938,
        -0.40763963795730823,
        0.9509528725223096,
        0.7439876496968162,
        0.13408888174091446,
        1.0161256323855472,
        0.8664917794423014,
        0.044564638733499,
        0.40716075122740214,
        0.8409779574654789,
        0.6405275573370502,
        0.043923792801322435,
        0.8767199672033197,
        0.7376457378663103,
        0.028346623473905895,
        0.5928384165087474,
        0.5810842063850578,
        0.40941067527769526,
        0.11374505822556409,
        0.4484580508551613,
        0.3772030600610213,
        -0.025021552434010115,
        -0.38545518468028556,
        0.36390556151161085,
        0.19914687685757307,
        0.10852390189364669,
        0.36495057571318085,
        0.23616216560238446,
        0.03356926159295967,
        0.283981375715903,
        1.331741558072975,
        0.9086858917052072,
        0.4609843306638197,
        1.7423642558920998,
        1.4430576720362125,
        -0.0228108551240943,
        1.0883555606099757,
        0.832246398482157,
        0.5957598847780414,
        0.0645832355569517,
        1.2148504752653666,
        1.284285759892292,
        0.016523698608068307,
        -0.23140170104100075,
        0.4241726357676191,
        0.278420061002228,
        -0.01842124216439144,
        0.7349485364315653,
        0.4327055824397223,
        0.052349956479270175,
        -0.2680293669533479,
        0.19555352095915499,
        0.1531640044605477,
        0.014898435326471131,
        0.170110289136113,
        0.12829225826810015,
        0.04440921070113331,
        -0.01945941647011446,
        -0.0035427002130903116,
        -0.009927942204995568,
        -0.012539155009282134,
        0.10111189523506815,
        0.008000275239886055,
        -0.010312710025940407,
        -0.10167240411591287,
        0.4476184782531019,
        0.4588888131192555,
        -0.002906674152220657,
        0.8420073164218516,
        0.2269595627672726,
        0.017275353580603236,
        0.00040767353542480405,
        0.15329403323702412,
        0.1445655981902789,
        0.008679198832496399,
        0.1527659260458525,
        0.04467081058233811,
        -0.03380565878506771,
        -0.05887388332854886,
        0.06780036238125456,
        0.025514381242996008,
        0.029171202575556224,
        -0.006660888769304791,
        -0.016145837605411814,
        -0.048603629979337225,
        0.023693681537917642,
        -0.020833940658476772,
        0.005866732138446871,
        0.04467640246702404,
        0.010955477209807538,
        -0.051989056148922845,
        0.05136610195010556,
        0.023467581898557244,
        0.040556055425647275,
        0.03556359661826729,
        0.02354988184259368,
        -0.0007439378603898332,
        0.008248451771290797,
        0.04678786698432156,
        0.085246904759408,
        0.4989369760947122,
        0.5315354435420165,
        0.0540319350298836,
        0.9686517014416068,
        0.5582182510486748,
        -0.008671009483861328,
        0.07555322143100789,
        0.02324063691315603,
        0.061966486418007706,
        0.050101911961878916,
        0.10422719189645777,
        0.1325492153329284,
        -0.01317491483387547,
        -0.10991467952038528,
        0.05517267953652399,
        0.014973210962109419,
        -0.0020015852563425077,
        0.0526790157171987,
        -0.02781757175526037,
        -0.0011610286163513312,
        0.03510404588267686,
        0.04892950007715826,
        0.03038389103398745,
        0.01062607330581106,
        -0.0015923485058098338,
        0.05208828411612785,
        0.04884298981722053,
        -0.011785768160336751,
        -0.006877003773615662,
        0.012755615262577054,
        -0.03944890774623377,
        -0.014575936140450036,
        -0.05043367933390717,
        0.03728695656355245,
        1.0791706478442047,
        0.7178415317183946,
        0.5609649463453927,
        -0.0025022333225506567,
        2.894248946256903,
        -0.0025925986344409535,
        -0.02980122155982048,
        1.372816801907441,
        0.8322547185786797,
        0.8064765423612604,
        0.05070348764724603,
        2.8559421132645664,
        -0.01656821572821727,
        0.0303477857826492,
        0.2157030440381706,
        1.198839130825049,
        1.112943811672239,
        0.052962234812087755,
        2.5459029692989104,
        0.006750687609054777,
        0.0033857527295597925,
        1.3926500039604877,
        1.1568467792264598,
        1.0705260648776724,
        -0.03679058854436812,
        1.5214484958032868,
        0.030378765674043875,
        0.04503607458166448,
        0.44317316479439567,
        0.6292197782220724,
        0.4683338489398742,
        0.005341101542036651,
        1.2104331724154274,
        -0.027138964790943076,
        -0.018380912824747977,
        0.3372520695977956,
        -0.014965403288686771,
        0.014751635667667443,
        0.007389415291556886,
        2.8273389211161684,
        -0.015769769101376823,
        0.003964025457240374,
        0.18775531430599895,
        -0.025735527407413382,
        0.012636572747814073,
        0.04628567870720717,
        2.7714348376975417,
        0.03834702766544072,
        -0.04354805529148338,
        -0.31200342001120085,
        -0.03192847406037983,
        -0.0008517671580378224,
        -0.04691990651732663,
        2.464859637714328,
        0.03477601035901528,
        0.004015437702319964,
        -0.48280752411180095,
        -0.01883246828355164,
        0.05170129309705396,
        0.04729611455579894,
        2.3071478606128255,
        -0.022855099456033777,
        0.030067343687398506,
        -0.43284936929642026,
        0.016878053909540277,
        -0.0032504401818750075,
        -0.04544361293816512,
        1.465700382333169,
        0.024124400971963354,
        0.02298967993364999,
        -0.3209766413361429,
        0.6930120670442428,
        0.5024091868481835,
        -0.004021771703107924,
        0.03895223284340259,
        0.040856523056472256,
        -0.030296008300043142,
        0.41364432675092727,
        0.6037846824468776,
        0.4185073486365486,
        -0.004608412093023213,
        0.000858264856853902,
        -0.017088822881942953,
        -0.01670436239469094,
        0.3100264237172859,
        0.467812399008687,
        0.29418237269134223,
        0.031283962298685325,
        0.05204081221566226,
        -0.028373604586787542,
        0.0470192822222261,
        -0.36022442093688967,
        0.2483679491553418,
        0.24924415331328992,
        0.04548713541479245,
        -0.025689297712314693,
        -0.03977491022830399,
        -0.02207460446445229,
        0.07934463716530087,
        0.12009830614836112,
        0.08947965681504846,
        0.0534653996831536,
        -0.050122442335078704,
        -0.039544127492609125,
        -0.021854316445065775,
        -0.8861909296587264,
        0.9746906329166218,
        0.776269142707182,
        0.04049521941084566,
        -0.0292859910111209,
        0.035602018427935346,
        0.03766670243933807,
        -0.04400277174043957,
        0.7219128704863922,
        0.5795128620136913,
        0.022279486307267112,
        0.018950473471748996,
        0.02455397131338963,
        -0.02242412930926438,
        0.5057579289250922,
        0.722242743175632,
        0.6326037776093584,
        0.023255476633408368,
        0.007539852909880225,
        0.036376377711621145,
        0.03000115534742468,
        1.264985577815139,
        0.5042121671461238,
        0.33319440755374735,
        0.0041979160136234395,
        -0.02298675978818086,
        0.012315211727676205,
        -0.05293975100387614,
        -1.141396106660779,
        0.4003870572879503,
        0.24350112968132678,
        -0.026381961340696314,
        -0.04117911939816696,
        0.007605128220904219,
        0.01706792628770411,
        -0.04919357902715395,
        4.244254526609267,
        7.834740723939215,
        -0.018935636719326798,
        0.037344256958304116,
        0.6899693687171891,
        0.02018169936594026,
        -0.04887988125334463,
        -0.019502515485301818,
        -0.0060952414325959265,
        0.018800017398612274,
        1.2038325488389123,
        -0.01302608627291041,
        -0.052349520798002834,
        0.02162060377686315,
        -0.0504942123629579,
        -0.03840105214472873,
        0.017578464585393434,
        4.599551310271272,
        4.574518062622944,
        0.06104478726551615,
        -0.015824902069996413,
        0.017086557523011272,
        -0.021358684733058724,
        0.022965696677839535,
        -0.04198917391799608,
        0.011333606895715663,
        0.006786906193274481,
        -0.015194614890673863,
        -0.006135623123998222,
        0.036033606126621584,
        0.015472871298033587,
        -0.03585136636674062,
        -0.01897155990009747,
        0.002753474958009436,
        0.006448671289857257,
        0.04208279036585281,
        -0.052942859642698965,
        0.02119336895024541,
        -0.019298657374569265,
        -0.003836118240225033,
        -0.019704409419114995,
        0.04470910113312988,
        0.05082297050195049,
        -0.012530978689288139,
        -0.003940515205295332,
        0.015099912267355879,
        0.042145247988009685,
        0.010841922960136544,
        -0.02876549866893051,
        -0.04612062893439833,
        -0.020028782207541607,
        -0.01069543690529131,
        -0.051405640874554494,
        -0.02278135012996676,
        -0.021859548331155665,
        -0.03528159152134156,
        0.011751571838028784,
        0.009634498375828807,
        -0.008292138657612138,
        -0.0038781496945842677,
        -0.0038326606070193604,
        -0.021372077683620982,
        -0.018032417289347857,
        0.02226716590976432,
        -0.005642991188028478,
        7.635976615999885,
        0.04695434790881449,
        -0.013337887667541825,
        -0.028519090018483455,
        1.7793584151234725,
        2.6719263027528974,
        0.9157543114200892,
        2.4611424809095244,
        0.9481921268370386,
        7.315749537188442,
        7.504968136237419,
        7.322238469665788,
        7.466545097234494,
        2.167198816918898,
        2.4995533025841614,
        5.570667053961522,
        0.347117013721733,
        0.4560462063165609,
        1.6914263083922578,
        0.30222221113544795,
        1.0484123599746025,
        0.25615951833772654,
        4.197341324653397,
        5.1454235708947,
        2.3288887102352405,
        1.4573007665164328,
        0.4489105790443871,
        0.3723924611321657,
        0.08916450598593482,
        5.384355115801986,
        2.0103208552134184,
        1.3250009479151252,
        -0.006447283022916032,
        -0.008334791565217475,
        0.03960390488288252,
        0.031916660104926685,
        0.02375857883233054,
        -0.018167470722088283,
        -0.033537519316717786,
        2.17710654038721,
        0.008390096231324787,
        -0.03844050434869777,
        -0.03651377788451629,
        -1.9368547910852034,
        1.219723670095217,
        0.9709659740213147,
        -0.030995163317321505,
        0.03659647714368677,
        0.1925748587206919,
        -0.021563792758156113,
        -2.3007961143938167,
        1.244188334541049,
        1.0289312194930094,
        0.048852634295249865,
        0.015225547443032596,
        0.13367845338850468,
        0.050622079045755664,
        1.845813102955402,
        1.634163634598044,
        1.7599081000528158,
        -0.025885518236716754,
        0.03645808198999747,
        0.21192978854201214,
        0.2000213601305943,
        2.375013826847528,
        1.4570580831604447,
        1.6435699891980375,
        -0.01732593278044741,
        -0.010473401320170899,
        0.14291133155800556,
        0.1492951227454204,
        -1.3541691835284644,
        0.14699805181538184,
        0.09521528511408468,
        -0.03918523678264091,
        -0.051443733942839735,
        -0.011843779072030554,
        0.006744518344285184,
        0.3382511980441958,
        -0.010735080950507903,
        0.006308056252386793,
        -0.05031365276172529,
        -0.02719815876316535,
        0.5119405271331207,
        0.011319707685047625,
        -0.4219523940088585,
        -0.04188530987070416,
        0.0040274968618338,
        0.012051136249955182,
        0.04920303509486639,
        0.4614840923156282,
        0.02059777892453365,
        0.0649020102110245,
        -0.041534350856189804,
        -0.028859544822089793,
        -0.02640982456430787,
        -0.00029951811371026953,
        0.46840973093299,
        0.05394506070487684,
        0.26185276293368653,
        0.010874000784985861,
        -0.02293398111057297,
        -0.029962817553708648,
        0.03277512620092123,
        0.3088591031387757,
        0.05367452669000074,
        0.17120017698365111,
        0.019986605834706787,
        0.02168106608194402,
        -0.0057325068439527255,
        -0.027098765038152933,
        0.15611192296295795,
        0.03846956251585655,
        1.1059484611692407,
        1.2886932006635752,
        0.75106424423662,
        0.3084823853067049,
        0.7419018269569265,
        1.3992542473789995,
        -0.03237936168940575,
        -0.3173732141264474,
        0.9873937776895091,
        0.7737324072992098,
        0.17885135627226906,
        0.9611487263912757,
        0.7992758197706851,
        0.020919807245253875,
        0.3753051932304516,
        0.7805040275514873,
        0.6805133558428227,
        0.02483616958761683,
        0.870748768572809,
        0.7292461493504251,
        -0.026462191152513477,
        0.4887190357182616,
        0.5004665515110633,
        0.38369479726646044,
        0.046967237212550056,
        0.3689805335808173,
        0.33943460004330567,
        -0.05171918774623908,
        -0.2808880003289184,
        0.2809631396785508,
        0.22063527819200007,
        0.10274076973381709,
        0.3559148192466298,
        0.19459808239720552,
        -0.013930326680071175,
        0.3481122002092697,
        1.2843845801473575,
        0.916407609996305,
        0.44353381489856175,
        1.7106215384079948,
        1.4719521746002668,
        -0.011674337009696618,
        1.0424145353948906,
        0.8786186647285756,
        0.6789686258544549,
        0.005614209795838303,
        1.1953177234415744,
        1.2822439991792762,
        -0.053150944931712636,
        -0.22151910395817268,
        0.43138253933100174,
        0.2519331075895627,
        -0.018277372480646818,
        0.7082772867196624,
        0.4975086949537052,
        -0.03454371948843989,
        -0.2947213636395965,
        0.19778935293243566,
        0.07902409647678182,
        -0.035743417139808845,
        0.11537196397291163,
        0.18234268581762922,
        0.04386031526301336,
        0.0056092390412683475,
        0.06745447006679088,
        -0.02273532241215182,
        -0.002726906480709087,
        0.0946291782323374,
        0.05191666564617396,
        -0.049858654122912564,
        -0.13246073117503096,
        0.5159548911486546,
        0.4387014041438548,
        0.009056778283201885,
        0.8788786649879473,
        0.19081704072645522,
        -0.038399414020348556,
        -0.014261262934975441,
        0.0950312916391725,
        0.14359798016055297,
        -0.04157072410266254,
        0.11658402467666919,
        0.05283655257415332,
        -0.05358562606123272,
        -0.0873365271919162,
        0.037180092778388546,
        -0.011043148599080756,
        -0.018839006983021538,
        0.017474497134899587,
        0.06393891761916944,
        -0.029962788856767827,
        -0.026540111798379923,
        0.049417492634419004,
        -0.03617359706335079,
        -0.04797502148344449,
        0.014941717224291775,
        0.016473298612867858,
        -0.009953075425819736,
        0.03374009258244182,
        -0.01532668896642193,
        -0.00267480903608076,
        -0.004885342059293463,
        -0.036066204460981945,
        0.043496042240199484,
        -0.027345043424097926,
        0.08594784368659941,
        0.5280120906799927,
        0.4393224476193931,
        0.04892104572289369,
        0.9344262076438499,
        0.5583843492246959,
        0.009263071832550417,
        0.02266129477644921,
        0.10543641297496352,
        0.10219858145153135,
        -0.008078452451743273,
        0.08548739491045564,
        0.10186294223267015,
        -0.04095410399614812,
        -0.06662738085212848,
        -0.03389457062552564,
        -0.041602963057086106,
        -0.002382330996600324,
        0.048138229750173483,
        0.034351347486459495,
        -0.03335301718874041,
        -0.048592650510300615,
        -0.038062270210676444,
        0.01753045498792727,
        -0.00537009853514025,
        0.02305413066620866,
        -0.023606216776859295,
        -0.006346756882922357,
        -0.004885768660330688,
        0.02709782081916563,
        -0.0030882668375320685,
        -0.01680278047483273,
        -0.03168076443307028,
        0.01834387526739432,
        0.04695145398304043,
        1.0579914961824146,
        0.7246040579140591,
        0.5649032766583991,
        0.005881218273713092,
        2.7457528444610264,
        0.0011505823862648717,
        -0.05101139882612338,
        1.3412381631221237,
        0.8913053772087773,
        0.7900011482545175,
        -0.030259326603866883,
        2.729576418587755,
        0.02574217785224123,
        -0.018456839651797192,
        0.254212625998832,
        1.1628646641982319,
        1.06448969943476,
        0.029548050178990818,
        2.4713841443332236,
        0.016187903870974192,
        0.05281430716535546,
        1.3406059199910496,
        1.1165137680311037,
        1.0471604544248656,
        0.04190413765783724,
        1.4204853460852753,
        -0.029994280133284007,
        0.019059912310006005,
        0.4139169965482458,
        0.5723172766518415,
        0.4778085388015975,
        -0.01952071950880978,
        1.1581646934809295,
        0.022536711152748596,
        0.017214552550089038,
        0.2892108103543232,
        -0.04626308557907029,
        0.014326495917919492,
        0.008776166635686788,
        2.675423901473889,
        0.0017031756349514514,
        0.024344061560150912,
        0.16183624758853732,
        0.023974287936556916,
        0.052054757362382235,
        -0.03272554194503675,
        2.594070220454721,
        -0.05158503460752338,
        -0.0022788742494542604,
        -0.3929650947087131,
        0.053484174654677974,
        0.020551438174275568,
        -0.010904357166846127,
        2.331289047956483,
        -0.0255493323515535,
        -0.03614212093912223,
        -0.5357709798027379,
        0.035226803758933396,
        0.05100913696883803,
        0.02444650673533035,
        2.14789367741376,
        -0.046170307161959974,
        0.004728894302495956,
        -0.3946786947936785,
        -0.007595383424940716,
        -0.051059606655085146,
        -0.02369853651438136,
        1.3885737406045313,
        -0.03844424438904435,
        0.0278272543936044,
        -0.2937748981070676,
        0.6612634350506869,
        0.45417368738580083,
        0.04300603531098684,
        0.032019632115675,
        0.019319116805033593,
        0.0016049388356837555,
        0.5407903368625853,
        0.5728574135678529,
        0.4288695868904164,
        0.03919996744247912,
        -0.03766392338313598,
        -0.03628824109358364,
        0.034174834906576836,
        0.40410575634269513,
        0.4291644259887964,
        0.2835031050918594,
        -0.02917298801312609,
        0.0035007451983193514,
        -0.034059269000576084,
        -0.0016012681504746576,
        -0.33823613054926915,
        0.28325590424957015,
        0.22004889778500458,
        0.04573196798151137,
        0.034204971872649315,
        0.009180971348553455,
        -0.02130334618128093,
        -0.0004667837819583466,
        0.055328508334018575,
        0.04840780943124183,
        0.012211774526441399,
        0.042307712402108295,
        -0.002516222572585788,
        -0.05056040853137704,
        -0.8421891378762094,
        0.9605694300192179,
        0.7886695552709619,
        -0.015724439137087837,
        -0.026183407523894378,
        -0.03690798319992474,
        0.03331760242984778,
        -0.14153615036772085,
        0.7182888081124831,
        0.5272238225180478,
        -0.0046054366771184335,
        0.009751891674768434,
        -0.006267071631016807,
        -0.0034790369350812755,
        0.5002206151297098,
        0.7617346442844268,
        0.6639398955552057,
        -0.017070572454620302,
        0.006854102544292059,
        -0.048331202048113975,
        0.017844270678496525,
        1.1014741071905192,
        0.49552398154610255,
        0.23725913536221255,
        0.01132624734291526,
        -0.012485445566017765,
        0.01875913532363922,
        -0.033367818292680415,
        -0.9584172564632811,
        0.4085905803257687,
        0.2674227759303091,
        0.04917554241783325,
        0.029225409709590547,
        -0.015306566238061562,
        0.04744643117235748,
        -0.012508423232295675,
        4.096306125871691,
        7.788234203664627,
        0.0041636156453263426,
        -0.0013408641951167517,
        0.7505096463207938,
        -0.006085901071271887,
        -0.03594192720489869,
        0.05137280522228444,
        0.047816179875736727,
        -0.030335195444756043,
        1.142533358073741,
        0.024088511978215325,
        -0.02503868835185626,
        -0.01832962168373379,
        0.004301089972822518,
        0.04320872659533574,
        -0.020751847364737057,
        4.506094066885476,
        4.524646826319825,
        -0.10168590387976785,
        -0.03202732015901008,
        -0.0357733874490459,
        0.04990968040102423,
        0.04699067677636417,
        0.010843880584889993,
        0.01703422948973645,
        -0.03588641774086772,
        0.02668056472043706,
        -0.010792668422701242,
        -0.04743602048043442,
        -0.026677902089717067,
        -0.02019393637881072,
        0.02105870717371128,
        0.039584108061255695,
        0.014116052950463778,
        0.04403622387418549,
        -0.03741825938993122,
        0.04746930024197446,
        -0.019896163490540634,
        -0.0033276179619143977,
        0.023656113611176983,
        0.007566388030292247,
        0.047063598924805855,
        -0.02304475833474631,
        0.012623690245536882,
        -0.017053645971524842,
        0.010409056828918031,
        -0.0046295332528480775,
        0.013552736221191106,
        0.004481128982279982,
        0.03080606773698934,
        -0.040040786031179804,
        -0.05308349736533807,
        0.029187102183143722,
        0.009653809655953657,
        0.040113700891529526,
        -0.022100374604880603,
        -0.04572077587347235,
        0.04075926508880335,
        -0.035539799591795644,
        0.016737589282811053,
        -0.044976513901024494,
        -0.04693155657192703,
        -0.028750731372357823,
        -0.011366496899119368,
        7.607104972103446,
        -0.018120265145772748,
        0.004758652540117628,
        -0.05265022765217543,
        1.7663127262640934,
        2.7275106078800855,
        0.8778438348491591,
        2.515900352766564,
        0.907437199471258,
        7.330704546220976,
        7.489383420889207,
        7.387877345040152,
        7.4799968510916415,
        2.1368662036252037,
        2.5305813412355835,
        5.554905535665611,
        0.29349885976012247,
        0.45923104534358594,
        1.6672544466825863,
        0.3338536435561791,
        1.0932011948325637,
        0.2930490676303336,
        4.151077318978403,
        5.188696184605189,
        2.3320509559869746,
        1.4259775476737533,
        0.40456734589041576,
        0.3879898785582018,
        0.05063972509117217,
        5.4769161384700755,
        1.9835163214227325,
        1.3247385549670476,
        0.000005675373098400509,
        0.05072284402067432,
        -0.040531822202422324,
        -0.021393073302179676,
        0.007507763038261944,
        0.0534445225118772,
        0.04685041377436822,
        2.2387950096242597,
        -0.0028180982046170917,
        0.039773152814345944,
        -0.013034807091584303,
        -1.9037269046590133,
        1.1988203138512972,
        0.9595958897738818,
        -0.02089974558508536,
        0.04766479072957495,
        0.18619640768760048,
        0.04899018271203856,
        -2.246358498690796,
        1.2398401655780444,
        0.9628693339078336,
        0.05312415266253393,
        -0.03440072953502897,
        0.14120160371496546,
        -0.017376429663447712,
        1.8113376108748775,
        1.6368181951406382,
        1.8498672463810124,
        -0.048942797811103264,
        0.0015639324489088932,
        0.15718808212469587,
        0.13335965069400801,
        2.406091358362977,
        1.361112910405156,
        1.6385770815496157,
        -0.05032639040762957,
        -0.009730773377324909,
        0.1996899055720645,
        0.08989646268222781,
        -1.2830508996058096,
        0.12930199858518107,
        0.169710088168005,
        0.043601711152944304,
        0.028437919922875757,
        -0.015683281767871773,
        0.0056035518821746155,
        0.3129137780284767,
        0.010321131126574219,
        0.01857664305988454,
        -0.04294081259719039,
        0.030578819323611485,
        0.47190828470564244,
        0.03199904108187165,
        -0.36159786744746053,
        0.0015985786107093666,
        0.012030717208278967,
        0.0344057298443261,
        0.04869336400563323,
        0.48322591008050797,
        -0.03353515933166706,
        0.03604709005317235,
        -0.047929510486007194,
        -0.052069897380205434,
        -0.02608911249449476,
        -0.0027518476598063775,
        0.4766895707174656,
        0.08844484334709692,
        0.217881203011782,
        0.03413243142870067,
        -0.02214709796816658,
        0.021873029517636602,
        0.026459176318208107,
        0.3359412056225956,
        -0.039581459977731465,
        0.250030162814524,
        -0.030749677307563762,
        0.051699562535498525,
        -0.010688687614409841,
        -0.009972231213557866,
        0.1537811475247065,
        -0.04243115793499588,
        1.137313429751438,
        1.210070011027345,
        0.7599980882479643,
        0.31383438113305306,
        0.7173398967473433,
        1.380199546298621,
        -0.0007684453736257322,
        -0.3846862471758523,
        0.9092294416185408,
        0.7595752565826167,
        0.09067547796324496,
        0.9203029630750503,
        0.8476722508688295,
        0.05060330089266436,
        0.33887545846580924,
        0.7867862062224684,
        0.6391384234401687,
        0.057554396200158786,
        0.8059368071937423,
        0.7407656184864185,
        -0.0258365539931741,
        0.5364911998321611,
        0.5543140509135484,
        0.4508890581820252,
        0.07947013700281699,
        0.43919113349177386,
        0.360856187155311,
        -0.00916018827663242,
        -0.3027202027908821,
        0.2994403738320379,
        0.20192316941790112,
        0.0826033634851694,
        0.3930086464778823,
        0.22838550426662815,
        0.02973660089982264,
        0.3371312925228758,
        1.3007614981502715,
        0.8796708192000922,
        0.3912014285660438,
        1.7299881202340235,
        1.473124449234411,
        -0.00228356955200256,
        1.0729192517437331,
        0.8163684632770409,
        0.5970456177013392,
        0.014798025851170798,
        1.2916179843574644,
        1.2313164618623376,
        -0.0358253759637473,
        -0.25625349135327435,
        0.43921957598525524,
        0.2497785644828203,
        0.05234744672371132,
        0.7214565045401071,
        0.46454779565832044,
        0.046153323912508336,
        -0.2377207703666409,
        0.210335900070261,
        0.16289084218260738,
        -0.021871792976038203,
        0.12728221811348697,
        0.1446178095220144,
        0.04716436005179293,
        -0.04585280959514435,
        0.07950509526196411,
        0.004199620362518374,
        0.0033280807119266563,
        0.07455575008012803,
        -0.01417607647936692,
        0.03217581274905087,
        -0.10521791311523056,
        0.43446140881317796,
        0.49752784503576863,
        -0.013021908240057471,
        0.8240791200915566,
        0.2876618953290245,
        -0.049331854463035174,
        0.029993188987195964,
        0.13221919641197385,
        0.1335285763586117,
        -0.03678679023533527,
        0.1430285954474087,
        0.10924886209352085,
        -0.007917663650512465,
        -0.06419187567286501,
        -0.03266491710392528,
        0.05430962912440787,
        0.0037487828631777853,
        0.019978497346869774,
        0.01616904926831742,
        -0.033646071558155737,
        0.024701361839474235,
        0.00024125270164468288,
        0.028418298811559134,
        -0.04385744728564965,
        -0.04683633319610868,
        0.011126868301324552,
        -0.04226728819909611,
        0.027583350798875726,
        -0.03406828524556755,
        0.01620665250817303,
        0.005487876470929124,
        -0.034272756631707604,
        0.007774144137913139,
        -0.009958266033511142,
        0.16055406790741034,
        0.5741947811838576,
        0.51918575955951,
        -0.018922105729312952,
        1.0405946723661794,
        0.5652033159645699,
        0.042258276431807976,
        0.025762902853158045,
        0.049224810748692296,
        0.07554843933084476,
        -0.01999622463170293,
        0.13586049605981398,
        0.12885411374623307,
        -0.02091884339664609,
        -0.06275142715406837,
        -0.03967827987489141,
        -0.01643546754263385,
        -0.016892255969247948,
        -0.004559712719323047,
        0.04947746005458891,
        -0.02354120402592451,
        0.02428214006307755,
        -0.02738864309689143,
        0.05033047700473884,
        -0.04453199602205972,
        -0.011008943103397216,
        0.03791990914852011,
        -0.04672509370798194,
        -0.05254819949987507,
        -0.04808344889005258,
        -0.028893208458398677,
        -0.02212111466990131,
        -0.005828222968273782,
        0.01098565396820567,
        0.028912353958459404,
        1.131245082718869,
        0.6665700931253382,
        0.5629468080652626,
        0.04613794039181094,
        2.7583809276884983,
        -0.004794428555259414,
        0.02086249944909117,
        1.315145386330091,
        0.8382260917374852,
        0.7408180675622603,
        -0.041808701743064815,
        2.7755195117700957,
        0.007648360762745817,
        0.014255105997304921,
        0.22648223568435702,
        1.1747025391768702,
        1.102543244359051,
        0.020670214432143577,
        2.4652219705717053,
        0.048832826905089444,
        -0.021379862887399858,
        1.3782902773895167,
        1.1118620188767614,
        1.1429267519544701,
        -0.02106471802447417,
        1.4861279680578796,
        0.023823197008120463,
        0.04562313634861675,
        0.4732732411386273,
        0.6061222237281513,
        0.41298766228586564,
        -0.045988726589177506,
        1.1386073484617754,
        0.02588292657925112,
        -0.011893590543263385,
        0.2678689917648096,
        -0.013511345385358982,
        -0.020957337945556043,
        0.047630521227018656,
        2.7650103169297995,
        -0.004404937061129622,
        -0.03449277122663611,
        0.26228453713748134,
        0.04273910297129832,
        -0.025264402053751862,
        -0.05231270413685239,
        2.6002943930238227,
        -0.026540094857873234,
        -0.012584075146833901,
        -0.3229711368556131,
        -0.051355099162233867,
        -0.02747876653836632,
        -0.05178015088178889,
        2.3112055417404065,
        -0.029098117960875906,
        -0.021163884768491962,
        -0.4590384525676013,
        -0.03516774600039119,
        -0.018839534616757223,
        -0.023340068282953996,
        2.2396228903770297,
        -0.0004899225453758753,
        0.028785655308914384,
        -0.44667293087117055,
        0.002214207863768694,
        0.011723307880312641,
        0.04981163379560818,
        1.3903567068726144,
        -0.020747473434966923,
        -0.02013599144278071,
        -0.240740950407728,
        0.7538001456056987,
        0.47173552950269015,
        0.02162585236079145,
        -0.021566697695518222,
        -0.027114344301398675,
        0.032403319065263336,
        0.5275433544699585,
        0.6406057186349892,
        0.42946755436773687,
        -0.021464543001927235,
        0.02965049433513818,
        0.0017866737043214596,
        0.010622388593842715,
        0.3096899872679926,
        0.4641627473468169,
        0.24422300948490328,
        0.04832454184763158,
        -0.001729734695930005,
        -0.040428784871882534,
        0.0411838390646191,
        -0.4016632736856604,
        0.2258494824660075,
        0.2549715618141786,
        0.04761014139651434,
        0.040165848798917374,
        -0.001866286430303834,
        0.038771870365866316,
        0.02391273635310603,
        0.1255876416113546,
        0.06598170525523951,
        0.030440542979230996,
        -0.0030677852960068752,
        0.049043165029255716,
        0.00933081277702561,
        -0.9224452609539191,
        1.021869484456632,
        0.7483862841945772,
        0.012567027215933602,
        0.011418547374436757,
        0.017259023890936198,
        -0.03741259912276489,
        -0.1415295959972247,
        0.687601157461448,
        0.5744119114488405,
        -0.012100641385589847,
        0.04396498233082512,
        0.04968964589326228,
        0.03302414261286957,
        0.5283943349064871,
        0.6980853839084205,
        0.6514498701852173,
        -0.05305510303291136,
        0.028028454199328777,
        -0.05279376202847559,
        -0.05128207108796203,
        1.1332541025046647,
        0.47063772708435414,
        0.3148133212439701,
        0.005250637887503436,
        0.025392716724060314,
        -0.013411751732103438,
        0.041686200381017995,
        -1.045687476061515,
        0.40281952992082176,
        0.2878833705133538,
        -0.03055312956969803,
        -0.04178060797277949,
        0.04602694299332963,
        0.006619669645785648,
        -0.03613789333284363,
        4.159413491790682,
        7.7410995808290695,
        -0.02529807191768158,
        -0.03715211481700199,
        0.7206478336737333,
        0.006218276674281456,
        0.013626908514065028,
        -0.009346534042088914,
        -0.02025575620332212,
        0.02735090745415664,
        1.1282948326368052,
        0.015105697412765974,
        -0.0192751237922804,
        0.04833318571748436,
        -0.012453763191058863,
        -0.05155800457265376,
        -0.01618041790300723,
        4.527441383864413,
        4.6030111703515955,
        -0.07365491633474888,
        -0.04226468255107834,
        0.0018104414065080849,
        0.016912156537534587,
        0.006859206867534831,
        -0.022463445003932173,
        0.0325267837804665,
        -0.003799592611518271,
        -0.049715757948370055,
        0.012693129951823572,
        -0.007653471704490369,
        -0.04002617892918309,
        -0.006386017952857776,
        0.04698295595050308,
        -0.021259950765251587,
        0.02390945561257004,
        -0.01634734016942098,
        -0.009798403654071034,
        -0.04127048236649362,
        0.02346805714636801,
        -0.04629572793758104,
        0.044558545131937834,
        0.019495208214406257,
        -0.038114410619364346,
        0.03161101744118681,
        0.007444707879612692,
        0.004167791776202032,
        -0.013535121669776284,
        -0.021250585085399343,
        -0.0066491888188551455,
        0.0013916547555569254,
        -0.04944822829463289,
        0.016536466099251173,
        -0.03805140882996674,
        0.04065934584960174,
        0.000709939694303732,
        -0.041293234341937796,
        0.0423199242958773,
        -0.050674969607197785,
        0.005156327566410576,
        -0.040616299304989015,
        0.03137906528094686,
        0.021118985621606485,
        0.040069860730390844,
        -0.006862953030171553,
        -0.03233811499626443,
        7.711542237976893,
        0.016459977271772976,
        0.035256197470262665,
        -0.02403490144891103,
        1.8490122505501299,
        2.7277314702919875,
        0.9135617859932533,
        2.5688601323435662,
        0.9642885176232621,
        7.456588032570305,
        7.63030557264621,
        7.5127737042904075,
        7.579569334429562,
        2.1856844954780867,
        2.5441813784095544,
        5.6171480744171545,
        0.26888384922229647,
        0.5117459700271193,
        1.807564295606246,
        0.33456496041701483,
        1.0976282239739925,
        0.30817833163689695,
        4.257843107225755,
        5.187925952908355,
        2.392728273710328,
        1.525845644967391,
        0.42986816697748775,
        0.41323288731948765,
        0.08734747207570975,
        5.505164668442963,
        2.102750684194846,
        1.378215074759416,
        0.047749636704618244,
        0.03611222105921467,
        -0.018446090215613935,
        0.0033804813027147975,
        0.013822531514707546,
        0.02012188743249382,
        -0.011640907202561545,
        2.3141344231135585,
        0.0004390002243683927,
        -0.033629038786229616,
        -0.006884251650889185,
        -1.88776752707119,
        1.2192610027079174,
        0.9316589018022969,
        -0.03580441140559058,
        -0.023605700574633993,
        0.23426754478634182,
        0.036741977731197084,
        -2.226775197817345,
        1.2148106046277076,
        1.02361200634548,
        0.04487941749946627,
        0.03257259323769213,
        0.129501372019172,
        -0.025259344729356953,
        1.8317119565991373,
        1.605863134293111,
        1.8171743106441813,
        0.035203884168840606,
        0.04264378959990492,
        0.21380622724978554,
        0.16747601973903808,
        2.36893208401567,
        1.3749053286870216,
        1.687308955999983,
        -0.004854209471423376,
        -0.022780145554301728,
        0.15378408392439644,
        0.11898762590651268,
        -1.3276343496259777,
        0.1787078875688283,
        0.13577372526818213,
        0.03585116758882802,
        0.0034611142698230462,
        -0.014261095659864212,
        0.03167117073804317,
        0.32779332020305824,
        0.014343514620891716,
        0.009964684635037444,
        0.002614647121034657,
        0.03132658167392829,
        0.4877248842173901,
        0.004382851568177449,
        -0.3310400428897693,
        -0.022771061213445656,
        -0.015756360122008112,
        0.020313082084808268,
        -0.04650439711345315,
        0.55953701796629,
        -0.045774283514778115,
        0.03203000416700904,
        -0.0029605782036774063,
        0.02393233843626543,
        -0.021673632632371157,
        0.03695691004543411,
        0.5751899890670922,
        -0.001141387848084754,
        0.2308906601984927,
        -0.008386309791999697,
        -0.01834046063007364,
        0.028132266607161036,
        -0.014034639497024711,
        0.39250188041482886,
        0.0608577240121088,
        0.15104530273805675,
        -0.053676185474087,
        0.03499338824045965,
        -0.01711825199368852,
        0.010727220991821896,
        0.18283452936610106,
        0.01713505402430177,
        1.0455646908704457,
        1.293992873011845,
        0.7870024489765812,
        0.4002820368971496,
        0.7845934292061703,
        1.4018288355376671,
        0.004723565466884141,
        -0.3885858408282738,
        0.952494506910574,
        0.7450764895724566,
        0.18541254876825294,
        1.057275626355825,
        0.8496668625842144,
        0.018766145381046317,
        0.3286477440930455,
        0.8708349232276857,
        0.6224814589246105,
        0.05336075072446339,
        0.81196972024841,
        0.6953740515185918,
        0.021768793719809918,
        0.5962874152197649,
        0.5566548445338273,
        0.39476650589132006,
        0.10176644191944255,
        0.5449137375580841,
        0.3957570789852574,
        0.011912365239463577,
        -0.33331793480919814,
        0.34721016267480637,
        0.2525435197544377,
        0.09063722577025363,
        0.42153986750620087,
        0.22460423786969877,
        0.024978950394746163,
        0.31661199140753815,
        1.2698998773421801,
        0.8720399265099923,
        0.3810758612276801,
        1.7720095821595494,
        1.4680583873489501,
        0.047738403272127305,
        1.0957553804513038,
        0.8441936535413206,
        0.6476748870277255,
        0.01815771293245005,
        1.2874141710027727,
        1.2660449594395091,
        0.05286976359481158,
        -0.2889789314866097,
        0.37279923428945905,
        0.24261189291238688,
        0.05824856382966492,
        0.7669272995871296,
        0.504530709913376,
        -0.004750037879642707,
        -0.22286977441408728,
        0.24116193936705657,
        0.15079677885037288,
        0.02606035974564043,
        0.11934639252739898,
        0.14297551260421168,
        0.043213304382877175,
        -0.047687327510236084,
        0.07756569831836393,
        0.050474358226186185,
        -0.02213818220003853,
        0.07452408620168582,
        0.05604083888207054,
        -0.019065338708686114,
        -0.08822513448308282,
        0.43076507194794156,
        0.4520059890624123,
        0.0005637253097102212,
        0.9110415019107487,
        0.22511208843358974,
