{
  "layers": [
    {
      "w": [
        0.061004903684188136,
        0.04304306945273635,
        0.03763901362572014,
        0.029637003290783975,
        0.0066797043420592376,
        0.017970139878395144,
        -0.014912909353910951,
        0.03623052856889713,
        -0.001968394003164484,
        0.03539894576732843,
        -0.04888557624792743,
        -0.025596821761897905,
        0.02942451854039707,
        0.02816639118148632,
        -0.038107338060840865,
        0.02922700572174824,
        -0.04661763595462735,
        -0.008735735396017108,
        0.025059975001763265,
        0.017881949357027596,
        0.025340821079302866,
        0.057495544576769045,
        0.0017644919868001505,
        0.0506142098682813,
        0.05528235564432357,
        -0.050174523238605113,
        -0.03592040923841431,
        -0.04735895473994005,
        -0.0637184324699843,
        -0.038085502013120505,
        0.02427256966826268,
        0.024638529341930403,
        -0.06087653546682734,
        -0.03627228149717426,
        0.04153838731275197,
        -0.015880607125885283,
        0.01880495301867604,
        -0.051215645434658966,
        0.046495075713081584,
        0.05296712370833907,
        -0.010518982728992961,
        0.014206412498673448,
        0.011360195555995017,
        0.023735005868776086,
        -0.018947270719627693,
        0.03734058921462525,
        -0.06361240853133898,
        0.0181730077615572,
        -0.04274906040997346,
        0.005259677387732764,
        0.01445458325704764,
        -0.06580316804091803,
        -0.06265067068170106,
        -0.03292119663833457,
        -0.0563815867259395,
        -0.047710768395538936,
        -0.034837075958848863,
        0.05690056770317538,
        -0.002541174151334897,
        0.01757182204000158,
        -0.009296424030354036,
        -0.005439000446834634,
        0.0600880025438581,
        0.02016432927416433,
        -0.06353752205214033,
        -0.0389177660721485,
        0.046830721805140564,
        0.0036706439677584397,
        0.04810526848121416,
        0.0019178574956322137,
        0.017755012468237366,
        -0.016098012732217514,
        0.01980721024224583,
        -0.04093477363824608,
        -0.032706964221180385,
        0.04475921120052078,
        0.018642635153426172,
        -0.052397588994985374,
        -0.019039213289814835,
        0.029513240101666918,
        -0.03856086490638634,
        0.01977495278738953,
        0.035977053457336344,
        0.03906922787837942,
        0.04673430054300512,
        0.029241616129965786,
        -0.004276717630554413,
        -0.05637299364513066,
        0.00732076943836391,
        -0.03343508827173117,
        0.04692265670825676,
        -0.06279654502113514,
        -0.04974575950688086,
        -0.05409029388373808,
        -0.04997408911645322,
        0.009007998392787351,
        0.01967833354199285,
        -0.024326745207718884,
        -0.01880613713643659,
        0.04812576906539736,
        -0.047088271772814834,
        0.035183640268372875,
        -0.012999694621217292,
        0.04210070734892966,
        0.014156741187472273,
        0.02050692105937243,
        -0.010893440130718881,
        0.05727040962695164,
        -0.04261758882671395,
        0.04063516763423931,
        0.050751719587253864,
        0.030760551073419014,
        -0.025721163450696524,
        0.04910006392730255,
        -0.055335124542697046,
        -0.058676960050618045,
        0.016031614760316764,
        0.04627500593906225,
        -0.02310814353475427,
        -0.004046232531536605,
        -0.023481191796370152,
        0.0024503776374347214,
        0.026739387607171504,
        -0.024266970283804278,
        0.06514007701003893,
        0.06352208329241248,
        0.05831908362763227,
        0.02303733352453012,
        0.05020823959905673,
        0.00917321688258452,
        0.04417125696488721,
        -0.0034897502240016512,
        0.036496021441376716,
        0.03116518777042145,
        -0.05693802221109,
        -0.023677604701999245,
        -0.025704237297608762,
        -0.046075653871144276,
        -0.04739652889718739,
        0.03149136153032617,
        -0.06098647164661756,
        0.025776082965233506,
        -0.01893017582702384,
        -0.016061074336336908,
        0.004260402537914632,
        0.05293895040227809,
        -0.03824819015284768,
        -0.06008357838429644,
        -0.03961710691704606,
        0.047906081183555584,
        0.06253967156757737,
        0.06494857951533085,
        -0.03164012429884775,
        0.001052921759544848,
        0.06344892647425192,
        0.05628173453544906,
        -0.01277393564322419,
        -0.013290262134895139,
        0.008237906285562613,
        0.0369196186000363,
        -0.04492061331150916,
        0.01182637272133316,
        -0.047244300678999596,
        -0.04187933386072,
        0.02216133562399101,
        -0.017036369556898343,
        -0.006576194000326476,
        -0.0071820904336544365,
        0.050490528037941726,
        -0.03939420026850241,
        -0.06380872657954643,
        0.042499022297630126,
        -0.0383714213277083,
        -0.02821372943075747,
        -0.030768663479986108,
        -0.02859851767132474,
        0.04750868773799157,
        -0.005972900406065413,
        -0.019350398493116205,
        -0.002682890507198975,
        0.025090863810646798,
        -0.04355364096732849,
        -0.055548510958702946,
        0.04368799356439533,
        0.03348739711694403,
        -0.038940018399445546,
        0.05697116355214802,
        0.06575441307029047,
        0.059471639764882636,
        0.04508617399758037,
        0.03939446657768925,
        0.06472001451070396,
        0.0357508067854745,
        0.0013307201238084685,
        -0.05381543272566245,
        -0.05788560381472178,
        0.04577916785893755,
        -0.03779032543363811,
        -0.0321431447945964,
        -0.0010332359971159351,
        -0.015125876052763432,
        -0.0034733478945917734,
        -0.05025273484487087,
        -0.06429178247932281,
        -0.01898451747541404,
        0.017775748406562247,
        -0.023126949141479686,
        0.016813660708861398,
        -0.012606490418709775,
        0.04597117389260166,
        0.0003935898984813797,
        0.044340236268674865,
        -0.05606377286154503,
        -0.03967923118887212,
        -0.06012693649935938,
        -0.03331139007407217,
        0.04179788627984038,
        0.02057809258199652,
        -0.041870619503929944,
        -0.06116023544005746,
        -0.05649875499686574,
        -0.05569152132109991,
        -0.013168615532553659,
        0.048869998334432646,
        0.006453200498034917,
        0.037667794726079964,
        -0.023103702235824256,
        0.0323662439979541,
        0.054805793331954435,
        0.04364975690398546,
        0.04432755319605741,
        -0.028794203878594528,
        0.03320770488375082,
        0.0008612283496014378,
        -0.017357119239349232,
        -0.06272793151722034,
        -0.03252620977912221,
        0.06394447525018802,
        -0.024996140657984365,
        -0.0047507094794899465,
        0.04567707271110983,
        -0.03909716853074855,
        0.03847818241846387,
        -0.013435044795469744,
        0.05083118501506246,
        0.0009826163311824011,
        0.021386312677356415,
        0.05266421345127739,
        -0.06340984809239635,
        -0.05556573892367556,
        0.054664503599005404,
        0.002163377785475644,
        -0.00907136451115129,
        -0.0262705675937986,
        -0.00914191040259909,
        0.05645406024903912,
        -0.007331108378235596,
        0.05108316702745612,
        -0.06489868298970676,
        -0.017831707656507198,
        0.0014464508384011534,
        -0.06235813787971374,
        -0.021341211837399652,
        0.015506141965420236,
        0.05393148804307823,
        -0.055828971747494974,
        -0.015761284683836453,
        -0.04279491714974086,
        -0.022973371377670557,
        0.03213661145482138,
        -0.057995519888971114,
        -0.034952209324054496,
        -0.02116403207314681,
        -0.03793405206619123,
        0.05727471220705123,
        0.02302620891743704,
        0.031079078670197487,
        0.046872379194772745,
        -0.06530289665330107,
        -0.027701397087244974,
        0.015337055713111591,
        0.002086592614444242,
        -0.031299765768798775,
        0.041675620661203894,
        -0.03070004049031531,
        -0.007045338803448025,
        -0.023098382313078442,
        -0.0602142971333378,
        -0.02047358397030541,
        0.05016732415838479,
        -0.01557140208672162,
        -0.010514867902374284,
        0.009729000870918708,
        0.050819243087703136,
        0.045927888534910415,
        -0.051981534438354716,
        0.01546383728032627,
        0.058744174559758694,
        0.0036478245157841004,
        0.047994244484880676,
        0.015265843561620506,
        0.015024834973137783,
        0.02007444102915847,
        -0.06527247730025287,
        0.054716369599657054,
        0.05087960197784209,
        -0.02907491543616756,
        0.051336342045824504,
        -0.028967614263748942,
        -0.0575798791665426,
        -0.017401295339422796,
        0.06362700593299758,
        -0.009824362719182682,
        0.047567569478231264,
        -0.01538239029453037,
        0.05987431415159235,
        0.040144743661316894,
        -0.03782906813797408,
        -0.0029689138131047724,
        0.015504770035650133,
        -0.0639572053733049,
        -0.04338569519021764,
        0.043043991785119876,
        -0.038632461843352006,
        -0.0232658530831019,
        -0.041357987175553085,
        -0.005027758154957807,
        -0.03180870660909662,
        0.0039121258304677265,
        -0.02552645387526247,
        -0.04001461487255883,
        0.05533447301320531,
        -0.050109017312224946,
        -0.006171704514138887,
        -0.05335856517506786,
        0.06276802427462175,
        -0.02882048027605929,
        0.05860948579670344,
        0.029071464815699638,
        -0.008026311888146525,
        -0.05138002678324141,
        0.0119690909526783,
        -0.041183495472520516,
        -0.03289792394452301,
        0.06538858083857449,
        0.04068973707050603,
        0.00014116469817569707,
        0.03453348318871438,
        -0.001832289735563414,
        -0.010304133385584177,
        -0.026389157241901766,
        -0.0531540338107499,
        -0.003418419969516435,
        0.019721623999674788,
        -0.0006074496670076639,
        0.013489223449085964,
        -0.010724824508073473,
        -0.026094160779220357,
        0.015498657568012414,
        0.05502346688255014,
        -0.05769951480825854,
        0.013849751846918607,
        0.04682559830881746,
        -0.04932919345825611,
        0.06124391918801312,
        -0.047468478608214223,
        0.05805212398154499,
        0.021117727583200706,
        -0.02947976092333931,
        0.007502553504700724,
        0.01587808091859599,
        -0.041480073424268835,
        -0.0030998831481438144,
        -0.04801037986935797,
        -0.05328404074172162,
        0.028063104625317657,
        -0.006627061134869589,
        0.06086340501844812,
        0.03777635069858193,
        -0.051250719073800015,
        -0.03427097853464079,
        0.03711344566199535,
        -0.03212798438842604,
        0.051937633280660575,
        -0.044625573175918795,
        0.03333085469067382,
        -0.05289200896946953,
        0.015568922524883086,
        0.03384378413231402,
        0.046495000379490406,
        -0.052575164075249384,
        0.046301782191910924,
        -0.03751821076795062,
        0.014088603469363576,
        0.04052896909852776,
        -0.04234573283452695,
        -0.0646764736270908,
        -0.003594939906135495,
        0.047923659650064905,
        0.021444071284868544,
        0.05207430964371499,
        0.060068881660271176,
        -0.03934102906849,
        -0.02548409697685234,
        -0.028402833453673365,
        -0.05847447413861375,
        0.011984104298746322,
        -0.05710673142534638,
        0.059878582599234,
        0.05437508111449626,
        0.064777961750262,
        -0.055274131786786196,
        -0.05185430481595183,
        0.04113415872602192,
        -0.04068843942763544,
        -0.05939476192442585,
        -0.027648602795355658,
        0.04027709725153503,
        -0.04290489345679555,
        0.058757501818012786,
        0.028105940324063827,
        0.016073554107827005,
        0.021117237489640298,
        -0.04786595238534236,
        0.032125247882402175,
        -0.041320170505239846,
        -0.016865452267430952,
        0.016831721983628478,
        -0.01332971371968754,
        0.006696777770461593,
        -0.015083590675817462,
        -0.053759914592024026,
        0.02264587210632533,
        0.031019965970000986,
        0.04017880053148032,
        0.017408790131320413,
        0.011233146332683994,
        0.03708320506962707,
        0.047280419142112985,
        -0.01528109450789949,
        -0.03598598032094043,
        0.0593574451500605,
        -0.019544111139176194,
        -0.05424334878250314,
        -0.022933207049506705,
        -0.05154946335110803,
        -0.017374989476410776,
        0.05078035807971269,
        0.033803836138003,
        0.04703435945972286,
        0.011555299236572095,
        0.019544646735022635,
        -0.05425920623398474,
        0.011957158226787445,
        0.0027156659469472783,
        0.013509763539728643,
        -0.02800811098184421,
        0.03963361574831746,
        -0.0015054312583475376,
        0.057507314629490484,
        0.06555596216083351,
        -0.05208366803462937,
        0.03371865295895078,
        0.020309725820168757,
        -0.02834589056932607,
        -0.0587156082742756,
        0.032595115228345795,
        0.05076298059048567,
        0.006335026699532916,
        -0.03787332499857472,
        -0.015209918595733252,
        0.036779846204773974,
        0.02519875520440588,
        0.063611956452686,
        0.06260939819496965,
        -0.06275459378936266,
        0.009881801775641115,
        0.04233557959159555,
        -0.013604353087038789,
        -0.004942755664133153,
        0.033039753138689176,
        -0.03177718274622473,
        -0.048512652789537015,
        -0.053685985143511306,
        -0.03010683457349438,
        0.06506580680805882,
        -0.061546347851829844,
        -0.019139581389588604,
        0.02777201715009736,
        0.06357598057231023,
        0.027070373958642834,
        -0.04553362529520225,
        0.02290441738984083,
        0.01851813709226806,
        -0.04609158713679152,
        -0.014953451158101242,
        0.010844480640462577,
        -0.0401213454532213,
        -0.022357516931463553,
        -0.05030798373583101,
        0.025004502452834233,
        0.029166432450929043,
        0.043135294144412036,
        0.049456280071265256,
        -0.021486667341181646,
        0.04627549693437922,
        -0.03635395407002122,
        0.036797888733643584,
        -0.02088114299334933,
        -0.006148557117679697,
        -0.020386579882862375,
        0.05701902711912142,
        -0.004568180344197568,
        0.06295368596549798,
        -0.057539938721156744,
        0.04671330073187147,
        -0.03283525356702069,
        0.021043402628252158,
        -0.02658502409213327,
        -0.018251548113430414,
        0.008995297282088989,
        -0.042316463578837275,
        -0.040266122342504825,
        0.05960765973578555,
        0.0011035032973806616,
        -0.03735104796701546,
        0.04474577324846742,
        0.011326900757590545,
        -0.05375090327888812,
        -0.035615702499945556,
        0.004166935126462249,
        -0.06420472663393241,
        -0.0583152966207292,
        0.04779273815663512,
        -0.008125858472113341,
        -0.03228249284710476,
        0.029758963012468075,
        -0.00874064928089886,
        0.02067325662247791,
        0.037363196169422776,
        0.013300465847375674,
        0.012600735178511275,
        -0.053301674539969035,
        -0.05240520033613046,
        -0.050385742873567355,
        -0.025091048402191878,
        0.029885157881963564,
        -0.04691602952903727,
        0.03247150034402032,
        0.011965941639059324,
        -0.03138311307188904,
        -0.04604687083303798,
        -0.0012952078744011405,
        -0.061298981940851004,
        0.04563984574251857,
        0.004161099418256231,
        -0.03934540766984257,
        -0.04918932531274431,
        -0.055644625830091284,
        -0.05819713171079121,
        -0.02483326290749135,
        -0.021486374934305292,
        -0.038203611719142785,
        0.03153708953890507,
        0.05914883478411074,
        -0.038877557799146326,
        -0.022281269697465623,
        0.023430636006502803,
        -0.0009822978131608167,
        0.06530258442037142,
        -0.059024735137430125,
        0.006629046115644716,
        -0.026448206995318066,
        0.0029999850081951595,
        -0.01397465431765761,
        0.0639480369723504,
        -0.03722339677340125,
        0.02313351848100851,
        -0.034425910839816026,
        -0.020338293906309205,
        0.04747123384191939,
        -0.00988058424402302,
        0.027156445227517038,
        -0.04598887227486778,
        -0.014612756535498823,
        0.009866758439884698,
        -0.04426987576696234,
        0.00862664271975445,
        -0.026931456413155804,
        0.013633267532352097,
        0.01619391506116003,
        0.033632096191663546,
        -0.02220373891714416,
        -0.020793601619039342,
        0.05516718887907544,
        -0.022936358152602965,
        0.047067042532870515,
        -0.013103385850472252,
        0.0024033822946309363,
        -0.005690729064508468,
        0.03400383576267134,
        -0.03715411492713284,
        0.04465311192929829,
        0.03480890053229515,
        -0.007300129197817706,
        0.01831391461845507,
        -0.034420627598481746,
        -0.003169893017857531,
        -0.0396445175451052,
        -0.026070228153227175,
        0.043542130636363446,
        0.014497678744635718,
        0.03181788123832549,
        0.025073585529075813,
        -0.03568696302053085,
        -0.035813283986067285,
        0.0641911248269838,
        0.02352112332046285,
        -0.030371409825108643,
        0.056505208701241226,
        -0.03514383978802685,
        -0.005831377333313099,
        -0.0643832667979847,
        0.05295452159013548,
        0.00647964771892478,
        -0.03291578842131553,
        0.03914062444532661,
        0.053425501259775965,
        -0.02280175963589746,
        -0.016956813939337113,
        0.03946382485710654,
        0.030402034277419724,
        0.035675680685619916,
        -0.005784875624163711,
        0.02571510539439564,
        0.010767387351533573,
        -0.05996660221687896,
        -0.05907715907916955,
        -0.04762003802469809,
        -0.023021391949248633,
        -0.0044201385861977905,
        -0.05543687926722698,
        0.0015330646906748047,
        0.0033437823449254923,
        0.03873487981746187,
        -0.024468563998317636,
        -0.023628190242742198,
        0.05489434253670265,
        -0.0007151315910177464,
        0.015600089612613052,
        0.05747431495623879,
        -0.016044703342871957,
        0.057138034758916594,
        0.024524396068541544,
        0.03102047042400963,
        -0.030088400101230775,
        0.037923903664057027,
        -0.009431153798872823,
        0.05552583759323975,
        0.05350182217682138,
        -0.05225482062783095,
        0.05398778420282043,
        0.044843846974470546,
        0.030558232395742613,
        -0.02286644520368885,
        -0.02417656490639279,
        0.01185883499703969,
        -0.015301983220881311,
        0.007266107167310639,
        0.03470572605520507,
        -0.05997510084586164,
        0.05584677980777042,
        0.008066067830286234,
        -0.0416233683452837,
        0.057275904367239644,
        -0.04128616883645989,
        -0.021652597373586133,
        -0.03457699997200663,
        0.06543986834931192,
        0.022214321196911278,
        0.017608275682481953,
        0.055773529828133155,
        0.032186550683683375,
        0.0009522544410765072,
        0.02672808097620162,
        0.03488552045178215,
        0.0053434434218771355,
        0.05708210455590624,
        0.03419712635738289,
        -0.013366000274859312,
        -0.04431454658632081,
        -0.051677757971795024,
        -0.063347587950235,
        -0.0593945548696697,
        -0.04504593565511926,
        0.051179167298721996,
        -0.03660656104498192,
        0.06367434942607053,
        0.010174363994589885,
        0.02935888061601817,
        0.04849639796598431,
        -0.004168533389662512,
        -0.03343728428777946,
        -0.02018517348112857,
        0.008838123470452904,
        -0.05796042409278115,
        0.021517374671399844,
        0.043070282955845085,
        -0.03633247507214851,
        0.05573150511799675,
        0.023797385230440775,
        0.02611857894284414,
        0.04625810219154008,
        -0.011969045801207783,
        0.04933538183649364,
        0.04095247409381169,
        -0.006415796718998108,
        -0.04027475464116613,
        -0.03259515656447345,
        -0.04232384460776677,
        0.027347855637353032,
        0.005184025010760834,
        0.013927125330573855,
        0.03353246768277774,
        -0.018527978877590542,
        0.004353734359141284,
        0.018755341281937354,
        0.020893218075457423,
        0.00320968830883053,
        0.06103794294002694,
        -0.0020841631058994997,
        0.052658506530778776,
        -0.034846735759034894,
        -0.00494462077234154,
        -0.02406353294315994,
        -0.061143369064838665,
        -0.004949636095445483,
        -0.05635483924561765,
        -0.03398620236586715,
        -0.022364769447965328,
        -0.04556647390474978,
        0.04598191476054396,
        -0.023548692919799295,
        -0.01751589164575963,
        -0.015309655000925921,
        0.031726243967838366,
        -0.06263393353861733,
        0.03911627949775226,
        0.03467008953085259,
        0.04890643860554254,
        0.02339303679489749,
        0.058873894908781504,
        0.059585835173680976,
        0.06426791026956494,
        0.039226188648417086,
        0.03469666961063462,
        -0.014761043895727131,
        0.015116242489160903,
        -0.025798833237780226,
        0.022144331588743835,
        0.03812387162035751,
        0.039981801941257306,
        0.002613817455577525,
        -0.010997057542703394,
        0.05855187985298272,
        0.05880060851818011,
        0.06408940189311696,
        -0.04084985025015719,
        0.0063409117609154065,
        0.05251067723366368,
        -0.03899465075739438,
        -0.023369108815601725,
        0.009658840840346359,
        -0.003425224430691977,
        -0.01579038628263837,
        0.03512475814576762,
        0.0361970210938869,
        0.008510238015506159,
        -0.06214675029737117,
        -0.008348364764036352,
        -0.06164674529307654,
        0.05657609258047208,
        -0.03006631425490772,
        0.014161329635154206,
        -0.03400899813335127,
        -0.007889125481766283,
        -0.06297256785667524,
        -0.021679255998793792,
        0.0155255037005528,
        -0.05593950692027562,
        -0.0040936510472667905,
        -0.0477420842442711,
        -0.06251633875620455,
        -0.01354094255942847,
        -0.024064838421731946,
        0.024208829953399402,
        -0.041250260779040676,
        -0.013782385063645111,
        0.0354568576702535,
        0.018136064368241004,
        -0.04254339278186099,
        -0.053324551664266084,
        0.03638126509656807,
        0.05795727018672262,
        0.05474650454377478,
        0.0060461874213763415,
        -0.049366404194116066,
        0.06451878294998,
        -0.012333951721778643,
        -0.05650072720493524,
        -0.004321270337474675,
        -0.04588510710242344,
        0.03282950363847293,
        0.012075037135570933,
        -0.05982144972716422,
        0.006560908932944664,
        -0.001681696910534299,
        -0.06076216863824554,
        -0.009110666441076703,
        -0.04920016835319788,
        -0.05443219191282323,
        -0.0022303775411633073,
        0.013346684182657628,
        -0.05325400278202519,
        0.03763877133477178,
        0.06469428668117366,
        -0.04624462678185533,
        0.056497567057011824,
        -0.028399474618873904,
        -0.034708929209063454,
        -0.005606836959088007,
        0.015394135146952532,
        -0.015479313411506457,
        -0.033718013846885435,
        -0.05207195443628167,
        0.036867048412896175,
        0.023143678404383507,
        0.05739230295400287,
        -0.04812186717834911,
        0.026333710029904867,
        -0.03370884351582239,
        0.06138740634045057,
        -0.041537881475630506,
        0.0659962026623202,
        -0.05204915853480173,
        0.025563569835296802,
        -0.0329271947884327,
        0.03337397834888242,
        -0.04104488403868718,
        0.011198527987649871,
        0.06301273375406984,
        0.03059044039379886,
        0.012594400826376332,
        -0.015130543965056914,
        0.06181736747465482,
        -0.06549425019158724,
        -0.028978771414877497,
        0.014227017633799294,
        0.05024181307184775,
        0.03831221035377251,
        -0.05724157840393942,
        0.06249629779454808,
        -0.016962061485226387,
        -0.03831582340627646,
        -0.0636978815681474,
        -0.009327449004714784,
        0.030246875084497197,
        0.04872451458637863,
        -0.029031158707414618,
        0.054054666464695096,
        0.008386181712144959,
        -0.02688556231663369,
        0.0549435710492316,
        0.007954473952773279,
        0.048863973846916604,
        0.027501473084848987,
        0.001866884195400641,
        0.057740663239476755,
        0.019912195163601886,
        -0.019557834490380423,
        0.012855041468694185,
        -0.022092962244508605,
        -0.045435736883571665,
        0.06027127006485126,
        -0.06187959870124963,
        0.04926792806958117,
        0.01241215633133295,
        0.028366812069778636,
        0.009525335139920219,
        0.023038135957192205,
        -0.011283376877604601,
        -0.00313408718521115,
        0.036814802203338506,
        -0.0435471377524299,
        0.06041445667465002,
        0.05289062297872443,
        -0.045631858806793206,
        0.05561759172303173,
        -0.02923873862463157,
        0.059778505979654326,
        0.009517414368408035,
        0.04372757211226351,
        -0.035172256743063006,
        0.0473890001675859,
        0.04901670269401917,
        -0.0618102374180482,
        -0.05005487007092623,
        -0.03105980977889989,
        -0.012592552533980212,
        -0.021491101024659783,
        -0.047245952994855636,
        -0.04869493859018092,
        0.06114030386131191,
        0.007292587015231155,
        -0.047986671361948466,
        -0.006633052796690817,
        -0.0063299913337274425,
        0.01161732204761015,
        -0.01072259799859951,
        -0.06081236848728718,
        0.021336944347501836,
        0.03752105749802694,
        0.03979478143182577,
        -0.01441326496635623,
        0.06323426914603389,
        -0.06473168250436545,
        -0.03327292349386731,
        -0.026658440450219954,
        -0.04359166006024782,
        0.057381207175140884,
        0.013370226414338436,
        0.0031175323254721324,
        0.019652464794360485,
        0.0612324467414744,
        0.013449145652331511,
        -0.05794975541083195,
        -0.020759201002540514,
        0.004436978754234759,
        -0.06551714031040927,
        0.04975801368093326,
        -0.011825394036296859,
        -0.04497561835713534,
        -0.034000588750421064,
        0.04751411136225358,
        0.012116161117013273,
        0.02797098565038194,
        0.05708560479097677,
        -0.013442085754851904,
        0.04670677199828023,
        -0.038168455905485295,
        0.008560507147335684,
        0.0401809084686801,
        -0.009411937406032182,
        0.04906487649306216,
        -0.04801079760086302,
        -0.03602671370108878,
        0.043981307074265834,
        0.0028578359117346,
        0.03412209825223152,
        0.04905645837584817,
        0.04702732161440031,
        0.03783675399705713,
        -0.03573482528915103,
        -0.0461617782518547,
        -0.045205689624267215,
        0.06231158770643569,
        -0.0021231091062559808,
        -0.042400024372721494,
        0.057363266518735405,
        -0.04755035438063489,
        0.025663513129055588,
        0.038959138231961336,
        -0.00024392243555877567,
        -0.030418548680018743,
        0.016069587645117123,
        -0.05835855748718405,
        0.0589280089872116,
        -0.049688902577517076,
        0.0017558919819676475,
        -0.04511894974541361,
        0.05289029045557838,
        -0.01729434456735269,
        0.009377307104544654,
        -0.03407435984097985,
        0.05640250074713581,
        0.019557451495239013,
        -0.008639537091717952,
        -0.0362997503619373,
        0.041244879428013026,
        0.041551453308765585,
        -0.026747088330686276,
        0.022367691127820347,
        -0.016666495890014947,
        -0.009214263113930601,
        -0.02282605913386367,
        -0.027297174701056064,
        0.017006823306278344,
        0.05509792439962248,
        0.049444749239563275,
        -0.05339185296641057,
        -0.016610875491358975,
        -0.011996864804327354,
        -0.027521096809636287,
        -0.03353983418266043,
        -0.045002267908962015,
        0.024787663537935878,
        0.04595199914317773,
        0.0633328221641344,
        -0.05760991324973206,
        0.02260198772956427,
        0.060232483365039474,
        -0.0094267789703564,
        0.0541438710440493,
        -0.007522497892931766,
        0.004187071521941636,
        -0.03945029980560696,
        -0.021079347645005884,
        -0.057009871584838855,
        -0.055704873502697524,
        -0.03725152179101382,
        -0.017417553810989334,
        0.015501579704067285,
        -0.05333279266318897,
        0.011303140046605108,
        0.0005390729966441323,
        -0.014208106355955215,
        0.03239674236540795,
        0.013483589590210475,
        -0.05242875775119834,
        -0.051208330427031996,
        -0.05426444767103723,
        0.010305812212559844,
        0.022721490634638623,
        -0.05053377702852303,
        -0.010019705772917139,
        -0.014627486151689467,
        -0.020457118087917107,
        0.05663856716680055,
        0.06195062600170576,
        -0.006621965422314267,
        0.05895186598068318,
        -0.00002146666541076343,
        -0.029782139137930166,
        -0.005802878820982397,
        0.05549931480027707,
        0.014778069809684546,
        -0.05794156213791701,
        0.00993873544150844,
        -0.040690506031384674,
        0.056085679933900776,
        -0.029636965849339766,
        0.026629964236602337,
        0.056926972874372435,
        0.04224689076623286,
        0.03466182551185633,
        0.01438354079249703,
        0.02297513870288729,
        -0.05611334350295021,
        -0.025881977732373725,
        -0.02425706394199475,
        0.014704085538460775,
        0.04842445457346252,
        -0.059398775533082156,
        0.011065565768736851,
        -0.049934295654914536,
        -0.027336993991681522,
        0.01666168732882167,
        0.028747570465326017,
        -0.029002526724208014,
        0.0018561272064528819,
        -0.02411365814458229,
        -0.008642445898827197,
        -0.0394567303477526,
        -0.03522752149290712,
        -0.05101200769044627,
        -0.007875997997924992,
        0.01557434886313559,
        -0.06487341034050532,
        -0.0016046932692984405,
        -0.01974303122826753,
        0.03197492891323136,
        -0.05413953713060545,
        -0.041049163387461916,
        -0.01070195341129978,
        0.006308637721033902,
        -0.061935433214213104,
        0.03559326006606662,
        0.02567748373106996,
        -0.04965516942811259,
        -0.04897830510472796,
        0.048858262703363,
        0.02636897190045312,
        0.002233956825146237,
        -0.06205989221341978,
        -0.023328834658567048,
        0.0426105952779334,
        0.011245663214024346,
        0.03331549112908475,
        -0.044334998484723415,
        -0.0012665257968797667,
        0.007156086719042209,
        0.051752748193445115,
        0.012778442074567959,
        -0.039228679823428536,
        0.008006048859868956,
        -0.025769937670758754,
        -0.05905723835025675,
        0.012649114446877156,
        0.007408366569027146,
        -0.05909477586135636,
        -0.06188177485621969,
        0.04320819257333513,
        -0.04167864792936203,
        0.0005312134445159425,
        0.014346336688537327,
        0.017519927323912055,
        -0.007546599679498775,
        0.054414412073932675,
        0.0016271650240213635,
        0.03524282377008316,
        -0.04247129044525913,
        0.04184270423803279,
        -0.04578430070077589,
        0.04138991188994532,
        0.03369022463109578,
        0.02600290164012672,
        -0.06160066420790471,
        -0.009902345688949604,
        -0.043415505987809,
        -0.04893187703562481,
        -0.043529398841812526,
        0.04262048654141534,
        -0.015875864835552565,
        -0.04090625896146201,
        0.05764420939254888,
        0.04780047818670587,
        -0.012695246223162461,
        0.04677310626964333,
        -0.02988101237976534,
        0.007022752604896314,
        0.05516195730462391,
        -0.0064561234466557265,
        0.0013034373549224334,
        -0.03893187108674219,
        0.0022236625864699177,
        0.018601821019047345,
        -0.007551642355557538,
        -0.01396168900906356,
        -0.03226929889025177,
        -0.005438029089951597,
        0.06323732516603194,
        -0.00299600548222815,
        -0.04439127285506232,
        0.04170958029580682,
        -0.003717901964919927,
        -0.03879898868300815,
        -0.0436396249299528,
        -0.010080793936755292,
        0.040914339649028575,
        -0.020689041914559024,
        -0.0549871309267795,
        -0.014766642763277113,
        0.026002711296759445,
        -0.05405892190076252,
        0.038175700191535135,
        -0.00026758760197797605,
        0.038270811178762104,
        -0.014122730598270733,
        -0.036244711403988876,
        0.013932302630785657,
        -0.008001154103063483,
        -0.022833160154478532,
        -0.035040701919696125,
        -0.029101741811159668,
        0.05159607106294854,
        -0.05857875131472042,
        -0.04272094375686684,
        0.05717398530911242,
        0.06333820176334463,
        0.016523303242787436,
        0.006431854671651016,
        -0.027144748778855827,
        -0.023505013119650104,
        0.022562756729229298,
        -0.027708495704246373,
        -0.0015789729367684836,
        0.016536273831715607,
        -0.02608060284167728,
        0.02567653767728939,
        -0.04275791650820205,
        0.034910947227023294,
        -0.038636564356795515,
        0.04943906583761162,
        -0.005872242970650469,
        -0.023288762673785386,
        -0.059791396941396194,
        0.023396635017608726,
        -0.006083046504826682,
        0.03541361425608317,
        -0.018988928271797663,
        0.06599297796827039,
        0.030495670307363665,
        0.014754775069151684,
        -0.04694483879483344,
        -0.02673015926914799,
        0.024949004102910368,
        0.04828455880419961,
        0.0317444728074824,
        0.003676254657312638,
        0.02024133176774938,
        0.012760812050521096,
        0.021177843197990997,
        -0.049596041890537415,
        0.006020815387832648,
        -0.04409524913346857,
        0.0027929072401120855,
        -0.0627482299332428,
        0.044253785364655046,
        0.0036735675852664013,
        0.02225265799016054,
        -0.02879423739727563,
        0.025720912117537454,
        0.04505984893460034,
        -0.006237395845912733,
        -0.02790311959929114,
        -0.05478878457718792,
        -0.024885988593207085,
        -0.04397235335696569,
        0.03759727178125955,
        0.0012234312579180156,
        0.026765835445325542,
        -0.028431944593846376,
        0.017805076211140018,
        0.044987266363122946,
        -0.004448947520935404,
        0.020709549780813536,
        0.030434821203850722,
        -0.04621203354095712,
        0.03132166991149381,
        0.007955025712487011,
        0.030752121370937784,
        0.017376334161797652,
        -0.06114719424750765,
        0.035429409572023125,
        0.018785409717776206,
        -0.016297653463709007,
        -0.012907936577524818,
        -0.05457974287331511,
        -0.02941926872549506,
        -0.05011397966878409,
        -0.014047405531572774,
        0.05175148858190136,
        -0.03749698711439003,
        -0.014434630303351095,
        -0.011899238425176916,
        0.036805776606211114,
        0.06541647338752295,
        -0.0008593761933327205,
        0.019150276171500356,
        0.024253860903175738,
        -0.04276412347548131,
        -0.05270676728096778,
        -0.03443656296094068,
        -0.04626810946657131,
        -0.042613867557232885,
        0.003992038721142617,
        -0.008198820740510645,
        -0.028735082478558344,
        0.048536390181762375,
        0.01688685880953981,
        -0.044472550342518506,
        0.02739216069109238,
        0.008336419236775396,
        0.06309917516314582,
        -0.008444019339429695,
        0.06367637468886095,
        -0.006438232412653699,
        -0.010873144867717701,
        0.04123741468686494,
        0.05681112898693772,
        0.010789976325143192,
        -0.05961476034282022,
        0.048993027262796564,
        0.058967033049137835,
        -0.006295812013201139,
        0.017774514458499036,
        -0.01665639110064238,
        0.023091189254246913,
        0.04397644862182387,
        -0.06510881119560863,
        0.05725822171267645,
        -0.012644190505790333,
        -0.055180150283162636,
        0.025851963236486964,
        -0.017747910751135392,
        0.015274327933876777,
        -0.046934999594076925,
        -0.038250095775960676,
        0.04502038305826352,
        -0.007463916855944357,
        -0.03141048552081436,
        0.02731066644841936,
        -0.041446313115791056,
        0.04221964842752747,
        0.057513665757970504,
        0.06411521874479777,
        0.008968684576143221,
        -0.015902750627586823,
        -0.04026016437931431,
        0.047134247547863814,
        0.03566116280988359,
        0.002463361561297861,
        0.029795915364849285,
        -0.05141884959925179,
        -0.04112986105982281,
        0.02262855145451573,
        0.03786941847217353,
        0.006799945573232855,
        0.040579287657907165,
        0.0646413509526511,
        0.05376407806051607,
        0.05497869867694688,
        -0.04940163974816448,
        -0.03785545535952404,
        0.06510260755176846,
        0.04903027916739278,
        0.02383001851354828,
        -0.06237818176364525,
        -0.06446442484930422,
        0.02453386565503951,
        -0.044725966273383606,
        -0.008115663042859189,
        -0.007561000080961924,
        -0.00959318542124617,
        -0.01083714647561726,
        -0.03362208677415311,
        0.062284475144163104,
        0.010194463128415142,
        0.025338997888941235,
        -0.024601161207757998,
        0.0471600884553532,
        0.03098893027218435,
        0.003717702132095349,
        -0.0643010039524722,
        -0.06470176622992344,
        0.062437001577109734,
        -0.03523296380048645,
        -0.06512442180221394,
        0.03206241864550189,
        -0.02177125046843588,
        -0.022777289335514435,
        -0.06563062457245082,
        -0.0292664826899794,
        0.012460048104714348,
        0.05115450723093815,
        0.021394094157738817,
        -0.013388738779447424,
        -0.025013630867475958,
        0.010071612511080207,
        -0.0023472028808965277,
        0.0209308290194375,
        -0.05058700485878712,
        -0.007927719981292299,
        -0.008317155804415045,
        0.014485913613937536,
        -0.037597713749354576,
        0.021924726162655523,
        -0.02956405750599569,
        -0.06033225011059347,
        0.010683207393849113,
        0.026228304575037754,
        0.0002091160286776831,
        -0.05216355785498756,
        0.04202174822680828,
        0.05046731592516648,
        0.01734934576621929,
        0.029749173090722163,
        -0.04149547541499694,
        0.05516007160753359,
        -0.05236573314749,
        0.02269586192405875,
        0.03264230652460959,
        0.06420667529617648,
        -0.015143392909208407,
        0.0005706132747897171,
        -0.049859483205371986,
        0.03223575033806068,
        0.05210334360679774,
        0.06236974409350553,
        -0.04524094026255009,
        -0.023770087165066386,
        -0.042315531694746215,
        -0.03132343431197114,
        0.04838401314143917,
        0.02788995375026492,
        0.019283497103258926,
        0.06281507525900402,
        0.04608971160079057,
        -0.007232848308575353,
        0.017053570805810197,
        -0.021934433732863974,
        0.03697217860895623,
        -0.06060034193468155,
        0.01614346980473565,
        0.007295899608407389,
        0.023088206078658247,
        -0.0059355809882167005,
        -0.015694565979064774,
        -0.02367089481443065,
        -0.04739592888918806,
        -0.058342717737970125,
        0.03137539401722006,
        0.0006538923253229351,
        0.053892870822547484,
        0.02448965710127043,
        0.013382631292069028,
        0.0609899119354453,
        0.03558218244719176,
        0.011940175065415165,
        0.05618357578333678,
        0.04410537360926237,
        -0.0003252450266764881,
        -0.032869628052848925,
        0.06318393035782169,
        -0.011129038520419922,
        -0.0064980665148831876,
        0.019694739979134318,
        -0.057751369280470415,
        0.02390073352838511,
        -0.04273731777342404,
        0.06020800883942354,
        0.05082308216298196,
        0.06387726225570792,
        0.06124855263252003,
        -0.005590669816039999,
        -0.02681023461720597,
        0.0341646121123089,
        0.026151114416085957,
        0.03373602276768961,
        -0.002102536581822562,
        0.0003987098435078333,
        -0.020574554181760248,
        0.056815404097544715,
        0.048991104258401356,
        -0.0017058000994263972,
        0.03068507637545408,
        0.019091301901246208,
        0.03729249079813661,
        0.06512292509804314,
        -0.041551469935635174,
        0.04627808071512516,
        0.04297341855769008,
        -0.022877355625405296,
        -0.03914152362941542,
        0.047249765963920706,
        -0.056292670958714666,
        0.055426077285996585,
        0.016579038635910592,
        0.05716874389862753,
        -0.006724522628078625,
        0.038281774433820165,
        -0.03889329786649905,
        0.013893753618556562,
        -0.04112017190677085,
        0.017373431005710014,
        -0.04573592539740208,
        0.05756966482678993,
        -0.014397011341749663,
        -0.061029848604980765,
        0.023435217931625528,
        -0.008057515260395815,
        0.044829598946368295,
        -0.005717652105627785,
        0.03079771657036447,
        -0.019106984100747147,
        0.020170034416001445,
        0.0061488137106084535,
        -0.010098920937728116,
        -0.012902970970535173,
        -0.008186239720571786,
        -0.036620777009165946,
        -0.05343121830250688,
        -0.01941501439760315,
        -0.062455977943625625,
        -0.048210167358397636,
        -0.006011222282101375,
        0.04744774915740912,
        0.058597227474905096,
        -0.04364806704661321,
        0.04525570283691996,
        0.030434479558444718,
        0.04611191830343864,
        0.0015707176966552275,
        0.0634374739171763,
        -0.00030560050773639324,
        -0.0432906212720963,
        -0.03319330819257788,
        -0.0248748037784468,
        0.053942475642484514,
        0.04387897898836284,
        -0.013910958586452665,
        0.037308499415877494,
        0.014560587597753484,
        -0.04535539217469056,
        0.02597228224601253,
        0.0552061851486467,
        0.0469572486418713,
        0.060659964069812,
        0.004567968683136695,
        -0.04260055828689792,
        0.04342316303224534,
        0.049392204639970905,
        0.011127598917164402,
        -0.01236764241316742,
        0.02278862910332949,
        0.005588274941910918,
        -0.04372904247912403,
        0.004603276490198073,
        0.04721348141602758,
        -0.006459066117549165,
        -0.004440356501560008,
        0.04155224493120111,
        0.04140108689216658,
        -0.03329997753038222,
        0.05542407606696648,
        0.04747491749374894,
        0.0014813137903560674,
        -0.01706716451754945,
        0.0014089197257424755,
        -0.06399476011221585,
        -0.012444042931476136,
        0.04562448681383463,
        -0.06334014334891022,
        0.021210435568828328,
        -0.027015864147509863,
        0.043691647494023884,
        0.010953328786472406,
        0.0005959065052465939,
        -0.03219021581792134,
        0.02637418870647261,
        -0.018937595998442948,
        -0.005353951040361849,
        0.028128435549151,
        -0.03788852141959786,
        0.05788585504168166,
        -0.05313967534821027,
        0.017239382252133603,
        -0.02224347548182865,
        -0.030331184908931844,
        -0.036217853619156595,
        -0.06459357730684075,
        0.022939460882400668,
        -0.0512989166630309,
        0.0024075970937552822,
        0.06248203313353309,
        -0.03223260561913003,
        -0.059613031760230265,
        -0.0571117008756338,
        -0.02225712991613475,
        -0.06520276585710319,
        0.05191070356977185,
        -0.03267170815494816,
        -0.04871585584094383,
        -0.015593300243574105,
        -0.04166248550785982,
        0.042544378962531916,
        0.046648026272068877,
        0.012206473887356429,
        0.037831944006821105,
        -0.0522748545991934,
        -0.046471626301119076,
        0.006813513353407419,
        -0.013751036859556308,
        -0.05022851014580455,
        0.004582581491325805,
        0.022459040796394793,
        0.04011885966896575,
        0.02376207765775076,
        0.05379918440213655,
        -0.014891070363101947,
        -0.031188279560946875,
        -0.018978426161894844,
        -0.03483875147892702,
        -0.0016456983145789748,
        -0.040995761897569066,
        0.03745500981323462,
        -0.04960459703373541,
        0.05143584044573849,
        -0.014109184346780487,
        0.02043349929177462,
        -0.03133519801274737,
        -0.008434550577263234,
        0.013190471623076508,
        -0.012277399873683351,
        0.0037621399010435044,
        -0.01027006863030489,
        -0.035379093780791876,
        -0.01456255613489317,
        -0.05663944617603421,
        0.01531960505787045,
        -0.005515688186766491,
        0.062373528803976334,
        0.04995340042689537,
        0.05614867496166335,
        -0.059843824936980816,
        0.00009144739086563254,
        -0.06258310651784162,
        0.06509952779082305,
        -0.012888996227401332,
        -0.009077582425887645,
        -0.039065127486669224,
        0.0016039630912826573,
        -0.009943551175021818,
        0.05769781071607217,
        0.0428233003769574,
        -0.0007016634062253146,
        -0.03761736269454501,
        -0.06130427217242179,
        0.06563445049679928,
        -0.015991280205446063,
        -0.005732934832767588,
        0.015070390761825272,
        0.034219817067523514,
        -0.03133372074491392,
        -0.031080262589733367,
        -0.002429950228049127,
        -0.001071129796545666,
        -0.05628731195053881,
        -0.06485150105323317,
        -0.0016464859937877032,
        0.050254530890414845,
        0.06454583738827825,
        0.06257345197408554,
        -0.01724348755242512,
        -0.018434467468650607,
        0.03699579655118569,
        -0.005808854165121181,
        -0.031975504094123794,
        0.0595626723232757,
        -0.05690849458599389,
        0.014306689304298936,
        -0.03549476260262019,
        -0.021717192419842702,
        0.003493582485587934,
        0.006068602749555746,
        -0.05835888303429269,
        -0.060897126350830125,
        0.03929779872997281,
        -0.009586848439701071,
        0.030040296001281008,
        0.03366305771927043,
        -0.0035224010423693082,
        0.0460955601381363,
        0.04844505635421617,
        -0.02206913398513131,
        0.06326106582653766,
        0.03631317941838113,
        -0.029682922926204523,
        0.04500162287022208,
        -0.044625922160313844,
        -0.049444836296117047,
        -0.022310834638974993,
        0.03512481327582854,
        -0.02505630588446835,
        0.022635406843436925,
        0.06299023653161567,
        -0.0061234751091607115,
        0.0515625126375649,
        0.0437899395532267,
        0.042564775948011495,
        0.018489838528147215,
        -0.03542518706542592,
        0.061844980804565144,
        0.0425578840451111,
        -0.050103528138343234,
        0.060176810392148006,
        0.03539666812911188,
        -0.016273747565621596,
        0.03574888593514531,
        -0.049695151203338256,
        -0.04300806033914055,
        -0.05239524451570294,
        -0.06369133262754605,
        -0.05026927074924275,
        0.0649020858982614,
        0.05631699144569497,
        -0.031944032073612266,
        0.02740693938130075,
        0.013637438420103065,
        -0.00851436084826818,
        -0.033681989825353295,
        -0.023977137826335045,
        0.05724928244521432,
        -0.05191990572561116,
        -0.03968245999218176,
        -0.06230113697502396,
        0.057711000523840414,
        0.00932718288579063,
        -0.05647705282768898,
        0.062071120175577296,
        0.050386500469777974,
        -0.05518979711230595,
        0.05065068857620509,
        0.03410199678135193,
        -0.042710073598300854,
        -0.019112173730830014,
        0.057700380459481775,
        0.06476246764794479,
        -0.004848576167358858,
        -0.05144641532696258,
        -0.03205052606452304,
        0.06491985819277361,
        0.020093880883142456,
        0.026544101386557613,
        -0.039375899166552805,
        0.06433987086211074,
        -0.06229377497006565,
        -0.030249076671269692,
        0.03141122093159818,
        -0.01398079655454121,
        0.027441135868809873,
        -0.05276257630265989,
        0.024979107682447432,
        -0.02577839328459641,
        -0.03165602229614524,
        0.02802839467417926,
        0.006740376823468525,
        0.007286151424695865,
        -0.01918188148576213,
        0.0189180325673136,
        0.056128099666605494,
        -0.005702118012803425,
        0.016701403319965853,
        -0.0642614395472626,
        -0.05172633333567965,
        -0.06270102163532519,
        0.004238843410889266,
        0.003929142531100715,
        0.01352237318791971,
        0.04812073407354072,
        0.009581913311567223,
        0.04693839174682915,
        0.012262843504352005,
        -0.016227286753307344,
        0.025777802953979474,
        0.001562264050245813,
        -0.015690845025776202,
        0.014812936803717874,
        0.04159218008547958,
        0.037188299811323634,
        -0.03877039389036309,
        0.06595528170036423,
        -0.04611306432678215,
        0.012297976473812876,
        0.005219877318679999,
        0.01052944504754609,
        -0.04231678243169725,
        -0.03538535892543763,
        -0.06476814241267645,
        -0.04136513946627902,
        -0.013542033989312537,
        -0.05418571136858654,
        -0.025352303695839,
        0.044474533116159995,
        0.013419337890757966,
        0.04280380673775439,
        -0.00017648811172195678,
        0.06569584284570269,
        -0.05736041343322712,
        -0.03317836337478369,
        -0.06502998733517813,
        -0.03560836369779596,
        0.00018248624676617841,
        -0.046061939728354595,
        -0.04372984950070122,
        -0.05764607694274226,
        -0.054650952485662194,
        0.023560744944330015,
        0.05347525514075788,
        -0.04931506248222261,
        -0.03973748029593185,
        -0.022984248706856284,
        0.04554724273795548,
        0.012055067353057409,
        0.06083180317938848,
        -0.022973219731135853,
        -0.028397211193742927,
        -0.05969298659980832,
        0.00795238489946836,
        0.061878597773607845,
        -0.03946444710574538,
        -0.051858735312095644,
        0.06383715538777648,
        0.026341603988808145,
        0.03495655217461337,
        -0.008566120830706713,
        0.030917277163265155,
        0.01680105877786947,
        0.03007713450257022,
        0.020160332036237457,
        -0.00325794098605112,
        -0.05994922694016936,
        0.052325395989554595,
        0.04020773000306735,
        0.04823561793618492,
        -0.010390742075006102,
        0.03330858288716139,
        0.04241606780597483,
        0.023803073577080704,
        0.05493231972218416,
        0.02210719810495005,
        0.04646549641550175,
        -0.022529880567600608,
        -0.02747401558189382,
        -0.0542493714410865,
        0.03891056042655532,
        -0.06022382897516972,
        -0.03003374636403701,
        0.018288319111952347,
        0.01753983163092073,
        0.024565538359030744,
        0.02822893112446573,
        0.03294190084756261,
        -0.002676689725261634,
        0.00006139807955432077,
        -0.021179065192506917,
        -0.049463872916978464,
        -0.03912500860814546,
        0.022760184834634947,
        -0.040754725588153656,
        0.06590661890304289,
        -0.051127495927128855,
        0.05145896030252341,
        0.05107235489343419,
        0.05954084965754103,
        -0.025184236606068906,
        0.021544689784068326,
        0.047707150566561767,
        0.020886842590331217,
        0.003847088419873604,
        0.06386575626594279,
        -0.01630079096388069,
        0.028484082459256245,
        -0.033271619117013956,
        0.0207172746693216,
        0.032600316159646925,
        0.06409491246306258,
        0.05205871326926966,
        -0.0009635469391264113,
        0.016077250416052166,
        0.05205434327758056,
        -0.0519487316456632,
        0.03672727176059277,
        0.04793399393473043,
        0.021123581022219756,
        0.062478103846992435,
        -0.03349724615483261,
        0.06281200313605247,
        -0.02858850505155526,
        -0.05787645770584334,
        0.024046047870311976,
        0.06432371331160784,
        -0.02558407117227378,
        -0.02293379666746107,
        0.025200797683437633,
        0.03731856370210454,
        -0.00809502075750887,
        0.038058130728469,
        0.02955598297711122,
        -0.06271536983837844,
        0.005392541103173944,
        -0.020962382395170724,
        0.05956779139761247,
        -0.06280809654805557,
        -0.040873170603069046,
        -0.04073119415580419,
        0.0059831255067728534,
        -0.04424036892677906,
        0.025709831764000712,
        0.06295110769901112,
        0.024897322649300894,
        0.042757154842325645,
        -0.012361606694733046,
        -0.010209097536318433,
        -0.042396518683977105,
        -0.04680888332554974,
        -0.0035871163816874885,
        -0.005271876014508762,
        0.0020839814234038306,
        0.06010318483617601,
        -0.06306234514690817,
        -0.053378591096229416,
        -0.019678764732308392,
        -0.06485549147647031,
        0.030433364219853574,
        -0.05600912488066642,
        -0.0013275039669003665,
        0.032955417560673085,
        0.05924843879795059,
        -0.053250242250689896,
        0.032534535178518474,
        0.004684739748200743,
        -0.035650194631710264,
        0.00877005823345143,
        0.037536091363279935,
        0.04138775385688748,
        0.026986549891558662,
        -0.0014765345550277914,
        0.027002205289054896,
        -0.04034280118524947,
        -0.043036565580248265,
        0.03792631067375308,
        0.06407845857069606,
        0.018548325441932134,
        0.04399544250292869,
        0.04987328977060162,
        -0.04174306687753211,
        0.020670985987464308,
        0.022915253902250646,
        0.022209964104395335,
        -0.016257157174588432,
        -0.00678454093801819,
        -0.009533049614698322,
        0.06208524237680576,
        0.03636429367906757,
        -0.014847240602595235,
        0.008222948774539567,
        0.043512991920705985,
        -0.02687024066451649,
        -0.03388825348662521,
        0.028072735994402524,
        0.02262162405423453,
        0.037237375303392266,
        0.04353840084871152,
        0.026711922633382745,
        0.037657768532802796,
        -0.041256134266772125,
        0.057735668028503044,
        -0.03024991573376754,
        -0.03702572373950344,
        0.02316716273609008,
        0.00026104448899194756,
        -0.03886242388703721,
        -0.021136026556845745,
        -0.03957138321026767,
        0.06502763123324572,
        -0.0437775221415743,
        0.052091341057394595,
        -0.006825706126281184,
        0.013284532524128865,
        0.030990432382337892,
        -0.05656803602452608,
        0.025593335194702263,
        0.009472369394204191,
        0.02865837849951081,
        -0.05569982925594487,
        -0.027587023473744934,
        0.03198700987404569,
        0.02676240862869217,
        -0.030021717756466382,
        0.029437369668880824,
        0.03304091583612217,
        -0.037045377728579465,
        0.014100417498270089,
        -0.04015060339741222,
        -0.04153026517480038,
        -0.0642553537550091,
        0.004583545528560964,
        0.012084576023129665,
        0.02209846680137117,
        0.030140138557201296,
        -0.008538807505406337,
        0.04774163745887918,
        -0.040725498397733886,
        0.041132799448592584,
        -0.029970549146959253,
        0.04900334543342845,
        0.01969697095288216,
        0.011358090768623229,
        -0.049228715757426156,
        -0.02921882246179684,
        -0.01933209443821983,
        -0.03288571387764588,
        0.0006478572947584239,
        0.03651326551022878,
        0.0326121056304976,
        -0.017002807095555388,
        -0.016132581499434348,
        0.02423151923476668,
        0.05377108707762752,
        -0.031189132610809158,
        0.031017253576804737,
        0.014174094233565615,
        0.023405112257310037,
        -0.035239220818479654,
        -0.03649516421700242,
        -0.04918643079452875,
        -0.051060005950325775,
        -0.0012818655957760917,
        -0.05750866702784661,
        -0.041398920271748525,
        0.020209874111897824,
        0.04994774849415385,
        -0.06461905537677169,
        -0.05962818450470976,
        -0.054712962226996786,
        -0.03760693412499663,
        -0.045456595967655965,
        0.029704197728871184,
        -0.049543707407116,
        -0.0058923445651185525,
        -0.015630134094285483,
        0.012597637425028414,
        -0.015040901938554656,
        -0.053587701212383,
        -0.05432158038437403,
        0.062418573049701845,
        0.008177612978484152,
        0.01475810920657211,
        -0.03340812956323479,
        0.05440706763860138,
        -0.054372033047334546,
        -0.008987912067757071,
        0.06007102790136529,
        -0.005077381381959379,
        -0.011609332460010334,
        -0.02292068116649563,
        0.025541071551078674,
        0.010285144332702363,
        -0.015921232577815372,
        0.02957285723509673,
        -0.008958588729454185,
        -0.027778028162132144,
        -0.020059941059237953,
        0.06419662993710525,
        -0.050241561147418186,
        -0.03930882263689499,
        -0.04626049061229738,
        -0.006320235451817618,
        0.03297514809742525,
        -0.04167382373044742,
        -0.009474195594813849,
        0.04389186969895235,
        -0.042968875571099255,
        -0.023257920588834028,
        -0.03613840585631428,
        -0.01892495091405177,
        0.0297902083203346,
        0.029191561737507806,
        0.021567668760138815,
        -0.008720606290392672,
        0.01590603380227575,
        0.017522859052667865,
        0.0648797874678259,
        -0.05656334965214371,
        0.06517312663594163,
        0.039844138758296656,
        0.03549697680735883,
        -0.014023224163368908,
        0.0175240111395657,
        0.008616648772543716,
        -0.04079539083084306,
        -0.053005306960076805,
        -0.04365731828985056,
        -0.03158299015545008,
        -0.025424264427401408,
        -0.04715127663371117,
        -0.01709600624852425,
        -0.011922814673447182,
        -0.02751010372517866,
        0.052174098821533496,
        -0.05022048799824308,
        -0.0508483612434336,
        -0.017555425839884935,
        -0.033754344189038304,
        -0.02540458634406838,
        0.04330109610836652,
        0.044110926098286145,
        -0.005814197458477001,
        0.030330437485372966,
        0.046791254169834776,
        -0.063082850802276,
        -0.039753455144728674,
        0.02446531395336828,
        -0.06451852924844464,
        -0.06366232393155834,
        -0.04689306602329836,
        -0.022313676091072186,
        -0.06408403056515197,
        0.01240769212150085,
        0.02741557948221941,
        0.06099036887680762,
        0.0060136938032097735,
        0.010282387448838996,
        -0.06144196873079168,
        0.02319737387014069,
        0.011080980672433089,
        0.0434536619119309,
        0.027272872663886994,
        -0.06520924775163045,
        0.025234225666142328,
        -0.023920864407398903,
        0.04141470674027046,
        0.05204191609936451,
        0.0009451799088120354,
        -0.0009842508278031649,
        -0.056908489498220895,
        -0.039716263886671925,
        -0.0066779507299585365,
        -0.06460520249637766,
        0.061766948980292787,
        -0.034117178187791905,
        0.03678661898024307,
        0.006515095051920448,
        0.03904460112670233,
        -0.002457777629769819,
        -0.015065622761757075,
        0.05674295617125216,
        -0.06505273999175938,
        0.029712430118127478,
        -0.027487618332910465,
        -0.008215407257388474,
        -0.010071029294287801,
        0.05192479107287619,
        0.06260682257964638,
        0.053947645836433536,
        -0.022206020224324285,
        0.027301575121545872,
        -0.004431497583657598,
        -0.04278253589659931,
        -0.04244915814955367,
        0.009077764844471625,
        0.0212699749671607,
        -0.056214349946328776,
        0.021624472308052273,
        -0.059760862767654306,
        0.06474627556662411,
        0.01910187330372874,
        0.04985535531090976,
        -0.004985328694310757,
        -0.03765540411996391,
        0.046238896631693976,
        -0.013605792896210072,
        0.017085252554375936,
        -0.0018899062501914771,
        -0.035489544418684356,
        0.03495348383409671,
        0.02279606422722083,
        0.02996839936804833,
        0.06325444811162864,
        -0.055991103532770904,
        -0.012331246491560395,
        0.03847015746318537,
        0.030840234451915218,
        0.004816615483466046,
        -0.013218330625826197,
        -0.019163159896824305,
        0.022049724249686577,
        -0.054627203711306006,
        -0.0335363566652526,
        0.038799801655148264,
        0.03541098884087042,
        0.06442432881392618,
        -0.03255235789450654,
        0.0023848102913834562,
        0.010448310909931835,
        0.01517871747989447,
        -0.014174877796609114,
        -0.022564010464471068,
        0.013495662391915644,
        -0.033628173801054324,
        0.0339425764324515,
        -0.0471547765128324,
        -0.057541789702187346,
        -0.0012955450445525992,
        0.04274928181848733,
        0.0056334418575829,
        0.03303415876035044,
        0.004467036993257143,
        0.04192903963258091,
        0.06488445635982361,
        -0.01689570713503812,
        0.013469205126560763,
        0.007975326452251921,
        0.06369698361022323,
        0.06216813914222377,
        -0.035513114874088994,
        -0.01719289445265047,
        0.011658113944967186,
        -0.0620070907352841,
        -0.04558692790077605,
        0.05905569972229882,
        0.05975392489695731,
        0.014869414136984069,
        -0.05824938955810193,
        0.05641641758837017,
        -0.01028650245187475,
        -0.06438305795116411,
        0.012914406300841397,
        -0.017384237318631972,
        0.03323867386990881,
        0.010504707236355238,
        -0.02094310844728763,
        -0.054859635178687305,
        -0.015517517027850853,
        -0.06399371991271043,
        -0.04475891589451192,
        0.010779667403423194,
        0.0018514646178626865,
        -0.02595220388452147,
        -0.04092504249637813,
        -0.00474437598558638,
        0.028752791765822128,
        -0.011597182823774262,
        -0.05437353611729451,
        -0.0496581728363457,
        0.03218156705393315,
        -0.05222401043366064,
        0.029045265900679504,
        0.0004905464070681883,
        0.03016010752314343,
        0.003920506566848341,
        -0.06244756471560921,
        0.02284869892647781,
        0.03835204503150871,
        -0.008063029811832474,
        0.0013750484761868977,
        -0.009930964697452789,
        -0.059598771056440014,
        -0.046535946718808785,
        0.01566952122483858,
        -0.03314972764819875,
        0.014207737197503624,
        0.03319182830435293,
        -0.029004013300714847,
        -0.05618126039082685,
        0.05550201963755511,
        -0.006573898373587576,
        0.03329329473714821,
        0.01331129201226358,
        0.02745931216641801,
        -0.022877669745074384,
        0.05913589774457875,
        0.06385468804303694,
        -0.015021206728018459,
        0.002478464540392709,
        -0.005433476293574484,
        -0.06199613262109596,
        -0.04443922368596942,
        -0.014455731830263338,
        0.01348474041999039,
        0.005504216451355549,
        0.04865351189508521,
        0.05590981361412774,
        -0.06532926021445688,
        0.061255507301067776,
        -0.04233285740381986,
        -0.020982711064038352,
        0.049735917643322684,
        -0.03797299355234823,
        -0.019530617407092266,
        -0.02342299481018958,
        -0.016335456834696088,
        -0.01582268218200166,
        0.058474980461218296,
        0.017259818513549904,
        0.06562802829174444,
        -0.05580939166649494,
        -0.041699599051163834,
        -0.05148807959987815,
        -0.04364541178200854,
        0.05498616797645386,
        -0.04497911539700271,
        0.06316893937024973,
        -0.048405110009185806,
        -0.010225125695338271,
        -0.060518523507000745,
        0.061642616846441824,
        0.026322544411097316,
        -0.02407305658957924,
        -0.05303763412995888,
        -0.005048698952532263,
        -0.046197661477404714,
        -0.03312357923331202,
        -0.0627811744671698,
        0.011946832918807748,
        -0.0641707834924242,
        0.039932122366533616,
        0.04812357553851609,
        0.032067557596835564,
        -0.05422833932547549,
        0.05812777768087118,
        -0.03237659776906939,
        0.024957284803243794,
        -0.051051729141915476,
        0.06375582322295964,
        0.003729541426487633,
        -0.041863395632990415,
        -0.058619151493735075,
        -0.02308756394025556,
        0.045406851803428586,
        -0.06000763893049255,
        -0.007801795259222756,
        0.05935441089122601,
        0.06354450493326093,
        -0.06350510702636594,
        0.04411695255262487,
        0.027981627542152512,
        -0.017895355283892595,
        0.001644495797680665,
        -0.01401350214177131,
        0.03270765793455077,
        -0.0497329531211391,
        0.0401135484406046,
        -0.04590400294480762,
        -0.052468243705703486,
        0.0257925558918129,
        -0.0030866114908197776,
        -0.0009167797551302109,
        -0.047710480546622795,
        0.030290506169999485,
        0.02541784657607726,
        -0.0030073135637801196,
        0.005089034534370612,
        -0.001985271601829345,
        0.020884279753308657,
        -0.02611500545167734,
        -0.05364894313932183,
        -0.05685499868499621,
        -0.059902715803711634,
        -0.06544862204491463,
        -0.008024342856237146,
        0.03536620863443162,
        -0.05417792330131498,
        -0.011363306743541714,
        -0.06396590559530281,
        -0.04405051201932819,
        -0.02112103917972576,
        -0.022422514842516422,
        0.030022316464328447,
        0.016174372931628687,
        -0.020969972244523065,
        -0.015685388170520384,
        0.01598855405420655,
        0.040809829472317746,
        -0.05342698449461265,
        -0.0478989425918649,
        -0.008718294990897478,
        0.03280621709212698,
        -0.024712124609984627,
        0.04328858437794941,
        -0.016960782418088544,
        0.036545021574536186,
        0.04274090147683479,
        -0.0338349504269199,
        -0.06553897346052209,
        -0.05132252627062555,
        -0.025752966484826487,
        0.049829371175696316,
        -0.023735603182847086,
        0.0009707032900053292,
        0.05072375423011073,
        0.058011715549756204,
        -0.01526295531485698,
        0.05400166208604532,
        0.038442060404956034,
        -0.015120233607417748,
        -0.002259491126020563,
        -0.05289881551767,
        0.05570736369477355,
        -0.05704549944059136,
        0.04962481649565274,
        0.024370884032709955,
        -0.006479891484266274,
        -0.033795524567622685,
        -0.027788748566979465,
        -0.05326683208918333,
        -0.02627777827309096,
        -0.045851949202218,
        -0.012340010669146374,
        0.03332264415746362,
        0.012131587544254162,
        -0.056575838885828664,
        0.03214456820221583,
        0.04477861018342322,
        0.013065183860753218,
        -0.01609796744078727,
        0.004197714331257612,
        -0.06390935092853618,
        -0.04510259760623241,
        0.017843200552819394,
        0.037068880224523475,
        0.03149675769400364,
        -0.06360596429907055,
        -0.0523852823865152,
        -0.0379014556263444,
        -0.04435320714059846,
        -0.05996806516094214,
        -0.012673166516640499,
        0.03996865260187874,
        0.025881417432244782,
        0.012100702819890048,
        0.06562786125460175,
        -0.02902750583978075,
        -0.043145961018235084,
        0.010140664030800115,
        -0.055059928576928804,
        0.025773874052155192,
        -0.020476001463217756,
        0.06512557417335367,
        -0.04062969022590704,
        -0.02167814502478021,
        0.013947484333053524,
        -0.04445401849071028,
        -0.04026568397864082,
        -0.04782391704830437,
        0.04910135822887757,
        0.02069185706334481,
        -0.059300790427641935,
        0.006781820863548801,
        -0.012691318324622341,
        -0.024113616980242183,
        0.06313328231236319,
        -0.030848652189067096,
        -0.033379592813282954,
        -0.045831910883153935,
        -0.008246877478244726,
        0.004486325142512305,
        -0.012906384706393045,
        -0.04668342990672634,
        0.0383651378211899,
        -0.036925830043408873,
        -0.006787125729502762,
        0.022189224370468913,
        -0.024649926653077848,
        0.012666653872584048,
        0.003152657056013568,
        -0.04388119828228728,
        0.05778799359991973,
        -0.0007561422295671252,
        -0.035910347094985515,
        -0.0463071141972694,
        0.041680345641092006,
        0.042425500083373834,
        -0.004842673293142238,
        -0.0066931654844382665,
        -0.02255108421619632,
        -0.05995489735011847,
        0.0473338975969956,
        -0.0007284230681018589,
        -0.04306166314259189,
        0.05532925822775717,
        0.016496429513916864,
        -0.03469186387330028,
        0.04221730149060617,
        0.0067797778933987125,
        -0.006380885243694854,
        -0.05634586137805403,
        0.030086838859159897,
        0.030544645153784203,
        -0.009910461466881315,
        -0.02968487813639925,
        0.008613316417720339,
        -0.04708936557250183,
        0.025129103903393048,
        0.04428755200758416,
        0.037937919768035504,
        0.0003791025830895234,
        -0.05888466352412226,
        0.04532445334695522,
        0.014612803611859283,
        -0.03845234448142879,
        -0.04318614896020942,
        -0.006133174353787213,
        -0.036643504683566405,
        0.025417800560799807,
        -0.024008922102031854,
        0.03471472873631734,
        0.03251521871429745,
        -0.036348130537540026,
        -0.045084207137699936,
        -0.019576664518878004,
        0.052394079851701754,
        0.033007235535581374,
        -0.04577782102746464,
        -0.06389571387844035,
        0.05808535672950593,
        0.003971703495203021,
        -0.03192924908871399,
        -0.05356220852566701,
        0.052788709745266296,
        -0.05982188977452195,
        0.02559218383584089,
        0.00016362982808448498,
        0.029747284768091593,
        0.047146880798255734,
        0.01801660132315679,
        0.004840626326532815,
        0.013084363403925199,
        0.06452774057103132,
        -0.03672716736657873,
        0.0573554755521062,
        -0.030139968533609486,
        -0.0035302892131499767,
        -0.045092308819538636,
        -0.05564804067017841,
        0.0014331100454970421,
        -0.012695789623188559,
        0.0409449588599348,
        0.0026475028403272253,
        -0.03128224844769787,
        -0.05890588599450606,
        0.015289487133848931,
        0.024646475608191915,
        0.034738116218540505,
        0.05137811296023879,
        -0.014631210543345019,
        0.05581151046870883,
        -0.017149103251083753,
        0.033090582942672433,
        0.05422847689803233,
        -0.028833787209836977,
        0.013403342829114961,
        0.012086569607076856,
        0.032033810554795865,
        -0.002215730853634834,
        -0.004771717079529672,
        0.041531233378438046,
        -0.006939939335498372,
        -0.05047081469579555,
        0.0280781727780929,
        -0.00617475153547947,
        0.028580879813796894,
        0.001989000327583502,
        0.004850824230407184,
        -0.0346353606644096,
        0.041048767140108654,
        0.022210513541445192,
        0.017926946530346436,
        0.029117478153902202,
        0.05638428582887615,
        -0.013714230875187026,
        0.021538793470033006,
        0.05188592956272486,
        -0.041785273305770115,
        -0.01855388686861877,
        -0.013315373851165702,
        0.05883955399374329,
        -0.015495696225737916,
        0.0463443573294287,
        0.038144161630531866,
        0.002113255202601068,
        -0.014671182415268196,
        -0.03188823998174352,
        -0.05765820139548931,
        -0.06511040058163196,
        -0.002241882804045524,
        0.03384780791432768,
        0.04437693279309435,
        0.0035359595182903607,
        -0.047988638437023015,
        -0.04765447547665666,
        -0.028607756975034697,
        0.052029933916826226,
        0.010700370202895304,
        -0.0311893963079954,
        0.0424273657000573,
        0.03272335301715054,
        0.024516827960793124,
        0.06207863201630758,
        -0.01978670512951878,
        -0.048602730861217275,
        -0.013379614333711466,
        0.03973986436751149,
        -0.0646594181335492,
        -0.0528197772431096,
        -0.03043829411795658,
        0.06146355752830977,
        0.04461920826682025,
        -0.05846155584098152,
        0.029983235591813723,
        0.04769042730867186,
        0.05622142726695203,
        -0.04393476573582269,
        -0.05617981536113396,
        -0.03963174177713846,
        0.06192902006322831,
        0.026690307998816064,
        0.033263445980754744,
        -0.02466427749613046,
        0.01932333759489165,
        0.041226174326517866,
        0.010242229851678997,
        0.026146324493187,
        -0.028097422140587254,
        -0.018871012155928252,
        0.00394112576316133,
        0.015442906995884305,
        0.030995676307637977,
        -0.032263276725281974,
        0.008253008565998017,
        -0.04168007746147856,
        -0.060474312367836354,
        -0.06325511150557314,
        -0.03720428509901219,
        -0.01081989535701215,
        0.03473898580664737,
        0.01936826021559719,
        0.014447693406924414,
        0.06266765795374848,
        0.05394440030999431,
        0.06055763699452417,
        0.04172870013414217,
        0.061751646971545573,
        0.04807835918152601,
        0.05731209232515181,
        -0.0038042026132569357,
        -0.05624912218579541,
        0.03547599572126345,
        0.023367551790059688,
        0.05660129941304715,
        0.009802546040130242,
        -0.054375503777927284,
        0.06269533007701333,
        0.06310488950107622,
        0.0424410467930356,
        0.008266963276733411,
        -0.029993386962171648,
        -0.016114836177039897,
        -0.00074645420308682,
        0.04414655640012259,
        -0.06100341871787963,
        0.012115403182667206,
        -0.0105881078779817,
        0.025236448700228658,
        0.03525838333246103,
        0.049075946993146644,
        -0.04530987223434797,
        -0.03410549036696021,
        -0.05281077709906283,
        -0.027638451921961654,
        -0.040267063417841066,
        -0.022690529333461766,
        -0.0243891587120039,
        -0.059504733601667796,
        0.024169167717435717,
        -0.061891154366935756,
        0.06430993736149139,
        -0.03954729114745214,
        0.004523900388583449,
        0.037860076083376056,
        0.01202796048457049,
        -0.01969116848402573,
        0.05723616384325798,
        -0.002905023640090664,
        0.04280230443173861,
        -0.014730130406737605,
        0.04137635826554354,
        0.05175961317499102,
        -0.03912870242586692,
        0.004485098019118577,
        -0.004362032725404342,
        0.0228607916221038,
        0.04350854847611505,
        0.0031620084485184928,
        0.04814105010246889,
        0.03759062521030211,
        0.02600194226213893,
        0.019351516545589934,
        0.012983099841893591,
        0.02970946128642391,
        -0.015925611216376003,
        0.036014114719771714,
        0.03589661485670349,
        0.04561855138876398,
        0.03243036631809392,
        0.047239566287367196,
        0.05318430694965646,
        0.04525956169687441,
        0.023720675869736342,
        -0.04045740791183082,
        0.03903926998014969,
        -0.04822456573975022,
        -0.014785899922897876,
        0.05106115737026001,
        -0.031848267863619904,
        0.00980444464792447,
        0.037320886059911546,
        -0.04407436219639392,
        0.013930218151521748,
        0.04901998112572298,
        -0.018465194082075382,
        0.03830094677252121,
        -0.04542026031196337,
        -0.03209816134785418,
        0.04483889270930523,
        -0.057764892687638014,
        -0.015523396463812492,
        0.012794159641180759,
        0.03917596029360006,
        0.008339304805792487,
        0.002725151523338654,
        0.016808629700413837,
        -0.027480720008372223,
        -0.0004540743470353941,
        -0.05122260994459635,
        0.04962392106387137,
        -0.06520924940722785,
        0.05031854758773267,
        -0.023409943914920534,
        0.06078164306019201,
        0.00787950429677657,
        -0.03622894575776613,
        0.06274468348072171,
        -0.05981849047643483,
        0.013443194651087818,
        -0.029373487999238383,
        0.06004489770839614,
        -0.010448419326256217,
        -0.025185002873355473,
        0.030747106052901776,
        0.06574995243244149,
        -0.054028925048549496,
        0.05830482385059295,
        0.004098835489595379,
        0.05317397331467861,
        0.050008088682220744,
        0.06286227337472775,
        -0.045020639865396096,
        0.052997802974138176,
        0.01353224870578057,
        0.05680143440903989,
        0.05742399553657736,
        0.060315978682555275,
        -0.04189768800545033,
        0.0486076148601606,
        -0.019795793181371413,
        -0.05150972510032566,
        0.016804145748403325,
        -0.05996621170595908,
        -0.04384566929052172,
        0.022974472507521878,
        -0.00343855928229777,
        -0.045682241409055566,
        0.04394369196703223,
        -0.007918053039889888,
        -0.01975118175974067,
        -0.053298193150030496,
        0.05903158505580617,
        0.02396002743467516,
        0.003198776586699435,
        0.03383289516735834,
        0.022023985436189886,
        -0.055847898264025704,
        0.019968334223873535,
        -0.05927482705432081,
        -0.05525185574089274,
        -0.001495855521006817,
        -0.014853119469633238,
        0.05717762259988993,
        0.016523359836771962,
        0.03210944246234087,
        0.008241463238965517,
        -0.05553866761059349,
        0.03505573706371158,
        -0.015816870327940376,
        -0.06545199766857097,
        0.02525350790341265,
        0.06397740580020118,
        -0.002366222724164886,
        0.010290210853145059,
        -0.03276305941805463,
        -0.012616363728922693,
        -0.0018156921232595628,
        0.021493007710774063,
        -0.049185785202917345,
        0.06442451333591936,
        0.04631968231111726,
        -0.020575894862058415,
        -0.05912888520840008,
        0.03950245228291736,
        0.049941212131913035,
        -0.04714189413100116,
        0.006905679791471317,
        0.0310580496124641,
        0.02120092774079805,
        0.05701604206649203,
        0.0009229024677288448,
        -0.06503838526716997,
        -0.05931527355703468,
        -0.005358850346436157,
        -0.05548189983858063,
        -0.033776053138384464,
        0.016579631049108805,
        -0.009095131841150817,
        -0.04411445758713777,
        -0.0012662730226421454,
        0.06299646173093774,
        -0.06391008334687541,
        0.05061289440376597,
        0.03329322805264855,
        0.004281622689016401,
        0.002727787979646312,
        0.05754285762735984,
        -0.027748831087199676,
        -0.04240870706131419,
        0.034867693900633594,
        0.03744902741265686,
        0.05625819423240782,
        0.047184346777624425,
        0.03862709396585682,
        0.013618517787443498,
        -0.02010877648618994,
        0.05109425484422947,
        -0.058021334451633655,
        0.03599240810252726,
        0.04938185363779884,
        -0.0006587190157684509,
        -0.017813852899292493,
        -0.031638518162150846,
        -0.061761789667664296,
        0.02090701638376679,
        0.03321094588901338,
        -0.020984078436347767,
        -0.026884580569060863,
        0.04969864046494987,
        -0.003161930003067651,
        0.003457003681533799,
        -0.06246830538353001,
        -0.03833302843373764,
        0.02754121222871956,
        -0.04080664306026637,
        0.0009340342391698397,
        0.057699453599180536,
        -0.03469776801684503,
        0.02819694582505482,
        0.06147803234136904,
        0.033363594347611776,
        0.024016618073766406,
        0.053347757598846864,
        -0.025321528719028284,
        0.02046632286251302,
        0.05904139437453227,
        0.05901511600222453,
        -0.03795196554615973,
        0.05057274128198872,
        0.024870542707832618,
        -0.04817697878024498,
        0.016018186712284208,
        -0.03220787314734763,
        -0.046793403285988584,
        0.03924805973308259,
        -0.008330945360479814,
        -0.011220097828912333,
        0.0358184639035912,
        -0.05769803145826813,
        -0.013642068673778068,
        -0.043903961347234274,
        0.04691697029843991,
        0.016494229066605137,
        0.02308607885330489,
        -0.05912205011728003,
        0.030542938384603518,
        0.019096438104154873,
        0.020882717458163218,
        0.034261347302864724,
        0.059627752550603874,
        -0.02694282726902865,
        0.06289616697827262,
        -0.003506590122274941,
        0.004375012688789973,
        -0.04988574847339386,
        0.04756367455339609,
        -0.011171365208922984,
        0.006162375664562355,
        -0.028734700791120265,
        0.03250684270776105,
        0.023559117965929997,
        0.014932513068404712,
        0.032465785471385705,
        0.018359735569079067,
        -0.016202375515047277,
        0.004380678801094426,
        0.036370540223770995,
        -0.04008623449672664,
        0.0642842525410537,
        0.03587377742899988,
        -0.03773481698810793,
        -0.028051319355867792,
        -0.05723727048998897,
        -0.007403390228311292,
        -0.05799645188210482,
        -0.030987615462936338,
        0.029747307221059383,
        0.023196490523967536,
        0.058774366652644496,
        -0.027737214081252556,
        0.060174961652895466,
        0.02247574321053204,
        0.0077587879214539145,
        -0.003816120356323237,
        -0.02739274783579089,
        -0.06228530037407275,
        -0.015543754245084924,
        0.02453322166018651,
        -0.04621287822471365,
        -0.01043404735701557,
        -0.006409490826044377,
        0.04595674617226754,
        0.032035288256186845,
        0.053828079581180875,
        -0.0013353224452157966,
        -0.0639783542098586,
        -0.04620696128238869,
        0.030861684359601304,
        -0.027719716616286538,
        -0.060302012549547646,
        -0.031081824368225083,
        -0.03192521522354446,
        0.04669707342069929,
        -0.024383097233231094,
        0.03713124191432899,
        0.03485055940861809,
        -0.010485052597874555,
        -0.06545301367905915,
        -0.042690059388024656,
        -0.04262113334168689,
        0.054181249290544915,
        0.06237894882267827,
        -0.016229353029799977,
        -0.048066148579331704,
        -0.06166690059052638,
        0.0568238168175818,
        0.058365383965341466,
        0.044494677045373084,
        -0.020462816922642575,
        -0.04821069218954572,
        -0.03373564067629518,
        -0.026278362888632764,
        0.041756990456260246,
        0.021153079067466444,
        0.020298336796564377,
        -0.013225444724683576,
        0.06193448665450276,
        0.005639056205389904,
        -0.04079099455659563,
        0.019197098689332892,
        -0.009679025927540807,
        0.0006627127662119373,
        0.048101129974604924,
        0.023587934910483412,
        0.022155813436308184,
        -0.0504766295672034,
        0.0644702136924651,
        -0.039372318061355965,
        0.04846431805183492,
        0.0517857048494494,
        0.014464417924427484,
        -0.0463240428335335,
        0.06552229812389933,
        0.03865376451395174,
        0.05897951358463951,
        -0.004155523887497746,
        -0.0516869390178631,
        0.0579751490997398,
        0.0056657981016133355,
        -0.02798631025963378,
        0.030683096399873527,
        -0.05233343425973662,
        -0.012389355293397438,
        0.015203150826042115,
        0.05045840092329946,
        -0.0013637063329425274,
        0.02774578936922362,
        -0.05273966320411082,
        0.010406226945111851,
        -0.02832006384718731,
        -0.0314877214709385,
        -0.054381223962586406,
        -0.05288545763123522,
        -0.03241872945246225,
        0.003658576712766488,
        -0.0004771326954691176,
        -0.0016299899702311852,
        -0.02306856652881304,
        0.040411787236707346,
        0.0620311278392023,
        -0.017698973993026605,
        0.05888567330458882,
        -0.010653736290194555,
        0.01972887430476005,
        -0.015590819037065747,
        -0.004540899877989698,
        0.030340441501018445,
        -0.05332307517090444,
        -0.017278341019674983,
        -0.060485379629402314,
        0.033163007241206716,
        -0.020325733796453364,
        0.03449274377681608,
        0.06586064923097272,
        0.026757959120753884,
        -0.054077283385489915,
        -0.019087376104777537,
        0.0319008451869174,
        0.05685534083099626,
        0.04248483382346344,
        -0.06519921934925237,
        0.005521755989433833,
        0.06125656825015798,
        -0.030923534507265173,
        -0.008549347667928751,
        -0.003236925850417206,
        -0.064197575771172,
        -0.020127666281274298,
        -0.04112600522581515,
        -0.054417746168123164,
        0.04558270663697173,
        -0.024438635138934815,
        0.009465273978481261,
        -0.05057250164495889,
        0.04325132453342354,
        -0.059165911359069304,
        0.03680901262548632,
        -0.0462644636373616,
        0.021240064883317783,
        0.023004746158475132,
        0.048422889094971014,
        -0.03286925573485131,
        -0.024087687685553374,
        0.04291736539030456,
        0.01036480633136464,
        0.04870664454275134,
        0.05907407434307206,
        0.005953021894641063,
        -0.013490269666236676,
        -0.03614253642467797,
        0.01942145647816961,
        -0.0024340238409237235,
        0.0018408121053173085,
        0.029519440346754376,
        -0.0021383708957178524,
        0.058004194388852175,
        -0.02421621886023732,
        0.02278578634784357,
        -0.04098649996285146,
        0.04869603960516118,
        -0.060749255758725,
        0.03634669315785629,
        0.04513989858374964,
        0.05116185781637934,
        0.014152739581653822,
        0.017474072670769853,
        0.06454640612315328,
        -0.0519077758082036,
        0.0005390188071674495,
        -0.05813331729401005,
        0.0504481604581282,
        0.018319941636268,
        -0.022380440915464237,
        -0.05631062885329145,
        0.02734060220431812,
        0.04044877664468848,
        0.042657537877472985,
        -0.006349713548097794,
        0.019210287415410573,
        0.050038176628545136,
        0.03524259754552946,
        0.014638977581471391,
        0.04123238281657217,
        0.029285275297362957,
        0.061822493835092966,
        0.03549059650437272,
        -0.012334440606760283,
        0.0509482868211922,
        -0.012853705949393763,
        0.05022388586353411,
        -0.002726446239436429,
        0.04672241338215154,
        0.04905085838973205,
        0.0589349707733191,
        -0.05283912746988537,
        0.05564488378319938,
        -0.007798662427647678,
        0.06207160487410238,
        0.04089980404542546,
        -0.054589840917417615,
        0.010146329941940717,
        -0.05978472142534233,
        0.03761598131450564,
        0.05136885500571806,
        0.04101821033023775,
        -0.043249648926501474,
        -0.06315725173409062,
        -0.03361700583478217,
        -0.05909168098691391,
        -0.024193282866835353,
        0.026323385022419845,
        0.06124114119676823,
        0.04385858355659094,
        0.0207005426225616,
        0.027588071535553465,
        -0.0347710067001594,
        0.013850782286341064,
        0.025804578009523814,
        0.03787098386495042,
        -0.0019919773852349948,
        -0.012252100547816384,
        0.0372528860067089,
        -0.0021983680732376143,
        0.048496635357339134,
        0.04324614441426183,
        -0.0074942097027729275,
        0.03604824583643843,
        0.05558789726231409,
        -0.0018131598549267183,
        -0.03129750150415813,
        -0.016903197559343473,
        -0.041199173571605505,
        0.029506464704541817,
        0.05663169924635438,
        -0.044385172646181345,
        -0.023501857270290177,
        0.028454072398973084,
        0.01241975063246442,
        -0.0630803765567059,
        -0.03846819404327395,
        -0.012961946202987724,
        -0.0009622549280307616,
        0.025951653305301223,
        0.05109253605444451,
        0.03323718988183174,
        0.04991802776194745,
        -0.034180027135048634,
        -0.0026703171003677204,
        -0.04256373509002168,
        -0.01189482675832446,
        0.026438996639863484,
        -0.053027901389235986,
        0.05529266410567778,
        -0.033666802228736525,
        -0.017641495547251324,
        -0.028915546447015657,
        -0.04276022179952587,
        -0.06495632650518243,
        -0.04931819536968373,
        -0.02190815267632848,
        0.058490717166002196,
        -0.049929194200961216,
        -0.03548618360306375,
        -0.0193580477095692,
        0.014324472494370908,
        -0.03278603483516457,
        -0.05551551199613119,
        0.029674368533691136,
        -0.0028324312004498,
        -0.012988794023046686,
        0.015101429246279722,
        0.046368070622080676,
        0.04034723960827682,
        -0.05146623177898792,
        -0.05914111266020624,
        -0.023208858934482216,
        -0.012863326705783287,
        -0.025732122934263458,
        0.01920394097707117,
        0.01654510569798146,
        -0.004177620712478686,
        -0.06484728861887742,
        0.043043285311004834,
        -0.011386739574054184,
        -0.04892012350461821,
        -0.02196056640700437,
        0.043842244565203456,
        -0.03347579423378098,
        0.051815421866483344,
        -0.008289462310735326,
        0.01585882393375787,
        -0.04752534804188318,
        0.021264565827803998,
        -0.06078137542401332,
        -0.06320755887558553,
        -0.01842619606931341,
        -0.015037725317766341,
        -0.032671173879069294,
        0.052682040325028476,
        -0.06361942922649964,
        0.05239953284016292,
        -0.05732843776053035,
        0.0023533404581420336,
        0.031363521822107956,
        -0.06165857529434581,
        -0.056786169305070085,
        -0.005237617071718153,
        -0.0454696537999901,
        0.010754099900262055,
        0.049351686505746555,
        -0.006330621176656078,
        0.03425955882983227,
        -0.029936791119987864,
        -0.03838999882739131,
        -0.03664326539389586,
        -0.0023995296454045454,
        -0.023031815514009936,
        -0.054185461657462554,
        0.035984414955676274,
        -0.05412899914934438,
        0.025969090857227293,
        -0.037402714972943105,
        0.0024285577951665294,
        -0.06407439145394846,
        -0.004861742144796925,
        -0.06550117622096371,
        0.033867953700282075,
        -0.010263725351293832,
        0.06042761988611741,
        0.02160264183591916,
        0.03784412440718746,
        -0.03619817840311204,
        -0.01566438043322646,
        0.000718274783339641,
        -0.011943148602774466,
        -0.01111345828803928,
        0.003095757978061697,
        -0.008509405777897359,
        0.04923289180700553,
        0.052482664867080066,
        0.06245256615119247,
        0.0657021129706276,
        -0.0030929590778221486,
        0.029507763897583358,
        -0.005658772163662561,
        0.01772210298738221,
        -0.050254556813730464,
        -0.05744039395688644,
        0.03668626638723825,
        -0.059363971821349844,
        0.06052476431990038,
        -0.04488316381360648,
        0.03585636394762369,
        -0.06462117872171656,
        0.015866575439478087,
        0.018405273699712402,
        0.06249702578159302,
        -0.033333636007241985,
        -0.047685413746033474,
        -0.03444309578549454,
        -0.037470081658168536,
        -0.01965530778920365,
        0.030783733308305083,
        -0.008895778945509409,
        0.002630024399251266,
        0.04054669907296984,
        -0.052789396371069046,
        -0.06204842758206684,
        -0.009710509303937619,
        0.013035378782670585,
        -0.03733544054180268,
        -0.03336160550763139,
        0.06304141993662937,
        -0.03918506852690597,
        -0.037084011806544394,
        0.034290757506745116,
        0.060820271020094685,
        -0.05735823078895216,
        0.026832507947458846,
        0.0316365987440456,
        -0.017189056028970997,
        -0.05515805963691127,
        -0.03841811146607719,
        -0.04989904815134607,
        -0.034804048878764114,
        0.002377986302209418,
        -0.05348417068438189,
        -0.034798674453291954,
        0.02913779881994769,
        -0.02045939198185349,
        -0.05165473653656058,
        -0.02880442974562597,
        0.023054687970655796,
        -0.06285967457263496,
        -0.037591337799298415,
        -0.04575302173559847,
        -0.009143941461141425,
        -0.018944078154693313,
        0.03747040753351561,
        0.03471157580051598,
        -0.004156988572067619,
        0.05255728477299629,
        0.059310818876568396,
        -0.03801454006418545,
        -0.010310851520228594,
        -0.0655355824703075,
        0.008092842901876375,
        -0.06511348871463482,
        0.012295083192833843,
        0.028101936069288135,
        -0.018862852520302346,
        -0.05989359189896844,
        0.048868866638836786,
        -0.019713518246995517,
        0.009867599340598675,
        -0.0021176737933553706,
        -0.008738044666626314,
        -0.045013025001451094,
        0.003754620452225857,
        0.019464420456400698,
        0.05149526032784171,
        0.053537142168405535,
        -0.01882127054979273,
        -0.01574648841072711,
        0.015195603943034304,
        -0.06121089706393211,
        0.042803408033368746,
        -0.016108024732887145,
        0.01696315935138995,
        0.023008419694232923,
        -0.02327318077766544,
        -0.047837570948664865,
        0.0368384041727268,
        -0.03877762859090018,
        -0.014259105228476074,
        0.003906454168672955,
        0.0543921951992649,
        -0.03765366179361922,
        -0.021447472819196064,
        0.025326165876768073,
        0.0006008781737422653,
        -0.05573834321680339,
        -0.016457144832334278,
        0.046730989594571566,
        -0.015312874282760534,
        0.06027778957675498,
